1936 100
to -0.1610521 -0.83435285 -0.030143179 -0.6544361 0.19052416 -0.12665844 -0.9530501 -0.39657643 -0.20856176 -0.39167467 -0.10404185 -0.34025094 -0.35666516 0.19324397 0.120765 -0.22119346 -0.6193309 0.4408452 0.23144719 -0.044282768 -0.0744312 -0.5487944 -0.49099523 -0.007448271 -0.6260631 -0.3673769 0.17497922 0.22093327 -0.18397216 -0.015671596 0.26037595 0.69051796 0.13786018 -0.7106694 -0.01886934 -0.44309184 0.18549642 0.41880834 -0.1473551 -0.4937455 -0.564564 0.20521355 0.022944048 -0.8055951 0.2382831 0.35081303 -0.13478163 0.538356 -0.5840544 0.257451 0.3160318 -0.34256604 0.24157515 0.20627587 0.026512055 0.12287787 0.14234959 -0.29979062 -0.044604164 -0.3430344 -0.38097134 0.35049412 -0.025451057 0.3471832 -0.015824515 0.09669353 0.03579804 -0.589007 -0.2575346 0.37377778 0.3889752 0.5470328 -0.64276785 0.0062258737 0.010388769 -0.36256665 -0.22942655 0.4852306 0.21589692 0.06901383 0.3990725 -0.1802417 -0.2578747 -0.57002795 0.21939646 -0.59265983 0.23663379 0.6931098 0.28945482 -0.4973774 0.19074312 -0.37533578 0.25610313 0.45869306 -0.122148246 0.49773934 0.34661815 0.16849619 0.088441476 -0.052230336
i 0.1525569 -0.31660235 0.051554397 0.063285746 0.22476672 0.21506946 -0.33172578 -0.3164239 -0.2505233 -0.07886489 -0.21740294 -0.08301512 0.33082393 0.61337155 0.15101634 0.18398656 -0.33736452 0.40150815 0.0019000903 -0.14773798 -0.36873084 0.19990598 -0.39645383 0.17553397 -0.2980652 -0.052739587 0.12409673 0.08653562 -0.13778189 0.06462036 0.18312962 0.054116987 0.28770438 -0.32209522 0.020665225 0.043189693 -0.42882997 0.008793225 -0.44832832 -0.4156489 -0.49942386 0.11330678 -0.012097274 -0.28492486 0.053469058 0.37212345 0.022724515 0.27263024 0.46034858 -0.34200084 0.027528385 -0.120378524 0.2388929 0.12409988 -0.08182246 0.099753484 0.042875905 -0.26346806 0.3216387 -0.13973963 0.39691913 0.13120174 0.32335696 0.23607117 -0.65517575 -0.56621283 0.5376767 -0.11093554 -0.10687005 0.14488427 0.09348485 -0.103195064 -0.19513392 -0.34589213 -0.29549402 -0.32761 -0.01684931 -0.34847757 0.31277266 0.44149533 0.61359996 0.4933486 -0.2686002 0.5225452 0.31043458 0.0844967 -0.06486233 0.06971807 0.09528059 0.41213593 0.26586613 -0.39431053 -0.13195118 0.32317516 0.3817596 0.3868618 -0.08079351 -0.49824235 0.2532102 0.41940385
the -0.016567579 0.7897408 -0.07311687 -0.22582209 -0.39463115 -0.043235432 -0.47639108 -0.24073741 0.4380478 -0.18426031 -0.2517676 -0.41002285 0.20069753 -0.19073783 -0.04134351 0.1632252 0.14834638 0.3061444 -0.10775682 -0.424733 0.2267086 0.28794003 -0.32496518 -0.34975457 -0.43617192 -0.086488195 0.27337566 0.19558361 -0.6190998 0.18095654 0.2782617 0.032561768 -0.4243837 -0.41344163 0.16439757 0.20496924 -0.2056111 0.12685248 0.21026014 0.2702056 -0.17966673 0.25767553 0.29249147 0.29733258 0.20956334 -0.19165456 0.16550641 0.09699261 0.60891384 0.41102558 -0.042505845 0.40323997 -0.20287097 -0.16933908 0.22229281 -0.29767403 0.44115442 0.2933219 0.044113945 0.25746256 0.2034415 -0.029927507 -0.37042394 0.2673153 -0.072783396 0.29375744 0.090482116 0.03415785 -0.24291867 0.03345226 -0.07918451 0.4684384 0.18338174 0.06230978 0.2617426 0.10126714 -0.29076076 0.087380834 -0.040451232 -0.13823304 0.12101421 -0.10922237 -0.019128209 0.3183611 0.11175985 -0.058239 0.2225448 -0.25292358 0.11149631 0.24881202 -0.025253376 -0.5362208 -0.026767986 0.09065868 0.21576107 -0.13383332 -0.68899846 0.2401024 -0.12705861 -0.25937867
you 0.19034378 0.2554788 0.28880936 0.06008265 0.28422427 0.28358975 -0.5845261 0.29425392 0.16852304 0.1244688 -0.16831832 -0.3004136 0.41766056 0.5623412 0.5360329 0.29839346 -0.48336256 0.32185203 -0.13508491 0.02530827 0.66249764 0.08558035 -0.4883975 0.07467149 0.4725135 -0.29491434 0.14119236 0.14453138 -0.31672332 0.17598608 0.015422107 0.34263557 0.6018495 -0.38121617 0.00425533 0.27805308 -0.5455603 -0.07767184 -0.55665696 0.16547967 -0.48928878 0.45694035 0.05840038 -0.1555144 -0.35300633 0.5192875 0.035577983 0.24093382 0.5578496 -0.1440711 -0.23364204 -0.22832748 0.5804386 0.19865942 -0.60685307 0.71348214 -0.094806515 -0.3768465 0.13916643 0.29038322 0.34126136 0.10425378 0.5784538 0.32742083 -0.7580622 0.029222652 0.0832891 -0.19007339 0.2724457 0.039348383 0.21919057 -0.59518355 0.036608793 -0.6144915 0.03713455 0.022193138 0.7495163 0.19802256 0.6202942 0.79252815 0.2969112 0.2547991 -0.2484906 0.74749446 0.11496549 0.17682324 0.24592826 0.19002776 -0.20285103 0.26292658 -0.18233578 0.4319177 -0.21661536 0.047735892 0.3791374 0.7329967 0.34665343 -0.39992717 0.19201209 0.27436596
a -0.32776886 0.6606918 0.11280809 -0.20512885 -0.2377448 0.15511969 -0.05170235 0.036706276 0.25837576 -0.085634224 -0.15111908 -0.19409773 0.38078246 -0.13760552 -0.2671928 0.09417781 0.0056275274 0.15636374 -0.035316754 0.15674677 0.14947033 0.25673687 -0.47844425 -0.06926954 -0.24557611 -0.0634648 0.14325206 0.23957455 -0.53833705 0.35402727 0.053848922 0.33481896 0.0890085 0.08271388 -0.023909304 0.40051314 0.1763135 0.047361106 0.13064285 0.24635343 -0.18320486 0.4862312 -0.13371778 0.008058999 0.02206827 -0.112713814 0.3398012 0.028277338 -0.19639033 0.3037893 -0.09680061 0.05996236 0.19760834 0.07097335 -0.12435359 -0.28192 0.32192954 0.14080572 0.15298648 0.134364 -0.15686883 -0.17242463 -0.28727296 -0.18505654 0.28219602 0.15368259 0.4418771 0.034680873 -0.13466191 0.07709087 -0.13549542 0.554557 -0.041748773 -0.107374534 0.25691578 0.13581836 -0.2241921 0.3519003 0.2579336 0.19674592 0.017140405 0.041109584 -0.006369402 0.37581047 -0.03420816 -0.14536825 0.27827212 -0.13281503 -0.15752001 0.42128968 0.01843816 -0.21080382 -0.2800407 0.102719955 0.09766517 -0.20123033 -0.31351063 -0.123140596 -0.032451183 -0.0063975668
flight -0.033442743 0.11971282 -0.18951483 -0.11360877 0.15336643 -0.08427297 -0.0966041 -0.15104967 0.107062474 -0.12785774 0.23311248 -0.36465886 0.29515222 -0.24002613 -0.10456469 -0.4208017 0.014163374 0.09516779 0.4250916 -0.2521167 0.18118225 -0.18118058 -0.10942137 -0.047275152 -0.4466134 0.14497052 -0.07264835 0.16818589 -0.14191028 0.073121905 0.089861184 0.030306026 0.11852205 -0.19298805 -0.0021908213 0.10612172 -0.09661569 0.16027512 -0.20513639 -0.09226023 -0.30081454 -0.0928546 0.01846978 -0.39285207 0.24377778 -0.4914297 0.055075884 0.22551502 0.0069911964 0.15134764 -0.025472967 -0.08862951 0.047798023 -0.06408271 -0.08303043 -0.2142686 -0.10786016 0.015378536 -0.013998335 0.111989744 0.2645445 -0.22051118 -0.11007728 0.08500174 -0.029561197 0.014196433 0.22293569 0.15827818 0.08704115 -0.058416415 0.34276456 0.18258531 -0.37821493 -0.2989008 -0.15637636 0.16902114 -0.24905488 0.48763585 0.116410404 0.16206458 -0.37342966 -0.21190487 -0.07358544 -0.33242103 0.118976116 0.13393924 0.27659371 0.28682944 0.10129651 0.16197442 0.09442276 -0.35298908 0.13584933 -0.046658136 -0.1687396 0.17246805 -0.10258526 0.010337703 0.17402714 -0.056336347
for 0.42914093 -0.45274282 0.20087996 -0.020543097 -0.14149095 0.31727624 -0.19887917 0.23090573 0.05629567 -0.2398455 -0.032794386 -0.020380637 -0.2032105 -0.14008671 -0.039642207 -0.06296688 -0.50020117 0.13768163 -0.22394322 -0.25102997 -0.03853163 0.059154306 0.12242379 0.05931065 0.20583236 -0.09482451 0.19325909 0.18369843 -0.06344305 0.110072695 0.06780496 0.026331471 0.19220978 0.10125465 -0.06182146 0.11185152 0.016197018 -0.20018508 -0.29304293 -0.08323834 0.1673838 -0.1291913 0.00075132644 -0.27486882 0.20726985 -0.2002478 -0.027300538 -0.041233074 -0.3092471 0.044197295 0.3042204 0.099854365 0.42315778 0.2771915 0.07137199 -0.24920738 0.0162648 -0.17935409 0.14785765 -0.06440347 0.12302015 -0.21437648 -0.037497997 0.34962833 -0.08315167 0.17644337 0.3447039 -0.05008963 -0.13660105 0.21780902 0.08368345 0.48592296 -0.1649326 0.22037587 -0.02121807 0.34087074 -0.15354916 0.17796084 -0.30696645 0.11063498 -0.13317224 -0.3224741 -0.28272307 -0.1903093 0.0056629023 -0.1099042 0.035645917 0.3379425 0.4353934 0.05353107 0.09557008 0.109565556 -0.104500815 -0.049984466 0.08555227 -0.17631719 -0.13839218 -0.28220063 0.13666445 0.1945142
on 0.19772784 -0.06596746 0.0013469266 -0.13448703 -0.025822183 0.18679084 0.18813618 0.072326064 0.22603996 -0.25523567 0.4058128 -0.086847626 0.19255848 -0.055955604 -0.17385264 -0.24525797 -0.12425423 -0.21508583 0.18584505 -0.32519984 -0.06780964 0.07799368 0.0064448416 0.14074144 -0.33527517 0.059961524 0.08676172 0.27867106 -0.3209748 0.19635202 0.014423956 0.3617783 0.1771321 -0.17163685 -0.19596833 0.12677677 0.08077163 -0.18005404 0.12630913 0.11368525 0.033435475 0.19109519 0.032949954 -0.4037653 0.028903188 -0.61623746 0.097463064 -0.0667496 -0.20953058 0.1463369 0.12818371 0.006442454 0.15681084 0.18742175 0.120423876 -0.3758404 0.14509259 -0.15573859 0.23266116 -0.08007571 0.1364414 -0.15925494 -0.16472775 0.25223124 -0.06573064 0.11596586 0.30859277 -0.019626906 -0.15040971 -0.033491682 0.035415966 -0.22964515 -0.2583197 -0.22093128 -0.070054084 0.14527595 -0.06609114 -0.07959813 -0.017121317 0.083843105 -0.12592593 -0.24232778 -0.2591144 -0.16431853 0.17113863 -0.24780604 0.33986014 0.032332737 0.05245667 0.11833672 0.1238608 0.36479896 -0.24553595 0.04393931 -0.25038454 -0.44403967 -0.036699425 0.0042129075 0.15602869 0.20690651
my -0.064165644 0.7244725 -0.15196756 -0.21608081 -0.03580861 -0.107804984 -0.09545167 -0.021812964 0.2488668 -0.08733319 0.2894866 -0.25119942 0.18252696 0.04082151 -0.2748061 -0.2476934 0.04010984 0.0018877139 0.24071048 -0.14254458 0.17244883 0.28771177 -0.004761044 0.024696726 -0.40002674 0.14410791 0.09486279 0.14576666 -0.23945853 0.37064716 0.051225666 0.22938281 0.08011203 -0.12925272 -0.29439256 0.16075505 0.42421952 -0.064938314 0.0034401729 0.33445314 -0.18499462 0.37119508 -0.12962565 -0.11037484 0.22488627 -0.34693462 0.23988564 -0.14287736 -0.2256054 0.27659887 -0.14560655 0.045497704 -0.037772488 0.21774057 -0.1818832 -0.025497844 -0.027272794 -0.06567794 0.021725018 0.13465346 0.10189392 0.43711704 -0.13374867 0.14072639 0.22021633 0.016949862 0.21200411 0.15208876 -0.1391778 -0.046138093 -0.03248868 -0.10338405 -0.14983942 -0.0694058 0.051408038 -0.10523831 -0.24084738 0.1905376 0.30141744 0.18742126 0.026338452 -0.25346273 -0.14743777 -0.14077412 0.21020126 0.13623624 0.35601723 0.14722604 0.06733903 0.22373801 0.10117803 -0.009854988 -0.1340198 -0.048824508 -0.0820374 -0.66711825 -0.058334734 0.10149376 -0.009921344 0.02274973
in 0.16301566 -0.4559256 0.21116225 -0.037262287 -0.1362816 0.25661215 -0.51133823 0.24717654 0.03384987 -0.34586343 -0.074121855 0.46515775 0.4139658 -0.22215289 -0.04419075 -0.35670814 -0.3929447 0.21808624 -0.04437994 -0.63005024 -0.083208546 0.0016747016 0.050473165 -0.034665998 -0.2614753 -0.3068113 0.11902754 0.18908994 0.19160098 -0.031135602 0.26668015 0.40592057 0.041700438 -0.10356895 -0.30830532 0.072179854 0.2683755 0.050449274 0.033910006 -0.058620315 0.2790546 -0.18609436 -0.06401023 -0.095829874 0.18061739 -0.13756734 0.21476218 -0.100846015 -0.17065549 -0.060114734 0.29184476 0.053625416 0.21819822 0.077088594 0.03054958 -0.023881173 0.11049003 -0.106329784 0.3471705 0.07206624 0.115939386 0.15230343 -0.14858858 0.26912594 0.37042361 0.37328553 0.25283146 -0.03861865 -0.013389095 0.11620744 -0.042586777 -0.13639218 -0.14644006 -0.32071036 0.027866324 -0.11261778 -0.008235756 0.31032994 0.17674683 0.0073421565 0.13597815 -0.06285808 -0.3817367 -0.10637445 0.12991242 -0.06720424 -0.04500268 -0.111705676 0.16577977 0.049860407 0.20750953 -0.21482582 -0.26606804 -0.009611876 0.055538043 -0.6061156 -0.06094536 -0.24577537 0.038043857 0.23824577
t -0.09586297 0.86389446 -0.41647953 0.19824965 -1.4849477 0.46616438 1.0957253 0.25586212 -0.39594737 0.3208846 -0.4807145 0.49052644 -0.38962597 -0.6050965 -0.36548895 -0.5630205 0.32020336 -0.21027769 -0.47167507 0.3293476 -1.1318065 -0.2523095 -0.18693854 -1.8367358 0.063021764 -1.4428666 -0.37353688 -0.2221867 0.31401843 -0.3103662 0.29157236 -0.4959078 -0.13924521 -0.13115762 -0.1033619 0.14315441 -0.29357588 -1.0529492 0.29261434 0.91535014 0.5296185 -0.33395097 -0.2994344 0.46696752 -0.22852588 0.53162646 -0.3802722 -0.28523242 -0.54526156 0.34464443 0.9714724 1.4697813 -0.34534743 0.94205576 0.38615507 0.35650432 1.1740845 -0.17901388 -0.11897373 -0.43931407 -0.27818567 -0.319022 0.35971949 -0.009731289 0.9932055 -0.19250832 -0.25842306 -0.42745212 0.30229664 0.34887785 -0.55192953 -1.1990399 -0.7271579 0.2380961 0.12961914 -0.44280764 0.09200411 -0.5016987 -0.13282134 0.33229864 -0.5993418 0.31219226 0.4185084 0.4566208 0.9816821 -0.45534623 -0.30390248 -0.41586125 0.8142331 -0.35909984 0.21212359 -0.8332956 0.3289829 0.36215308 -0.33489826 -0.5005267 0.20984268 0.2347461 -1.2926257 0.30775386
co -0.058549646 1.2294363 -0.07483212 0.30268744 0.09055874 1.4670115 0.9587746 -0.42372277 0.05267524 0.106105454 0.36241904 0.28652722 -1.3907007 0.77375555 0.33640006 0.5713974 0.13614953 -0.21049537 0.38853127 0.41183764 -1.4009653 0.010889025 -0.21198557 -0.24862878 0.23758459 -0.71183753 -0.11758183 0.006512215 0.2342208 -0.39907223 1.7532961 0.49453643 -0.25155553 -0.10663773 -0.046483923 1.9667675 0.020667238 -1.7567221 0.22785288 1.5423938 0.3190125 -0.107138716 0.31189123 0.35689074 0.091603234 0.17967802 -0.034582727 0.38944998 -1.0497879 -0.4492239 1.8182535 0.010498531 -0.1622456 1.7289782 -0.43571687 0.20817249 0.06470861 -0.23241301 -0.0019548875 0.4285801 -0.14836924 -0.24789126 0.24774444 -0.14199695 1.580655 -0.23751202 -0.18944667 -2.0161698 0.11479223 -0.31355086 -0.7371823 0.032770157 -1.1833938 0.31789556 0.2422168 -0.29420945 0.31348345 -0.6186878 -0.29657158 1.3439649 -1.7917529 0.23680586 -0.6388993 0.14816439 0.5214726 0.009082497 -0.25574145 0.051169097 0.9396728 0.055754922 -0.38503122 -0.8936646 0.066623434 1.1991909 0.079111084 -1.0694544 -0.13402608 0.1329819 -1.7810647 -0.29611704
is 0.28823784 -0.081985176 0.055020448 -0.2292291 -0.15308425 0.34044674 -0.13862833 0.111761555 0.22741167 -0.16671847 -0.0013055992 0.011061762 0.24659437 -0.1870367 0.17245376 -0.36711037 -0.41941562 0.1537296 -0.13340172 -0.25474623 0.17050448 -0.031403154 -0.16961166 -0.0030279956 0.07007557 -0.054531727 0.2275723 0.08613031 -0.16613187 -0.08661215 -0.015541109 0.049626075 -0.14745526 0.2109644 -0.029623194 0.041648466 0.025074331 -0.016509693 0.25066024 0.22076936 0.020274026 0.02218529 -0.025944412 -0.23630318 0.08691998 -0.16638762 -0.13856944 0.037748955 0.28239346 -0.031715736 0.25006172 -0.10739809 0.2603941 -0.011259544 0.12913361 -0.17362018 0.13506138 -0.10275929 0.27979264 -0.26886496 0.0095962025 -0.40772945 0.023512006 0.11304572 -0.023106279 0.12917225 0.20132287 0.035974998 0.13137373 0.15593277 0.12809741 -0.75004977 -0.16377719 -0.21829656 -0.10897253 0.23088828 -0.03734197 0.51372576 0.121691555 0.050386798 -0.44116196 -0.03579517 -0.34837803 -0.11824917 0.13184336 -0.12411663 0.01571303 -0.11850286 -0.10826801 -0.010904612 0.017391605 0.09332109 -0.18045516 0.25128642 0.07802838 -0.06843646 -0.41210514 -0.04286241 0.05252662 0.07407854
and 0.17009673 0.22100343 0.090390444 -0.14906466 -0.048923396 0.28375414 -0.11862538 0.01231595 0.16671236 0.0032276984 0.13961707 0.008676668 0.13363995 0.23127717 -0.30598882 -0.13044807 -0.07494765 -0.092870705 -0.09221514 -0.16449067 -0.12437488 0.11308191 -0.09681912 -0.07287644 -0.07518157 -0.11782128 0.054281533 0.32672554 -0.21112017 0.21701398 0.18482137 0.010039623 0.01326239 -0.11271734 -0.17516778 0.21260807 0.19122812 -0.15894929 0.0915299 0.050703607 -0.0014954233 0.09784671 -0.17282902 -0.057286806 -0.04296797 -0.13299118 0.20336442 -0.11334272 -0.12522015 0.13513596 0.19459546 0.1033863 0.29284066 0.12223551 0.24646555 0.0074467836 0.119810075 -0.043049917 0.16663375 0.06863292 0.15396547 -0.23864366 -0.14819473 0.18828985 0.08355183 0.15354803 0.09240184 -0.20927294 -0.18122609 0.28975302 0.01854926 -0.3199434 -0.039895434 -0.10789632 0.047709018 -0.031562705 -0.18845409 -0.24016649 -0.12316927 0.42611837 -0.07371628 -0.14008479 -0.2897705 0.0437692 0.3483724 0.20339157 0.115215935 0.1362392 0.14252421 0.34261343 0.114673026 0.32150775 -0.15510055 0.107136756 0.12997045 -0.36787075 -0.15728348 -0.16195399 -0.07338094 0.16344234
http -0.36984155 0.90350044 -0.3024327 0.26799598 -0.0844954 0.43706587 0.8309277 0.24594833 -0.15006031 0.3230752 -0.1685412 0.5178595 -0.93860084 0.41357887 -0.28105214 -0.5254485 0.15607932 -0.16592793 -0.24381492 0.43211824 -0.9961353 -0.41164145 -1.2269272 -0.10947224 1.3560714 -0.68075633 -0.33434474 0.13220622 0.3664493 -0.40023637 0.3966418 -0.38277677 -0.40514448 -1.4575477 -0.7406359 0.17134744 -0.33095932 -0.7471287 0.3809815 0.9079155 0.41023588 -0.3773407 -0.201975 0.44898948 -0.3716512 0.32191682 -0.2687788 -0.2772008 -0.72097147 0.36718413 1.0758629 -0.0018391113 -0.3552406 0.899641 0.33258048 0.21915852 -0.116168104 -1.2263464 -0.25698432 -0.42067838 -0.21355274 -0.3641017 0.3979578 -0.085881904 0.8538822 -0.38616705 -0.22564916 -0.7202519 0.25238666 0.17131044 -0.8752288 0.37024012 -0.91755176 0.45018512 1.0661088 -0.5785442 0.44260794 -0.69622195 -0.10834283 0.50875473 -0.78615093 0.23533627 -0.46013504 0.30724624 0.41133288 -0.33944303 -0.19076017 -0.14479442 0.7907492 -0.061484795 0.31586188 -0.8777206 0.23706295 0.55143625 -0.21087793 -0.7644514 0.3419809 0.22273465 -0.84010595 0.2820689
your 0.033126462 0.33412158 -0.08180539 -0.28461474 -0.14765047 0.22892481 0.12683408 0.100749366 0.23031648 0.006486034 -0.061969873 -0.037598055 0.34850815 -0.23789947 0.09098589 -0.20585568 0.005752712 0.15580694 -0.1196568 -0.0505227 0.24097861 0.07600678 -0.21553601 0.11223249 -0.30490184 0.0039503938 0.077532694 0.19789812 -0.17627747 0.34249142 0.2989415 0.10073331 -0.31281543 -0.16549334 -0.08496638 0.21226563 0.047163703 0.043975126 0.53247213 0.25242227 -0.036052447 0.025308557 -0.020167114 0.22901267 0.31065437 -0.25662902 0.1550885 -0.0027387436 0.2152403 0.24266547 0.19553967 0.21046965 0.23992318 -0.19406721 -0.018447049 -0.12885405 0.40974125 0.14259733 0.20284696 -0.06699408 -0.02933596 -0.32794428 -0.24306576 0.26670486 0.1039216 0.24779442 0.41709325 -0.16874568 -0.022864694 0.12060958 0.21244057 -0.40285137 0.09287785 -0.28268453 0.075635195 0.32482755 0.07484238 0.4925266 0.27610454 -0.11739029 -0.15819244 -0.04811769 -0.20367157 -0.07968935 0.057636037 -0.08756526 0.295699 -0.059648816 -0.090146944 0.058783077 0.05570556 0.28763545 -0.13262935 0.21775597 -0.024799172 -0.48085725 -0.50089365 -0.0055281357 -0.027787795 -0.041121148
from 0.09141114 -0.22414933 -0.16202475 -0.028356269 -0.063884474 0.10693149 0.1952064 0.15771432 0.23515974 -0.017309949 0.09672337 0.27520728 0.25030863 0.1841218 -0.12055293 -0.42482242 0.0034423869 0.06035865 0.25452408 -0.07430548 -0.033642158 -0.04987288 0.093186505 -0.15761587 -0.18941553 -0.35947308 0.1989001 0.16333602 0.084872715 0.23774618 0.2032128 0.40530273 0.09804035 0.15725091 -0.2970705 0.11927307 0.2848849 -0.13982406 0.062047053 0.14219795 0.097414225 0.40938926 -0.09548643 0.078430176 0.076292165 0.079263754 0.36111474 -0.045812435 -0.26114053 0.0789989 0.00801822 0.1729932 -0.09204351 0.10082111 0.1668593 -0.0462844 0.28596693 0.024712708 0.17030197 0.015061544 0.12982088 0.50175786 -0.14932732 0.25110748 0.25684407 0.19885945 0.040925555 0.05643011 -0.27041724 -0.01721937 -0.011585166 -0.12555602 0.18984793 -0.330753 0.081895284 -0.5247292 -0.29523382 0.032896265 0.16498554 0.00788644 0.26447394 -0.22354047 -0.0923519 -0.2683466 0.35736182 -0.13571157 0.124014094 0.09986599 0.24077068 0.056111876 0.31412026 0.15580761 -0.08513911 0.2525096 0.15779197 -0.011492186 0.072594084 -0.1521607 -0.09761539 0.21531978
of 0.2117352 -0.21432123 0.25038162 -0.07271488 -0.16565606 0.2545382 0.14555605 0.04612708 -0.017304666 -0.2870107 -0.07452989 -0.030881504 -0.40421376 -0.082251534 -0.1223509 -0.30090907 -0.4623751 0.1961018 -0.056207538 -0.09830225 -0.062633395 0.17693722 -0.0062890933 -0.0336944 0.27702594 -0.16772404 0.1451286 0.27675024 -0.10040751 -0.066588394 0.14386298 -0.034999177 0.06622629 0.010329841 -0.25017443 0.19256738 0.1102134 -0.14918935 -0.06569267 0.18208788 0.09068653 -0.06954579 -0.02737112 -0.17130962 0.14648502 -0.13380103 0.11205866 -0.1393954 0.0165876 0.07379269 0.25738737 0.049445827 0.38696808 0.09313631 0.17735368 -0.119764775 0.23154105 0.030525196 0.34554887 -0.15562002 0.09123027 0.11621907 -0.12046492 0.19540629 0.07744721 0.5215966 -0.06766596 -0.16471273 0.0056807655 0.053788375 -0.08006788 -0.17351988 0.15408503 -0.12222157 0.09097529 -0.6552754 -0.08957912 -0.30968598 0.10099633 0.18163602 0.047572665 -0.3219746 -0.21113454 -0.1380644 0.20504516 -0.21209985 0.06340694 -0.10552645 0.32830158 -0.22746608 0.2794873 -0.04743923 -0.048581712 -0.049606342 -0.12603751 0.35780808 -0.016210683 -0.16137362 0.027187234 0.11767607
me 0.1200718 0.4061099 0.02853214 -0.16023175 -0.03491298 0.22909017 0.21176243 0.021634566 -0.066106714 -0.12640993 0.035546515 -0.011132972 0.23054767 0.20338194 0.013618107 -0.025852723 -0.16852272 -0.00286425 0.04616976 -0.056658097 -0.031063575 -0.030020298 -0.0040949495 -0.023704112 -0.014572446 -0.12892614 0.24674813 0.22801602 0.0069243116 0.022299355 0.09470536 -0.14658132 0.20017421 -0.046008542 -0.064009 0.1439413 0.09933082 0.08217166 -0.1839609 0.06564217 -0.010669923 0.014483279 -0.083285585 -0.06279846 0.023074033 -0.16802475 0.30206725 0.0016775386 0.02360861 0.02781154 -0.02621648 -0.03583314 0.09546576 -0.020090532 0.022234913 -0.046298433 -0.020216709 0.051742896 0.15029591 -0.0005855976 -0.049924772 0.216854 -0.075298645 -0.027970817 0.17821929 0.21900684 0.2286456 0.08496229 -0.08864253 0.09453432 -0.022971947 -0.026220193 -0.15149243 -0.3303645 0.100870766 0.05550598 -0.19638288 0.12783882 0.37966356 0.18665548 0.16963916 0.0045979503 -0.2962699 0.008512086 0.18827485 -0.018682323 0.15690996 0.1347696 0.0140907 0.17816453 0.09665394 -0.0091171255 -0.19001287 -0.052676506 0.055724274 0.123702414 -0.14310606 -0.17337 -0.03213948 0.06438765
have 0.18535687 0.09141696 0.22814037 -0.27602473 -0.038055215 0.0057337186 -0.022459324 -0.024340812 -0.04384146 -0.10770993 0.035726033 -0.078677915 -0.26883215 0.34233904 -0.05052331 0.19400711 -0.13461864 0.100809686 0.018183561 0.033269826 -0.011195569 0.06003203 -0.03896325 0.05498294 0.13299523 0.008816604 0.11568488 -0.02769237 0.042121492 -0.038199227 0.067284815 -0.2497641 -0.04244908 0.16369382 -0.0319825 0.037910853 0.06415319 -0.11175481 -0.37806877 -0.12352981 0.01728389 0.043176357 -0.09200552 -0.12706777 0.17347221 -0.062625535 0.016870368 -0.054499526 0.23672082 -0.2707682 0.079816625 -0.049438704 0.07969304 0.110548876 0.11454889 0.19130684 0.0595731 -0.02353159 0.082771875 0.0632366 -0.07355513 0.049550995 -0.015078552 0.041527636 -0.07830666 0.060278147 0.022249037 -0.16897117 0.012215689 0.12602825 0.016236044 0.024425877 0.106001474 0.06301553 0.11887837 0.46482992 -0.10537685 0.039162055 0.10481474 0.22946632 0.049265143 -0.0996647 -0.051240787 0.14394733 -0.026337123 0.17765054 -0.01708948 0.38753584 0.06043986 -0.0065599605 -0.037298564 -0.14862593 -0.14983815 0.16258678 0.120256744 0.3253416 0.16611956 -0.09452329 0.07785748 -0.032250967
it 0.094481654 0.087136894 0.09365678 -0.12843029 0.039940592 0.10253621 -0.1675708 -0.03138232 0.011677253 -0.06484742 0.039789077 -0.07792541 0.24468368 0.12491956 -0.09373678 -0.052079942 -0.07778906 0.18072468 -0.056540675 0.0067777354 -0.17051007 0.14225301 -0.06840576 -0.024509247 0.014880293 -0.15475889 0.06156464 0.05361338 -0.20416525 0.21347864 0.16393158 -0.027981369 0.10645514 0.1189496 -0.06848919 0.028316924 -0.08206542 -0.084621154 -0.0046894616 -0.060107514 -0.091971114 0.08563622 -0.053561717 -0.18339702 0.08240599 -0.067102306 0.17992118 -0.08128975 -0.09632448 0.03867957 0.040952496 0.011218496 0.08565908 0.15364283 0.02847448 -0.02498299 0.13491623 -0.02733933 0.15478359 -0.13296844 0.10016835 -0.068587504 -0.042661406 0.03968162 -0.039889067 0.050947007 0.14416683 -0.11138043 -0.17303155 0.15526901 -0.0005636787 -0.20279422 -0.07948559 -0.106738545 -0.018768689 0.2120989 0.116266206 -0.078655146 0.14857312 0.23946273 -0.0540673 -0.003010782 -0.20837268 0.1297068 0.08912448 0.16492404 0.06783032 0.24991666 0.15863954 0.19926393 0.091480106 -0.045010794 -0.21766958 0.16674985 0.089368224 -0.112958275 -0.142209 -0.14861462 0.041330848 0.04208435
with 0.21075983 0.15444142 0.13354233 -0.12766153 0.0529119 0.11563669 0.108054236 0.022775447 -0.02411702 -0.14291155 0.094307505 -0.05492583 -0.094359495 0.2212526 0.0021875862 -0.019137911 -0.11028482 0.01884619 0.0184939 -0.23786756 0.1291888 -0.03334566 0.15745506 -0.07269708 -0.015049625 0.016774252 0.051612362 0.0714905 -0.0017650475 -0.030934213 -0.0044380133 -0.07319609 -0.0121182315 -0.02750005 -0.046295825 0.002387907 -0.016468799 0.046568412 -0.30462807 0.082392804 0.0022731433 -0.09802912 0.058351167 -0.15166752 0.056672044 -0.25093612 -0.024681518 0.010720211 -0.032379333 -0.058082625 0.060475267 -0.09858291 0.086454704 0.012446795 0.09830301 0.12443394 -0.05094956 -0.036478903 0.07693654 0.03096675 0.05706271 0.1271637 -0.0018305025 0.01896846 0.07109938 0.17578495 0.10340142 0.024982704 -0.119064435 0.036510766 0.055697016 -0.02105063 -0.015201369 -0.07297441 -0.018259402 0.3147539 -0.050569564 0.006088332 0.1482598 -0.07694791 -0.11829303 -0.22634324 -0.09195313 -0.13525315 0.0653383 0.022103788 0.11041211 0.31354195 0.010111679 -0.039825074 0.08953331 -0.3424198 -0.043306086 -0.11868689 0.15317787 0.23154877 0.089347675 -0.1380316 0.12393842 0.10202084
but 0.16133358 0.13579851 0.11958882 -0.09007909 -0.13107252 0.049512103 0.08171009 -0.032513473 0.17531615 -0.16187234 0.0054169237 0.07119147 0.016277857 0.19444506 -0.15664789 0.013289573 -0.04954177 0.091558434 -0.1767347 -0.09702666 -0.020289121 0.10779832 -0.09342917 -0.032625735 -0.18547939 -0.07372675 0.06367807 0.1474061 -0.10140913 0.065915406 0.05523293 0.059377268 -0.11572447 -0.0856994 -0.03481528 0.14132017 0.038963947 -0.07571437 -0.16999915 0.10950793 -0.014610434 0.08678203 -0.041445855 -0.04984991 0.090903915 -0.19191729 0.10134631 -0.113491304 0.027241198 -0.009975384 -0.032817625 0.1258203 0.008226476 0.04606474 0.057160888 0.23560137 0.061961845 -0.006566651 0.08100912 0.06298477 -0.0242875 0.069022454 -0.19872043 0.023948075 0.17463411 0.10528247 0.13740015 0.03396583 -0.22019951 0.13248856 -0.0033632484 0.031788934 0.0020957447 -0.10624874 0.15868409 0.030984841 -0.045896076 -0.09296096 0.1677493 0.020540634 0.017471902 -0.06094213 -0.025420966 0.06468271 0.08325628 0.22495079 0.14462142 0.16437995 0.12545377 0.2406729 -0.07067334 -0.16155714 -0.12475234 0.22601038 0.185428 0.014548085 -0.045373607 -0.022377778 -0.027947381 0.06968847
this 0.043592416 0.17322934 0.08564618 -0.031007603 -0.16824111 -0.002109842 -0.0043704044 0.039713606 0.060233787 -0.01801298 0.04412756 -0.22366379 -0.11832298 0.081365265 -0.08542415 0.09379153 -0.052525144 0.09187357 0.042439196 -0.047738697 -0.015664829 0.11022173 -0.11512815 -0.18581904 -0.06867266 -0.13314106 0.04926034 0.06651202 -0.26413664 0.07030641 0.097387515 -0.048096824 0.10429629 -0.095665544 -0.042606913 0.19293687 -0.041708216 -0.11119325 0.08441204 0.10145558 -0.09781928 -0.014086674 0.024085226 -0.08703727 0.15920958 0.0076171486 0.114607275 0.051876094 0.05441872 0.0239839 0.05636813 0.10605753 0.18609218 0.11983274 0.0531642 -0.077882655 0.14130703 -0.04970458 0.118551575 -0.049220625 0.048011445 0.0009338759 -0.08036174 0.13396361 -0.02424424 0.044564366 0.06866812 -0.028190138 -0.01908273 0.055202436 -0.073854685 -0.002715357 -0.14618044 -0.15276232 0.13153955 0.058537 0.0574934 -0.0044454765 0.11048168 0.09131552 -0.049115263 -0.10293915 -0.07233017 -0.06273135 0.12107016 0.17240728 0.10896458 -0.060537174 0.09312015 0.14430481 0.111511804 -0.10716559 -0.09929845 0.073034994 -0.0041556275 -0.19956112 -0.26594964 -0.06510623 -0.011328265 0.12086109
can 0.268724 0.18518852 0.25634897 -0.25947016 -0.0038615428 0.054764096 0.042865034 -0.017821781 0.109585874 -0.22436722 0.2751068 -0.24879502 0.05759612 0.35194632 0.0063939476 0.31216013 -0.021551851 0.10647254 -0.0679442 -0.055574156 0.10545892 0.07298212 0.0066308016 -0.11563569 -0.163338 0.012631435 0.1403247 -0.0043113856 0.25193718 -0.15891913 -0.10365188 -0.05417127 0.040094603 0.17742328 0.006132077 0.050182458 0.14821716 0.020146742 -0.15452279 -0.1790753 0.1479473 -0.11234181 -0.23741935 -0.0073736864 0.22526853 0.08034645 0.16486289 -0.119042054 0.3054115 -0.11892743 -0.07243449 -0.065165535 0.1543439 0.073018596 0.101862356 0.13530952 -0.0077043977 -0.033112034 0.10190156 0.03637966 -0.05617415 0.09172818 -0.115820944 -0.051430337 0.19311155 -0.0079136025 -0.19518894 -0.14043042 -0.0041339295 0.049556546 -0.1329487 -0.26780802 -0.06282053 0.09874192 0.16025521 0.19948629 -0.04194394 -0.3190664 0.085141614 0.29167995 0.24886322 0.11745311 -0.038244773 0.10646354 -0.045512296 0.1741889 0.15796256 0.075272866 0.24863327 -0.03980369 0.07178908 -0.2571285 0.03650211 -0.07362553 0.044242043 0.25594357 0.1203813 -0.1769437 0.07670889 -0.035745844
that 0.10776511 0.23734875 0.069281906 -0.13940477 -0.17094629 0.2061303 -0.11081712 0.08297262 0.14111193 -0.026827853 -0.04711856 -0.20828913 -0.12186097 0.06617067 -0.10885442 -0.16201386 -0.0088344775 0.20617682 -0.01443223 0.057014495 -0.09648653 -0.006309547 -0.21929406 -0.111411825 0.017627392 -0.07599182 0.0014378852 0.059845142 -0.22755486 0.053523973 0.096908145 -0.019048562 0.034804672 -0.1074837 -0.10765667 0.06526821 0.049095213 -0.011856689 -0.053443085 -0.014890236 -0.07680516 0.09733559 -0.028825538 -0.11596458 0.1950234 0.030426033 0.049301665 -0.034215137 0.13061702 0.038601637 0.06550528 -0.008009982 0.13119264 0.060063496 0.10729342 -0.088521294 0.061813865 -0.0041841567 0.073481575 -0.120363146 0.01497455 0.049250517 0.093207225 0.13592708 0.04007383 0.16055924 0.16587463 -0.097356796 -0.10721101 0.15734944 -0.08115137 -0.21426849 -0.10146704 -0.08243186 0.034078714 0.2569036 -0.04775198 -0.09830659 -0.015817307 -0.04316237 0.060109388 -0.08321177 -0.047485944 -0.014668211 0.022027513 0.16923513 0.07645101 0.0973337 -0.11924008 0.04781604 0.08792985 -0.12239805 -0.078932166 0.19152477 0.11591174 -0.17029469 -0.20587316 -0.19381644 -0.097423084 0.040706743
was 0.090933956 0.07823275 0.15227723 -0.078926995 -0.05478 -0.015952721 -0.08294991 0.13391522 0.012676039 -0.02740094 -0.12109803 -0.14875737 0.17659387 0.14665028 -0.09710243 -0.020112889 -0.037316006 0.14718725 0.09301542 -0.119703 0.039447397 0.0016623037 -0.16513084 0.07656698 0.3374732 -0.112092584 0.043467864 0.15288213 -0.09000498 -0.047988847 0.07448944 -0.043685783 0.1750765 0.18408872 -0.07159678 0.066857815 0.089376405 -0.021478714 0.020381344 0.06937907 0.0041813706 0.09605813 -0.08738608 -0.20025578 -0.019192282 -0.20535702 0.10266848 0.0036131474 0.05473175 0.033537176 0.052188467 0.0846143 0.095658705 0.14745872 0.12571877 0.05608798 0.032798555 0.042498425 0.05103486 0.043795153 0.005801324 0.07220066 -0.08867315 -0.056121908 0.0676807 0.052603286 0.1865242 0.037953354 -0.04934472 0.014932649 -0.007913874 -0.08295351 -0.08277614 -0.19105907 0.017628508 0.13732445 -0.011131638 0.036176223 0.1320048 0.19263558 -0.22036842 -0.117534205 -0.13717535 0.13623536 0.10110581 -0.0057817274 0.06234951 0.10802702 0.12481373 0.1386382 0.083282135 0.10461083 -0.06751145 -0.019968674 -0.010459623 -0.0020954951 -0.12696502 0.046479613 0.022099685 -0.04073647
just 0.115087196 0.24896753 0.26187897 -0.022205109 0.008043345 0.033123586 0.10452778 0.076056994 0.026464317 -0.11719823 0.20369354 -0.0502683 -0.05428555 0.18580602 -0.14305556 0.12678914 -0.13411948 -0.06984978 -0.022860838 -0.11938968 -0.15109508 0.15808523 -0.00681364 -0.020603795 -0.016249292 -0.083630055 0.09998144 0.12521052 -0.09478566 0.07855193 0.08171324 0.052317683 -0.017685072 0.010198139 -0.1130385 0.20524062 0.054876547 -0.10588082 -0.21934068 0.034085702 0.085627794 0.12671033 -0.09548198 0.024412999 -0.02669816 -0.15402432 0.0925943 -0.08554918 -0.048168194 -0.020141197 0.09118136 0.019278066 0.119018964 0.19788605 0.16570331 0.028831381 0.12378684 0.009568455 0.2080513 -0.05470944 0.1737958 -0.00010671071 -0.12915476 0.041839592 0.16958977 0.027794672 -0.011993697 -0.07478004 -0.20194694 0.07799206 -0.15572825 0.055104624 0.048692785 0.018346008 0.16712311 0.15429737 -0.00014001143 0.07015089 0.07538826 0.109759055 -0.051616594 -0.042495765 -0.19370395 -0.12510909 -0.001798779 0.17819971 0.14778706 0.18244614 0.069755934 0.047139518 0.14825387 -0.04407653 -0.18498126 0.049799137 0.086074606 -0.09478767 0.029014941 -0.16217898 0.021204323 0.101493575
are 0.28357893 0.20068789 0.08977854 -0.06616616 -0.038824543 0.10688618 0.12697318 0.08800397 0.17423266 -0.13310099 0.17848882 0.051884092 -0.14789072 0.36173755 -0.13559243 -0.022765817 -0.06498564 0.11875814 -0.14346156 0.002771077 0.019861374 0.092741944 -0.0029933767 -0.18846592 -0.024066757 -0.17428869 0.057308 0.19238283 -0.010073608 -0.098272346 -0.0013466503 -0.07182061 0.06116262 0.12367688 0.028080218 0.054155175 0.020733627 -0.065825194 -0.1867256 0.035184707 -0.03779793 0.13094166 -0.12037111 -0.03240889 0.074588075 0.029811766 0.14748159 -0.090484865 0.067929 0.11024999 0.09383735 -0.039029047 0.02258852 0.10550284 0.11911087 0.07844014 0.011704481 -0.06742661 0.27542162 -0.002256802 0.08202776 -0.060843885 -0.024500374 0.13044809 0.09330386 0.12387375 -0.053520642 -0.11706711 -0.09078415 0.018674424 0.008070008 -0.107555166 0.02652192 0.076361045 0.11075116 0.06783227 -0.037051067 -0.07573066 0.17952907 0.085377336 -0.09705098 -0.11470955 -0.15394469 -0.12099734 0.004806459 0.12332357 0.0094268285 0.24859215 0.07933281 0.15006238 -0.017020363 -0.14101921 -0.20305733 0.094625875 0.19790818 0.0030746988 -0.037774168 -0.09903646 0.02258328 0.03864993
no 0.110547945 0.090026215 0.026546357 -0.033866752 -0.10685648 0.066492625 0.21898496 0.062389467 0.13230905 -0.1300877 0.030949991 -0.08945321 0.065219924 0.11934327 -0.14099248 -0.12940598 -0.06402648 0.020071998 0.020766472 -0.17508836 0.014341852 0.03465428 0.0333353 -0.02351491 -0.04115402 -0.1415587 0.1459438 0.14171322 -0.045896005 0.16097608 0.095464826 -0.034528177 0.14715208 -0.16079901 -0.096810356 0.13260013 0.18969135 -0.15144947 -0.0030765499 0.07742731 -0.06828159 0.15074864 -0.11043124 -0.061574444 0.05415086 -0.07428248 0.2326546 -0.05035475 -0.13757347 0.10204286 0.07043673 0.06682437 0.035457984 0.06841711 0.0626711 0.023049626 0.118136875 -0.17002901 0.0182477 -0.08220067 -0.0004484319 0.059497237 -0.153199 0.11493721 0.21742032 0.0954529 0.14100796 -0.11504016 -0.0930031 0.10395803 0.00039943962 -0.27154872 -0.21241282 -0.14675327 0.07085641 -0.09670191 -0.034734376 -0.008318772 0.118432105 0.07765794 -0.0038519457 -0.1373691 -0.09914458 -0.094431564 0.18546116 0.016829805 0.1866449 0.1470391 0.13352661 0.11177084 0.09885649 -0.058298107 -0.17661981 0.019511709 0.07785785 -0.01534502 -0.016212111 -0.11428771 0.02465692 0.09328392
help -0.0032585517 0.33582562 0.05456019 -0.108171694 0.045174997 0.037636172 0.035166718 -0.058290705 0.06482034 -0.14269605 0.120286316 -0.06791299 -0.17064802 0.31407267 0.03583784 -0.020074414 -0.1466437 0.05039158 0.034735117 0.0033472767 -0.037027996 0.010481933 -0.05648571 -0.14526543 -0.20622194 0.046690043 0.16207768 0.115339905 0.15599261 -0.010070182 0.18841326 -0.17787018 -0.02170683 -0.120362416 -0.053101923 0.18305999 -0.07351315 -0.027945284 -0.22200686 0.10859351 -0.111756004 0.008545433 -0.042055406 0.003894241 0.082474604 -0.042146485 3.655936e-05 -0.059829194 -0.026222043 0.01144061 -0.102336206 0.086272575 0.060918663 0.07597471 -0.041901916 0.00021634257 0.053970054 -0.15289766 -0.03710482 -0.034890674 0.070844404 0.12754525 -0.036208846 0.1326887 -0.021037308 -0.038757317 0.14646158 -0.030418698 -0.04761651 0.056144886 0.057597127 -0.008388526 -0.12051438 0.13027222 -0.019676581 -0.06923936 0.022345336 -0.024377761 0.09998983 0.13448305 0.09652497 -0.06759393 -0.018006988 -0.06465876 0.034958366 0.05419397 0.13204733 0.2703789 0.045918602 0.1773822 0.08104571 -0.062263202 -0.09501955 0.257467 0.07282949 0.011750851 0.0032901713 -0.0917271 -0.04130229 0.10913889
flights -0.056938186 0.014907031 -0.09907219 -0.056849785 -0.047695834 0.054381754 0.0027042779 0.05255985 0.1529919 -0.10067453 0.12414173 -0.07666302 -0.16837049 0.20571518 -0.064950645 -0.08809967 -0.06432045 0.11690332 -0.005100672 0.108512275 0.06590874 0.12263344 -0.10734847 0.002176969 0.0035406118 -0.2684943 0.19770586 0.18892197 0.019943204 0.038510468 0.0016155224 0.13100092 0.091717035 -0.26779562 -0.004315766 0.15817943 0.067545064 0.013610544 -0.14788662 0.06452881 -0.10814919 0.20270541 0.0002500267 -0.05324656 -0.027664412 0.06403489 0.015646333 -0.04145187 -0.11083806 0.18388937 0.026100101 0.065377675 0.12638825 0.11472482 -0.023993988 0.07447634 0.09229056 -0.037386436 -0.014378738 0.03381909 0.059327863 0.27579707 -0.03254103 0.023425378 0.086143054 0.16434105 -0.062132843 -0.17298242 -0.03375348 -0.072668865 0.08910347 -0.10370358 -0.12368262 -0.08642704 0.049004417 -0.17378087 -0.13107085 -0.034534156 0.1395007 0.117105655 0.06647289 -0.09438074 -0.08176925 -0.15809956 0.057431985 0.040193617 0.09539992 0.17877734 0.13452683 0.09324754 0.10402071 0.020109674 -0.017255848 0.13273329 -0.0675689 0.022572592 0.03191805 -0.23134528 0.05319184 0.15101704
do 0.11229211 0.083119884 0.069841996 -0.09912073 -0.057542264 0.011954422 -0.042225845 -0.018339086 -0.041982826 -0.0029907147 0.11421912 -0.23712467 0.04292856 0.35568005 -0.018421648 0.085050106 0.0320061 0.09241167 -0.091782376 -0.08959391 -0.014487355 0.10602277 -0.050337102 0.012967263 0.03194315 0.013663101 -0.031790953 -0.0854216 -0.0016872889 -0.005629545 0.019982249 -0.022672547 0.012120995 0.08364833 -0.052518867 -0.006771233 0.09521842 -0.04325467 -0.06098711 -0.1739851 0.09749671 0.04577923 -0.17209649 0.041240446 0.13955463 0.17987105 0.0992072 -0.17177656 0.19180058 -0.06145559 -0.013235707 -0.031601947 0.034186613 0.019688103 0.05948786 -0.05497048 -0.0058997367 0.042005826 -0.08618373 0.03120859 -0.083870366 0.071158655 -0.08345305 -0.0648267 0.07750545 -0.14760917 -0.015373588 -0.18813843 0.005350035 0.07162525 -0.13128017 -0.22570455 -0.037132885 0.005230814 0.053804647 0.08933366 0.04666799 -0.12812006 0.085952714 0.25977054 0.15028298 0.011587217 -0.02217214 0.11145808 -0.061488707 0.1948394 0.16002622 -0.019554678 0.04215099 0.020240301 0.038888775 -0.13125908 0.019690651 0.06636624 0.06764934 0.054624096 -0.04160994 0.0558833 0.0626681 0.024050558
thanks 0.016171891 0.041366182 0.017492175 -0.003692296 -0.06473955 0.14365597 -0.14154373 0.09597895 0.027596338 -0.023920732 -0.07110119 -0.1277385 0.006780561 -0.09649393 -0.040759716 0.031319007 -0.047070857 -0.041295476 -0.06244755 -0.027855555 -0.02661063 0.026990775 -0.11365974 -0.07638199 0.08322238 -0.016012983 0.059003644 0.081640884 -0.09232107 0.013043612 -0.019945769 0.02190788 0.07915865 0.029706245 -0.09265979 0.0025568726 0.0664057 0.056163654 -0.025726372 -0.012699192 -0.10992992 0.031750463 0.09579591 -0.09495434 -0.054428358 -0.04476957 0.13138875 0.04032962 -0.05172388 0.10187205 -0.01906756 -0.05131362 0.040280964 -0.00743337 0.038368244 -0.15481812 0.08087378 -0.008932581 0.08339587 -0.057392403 -0.017437289 0.0024481732 -0.064837314 0.019748429 -0.00022649555 0.05149175 0.1481011 -0.05767898 0.009801288 -0.04347708 0.014599363 -0.04846799 -0.08602785 0.00042089866 0.039812952 0.059005335 -0.047644142 0.16890317 0.041153412 0.098661646 -0.017779574 -0.011286438 -0.09388893 0.023420656 0.011245789 -0.10722352 -0.045192417 -0.0728657 0.014913308 0.027371394 0.022790268 -0.15104921 -0.05650959 -0.071784176 0.0046424754 -0.050486397 -0.21664625 -0.03885633 -0.024360223 0.08097653
not -0.004923256 0.13781326 0.03225978 -0.09605374 -0.13406794 0.12766258 -0.14103232 0.0143121155 0.054170642 0.017369326 0.051506758 -0.008762665 0.10523058 0.13527815 -0.034690723 -0.17247236 0.022084763 0.11862342 0.0037000694 -0.20039177 -0.11956631 0.03147878 -0.12649485 0.0700131 0.013271589 -0.060997155 0.03407432 0.03009618 -0.111857116 0.17812046 0.012203032 0.024181372 -0.04839708 -0.06316798 -0.072525285 0.049487624 0.05722725 -0.08380021 -0.020337174 0.085820906 0.004298893 0.14013918 -0.08062019 -0.14538519 0.15029523 -0.15705155 0.02935245 -0.08393138 0.044827588 0.043912422 0.04259019 0.050662514 0.022507634 0.10447267 0.06644235 0.14811048 0.048612718 -0.0036020207 -0.0038698923 -0.033988457 0.12712768 -0.025433592 -0.081875205 0.06346037 0.05470854 0.15702537 0.11305631 0.036310114 -0.14756301 0.12000265 -0.022435892 -0.11067987 -0.01952663 -0.2602388 0.10756867 0.20308135 -0.022417292 0.08712933 0.083019555 0.030198898 0.032421786 0.03022614 -0.16107678 0.052436188 0.034449138 0.053967595 0.11399603 -0.0020795793 0.06964333 0.09702177 0.0036791302 0.12533209 -0.115159385 0.19565721 0.08596049 -0.2310701 -0.1006484 0.009267461 -0.03326922 0.010176417
love 0.057461735 -0.1259094 0.06895727 -0.04470533 0.034657504 0.058768388 0.0042582145 0.074373014 0.027600195 -0.06259148 0.08022441 0.093136095 -0.0246481 0.13968115 -0.03724768 -0.039004736 -0.06101255 -0.005819509 -0.06412084 0.053224355 0.080801554 0.08860103 0.051863194 -0.056677014 0.03214381 -0.119191706 0.047810446 0.086210996 0.075752415 -0.017737774 0.05676975 0.06079252 0.1012545 0.20725599 -0.10444992 0.13122533 0.08593428 -0.0515811 -0.009774875 0.023556415 0.019338757 0.15836255 -0.006937729 -0.024739143 0.0069620204 0.12688822 0.14544903 -0.04996207 0.11165817 -0.051213723 0.04392148 -0.09701882 0.0834862 0.025135407 -0.011494248 0.0378299 0.012590878 -0.09294326 0.13462079 -0.018932829 -0.06647044 0.15359771 0.027863098 0.042992588 0.08698925 0.0018451954 -0.022083918 -0.149266 -0.12390079 -0.052098062 -0.05898845 -0.24735008 0.050428044 -0.06402026 -0.055624552 0.028126504 -0.011014913 -0.054176684 0.10419711 0.13009506 0.010917351 -0.012661347 -0.06594225 -0.044977743 0.15396878 0.028818216 0.012410538 0.027136857 -0.00435008 0.058968075 0.08821037 0.08467243 -0.073637046 0.04931891 0.0885124 0.0041195094 0.025996419 -0.11170923 -0.022891942 0.088812076
be 0.11376811 -0.0155279 0.0513999 -0.098537154 -0.031271636 0.01576886 -0.067205034 0.0017241248 0.16314507 -0.13587952 -0.035504717 -0.004703618 0.03959674 0.22137086 -0.25236768 -0.13146667 0.06902579 0.044162918 -0.060792662 -0.050203066 -0.010686811 0.14533141 -0.013122633 -0.030965678 0.058810923 -0.13456416 0.20381804 0.06266863 0.076963924 0.1918921 0.20793597 0.036457088 -0.032541662 0.0035546892 -0.015728205 0.041348938 0.18537533 -0.07732615 0.021624103 0.14144225 0.17288631 0.20519976 -0.11435823 0.08843531 0.059818283 0.25096682 0.18473108 -0.13785583 -0.19322953 -0.0698546 0.053871475 0.0061816378 0.05520012 0.06603354 0.06723613 0.120231934 0.116985165 -0.08012563 0.18194166 -0.07227604 0.053461093 0.10913442 -0.060115553 0.018467486 0.19186753 0.13954975 0.30370438 0.04811296 -0.18233417 0.0630673 -0.09085031 -0.08665776 7.344957e-05 -0.19087306 0.07266732 -0.02440846 -0.010259146 -0.008054909 0.26032817 0.10197728 0.0918991 -0.15775825 -0.09582441 -0.03369672 0.17174505 -0.05416001 0.058821585 0.12517264 0.07789637 0.27271488 0.14346519 0.12504058 -0.0849929 0.05848753 0.024601893 -0.004205171 0.015497755 -0.1451403 0.010344416 0.15223105
i'm 0.23750392 0.042258125 0.08008799 -0.0033522265 -0.012174605 -0.011443372 0.19496529 0.14226489 -0.058231477 -0.08639348 -0.090901196 -0.057120536 -0.04645652 0.1579088 -0.09355848 -0.12429195 -0.11173744 0.018203696 -0.012538984 -0.2680841 -0.00377451 -0.113680124 0.04362355 0.011156463 0.1961933 0.028791435 0.060928036 0.13925272 -0.11063067 -0.004213064 0.118022084 -0.046734914 0.105201244 -0.057010107 -0.12387918 0.053269938 0.10305638 -0.15573679 -0.18390645 0.06629224 0.06964164 -0.0049392255 -0.013754822 -0.060109403 0.024615135 -0.16000566 0.17459795 -0.03168909 -0.09134868 0.0027722337 0.033931516 0.08009357 0.0698551 0.027445124 0.14688799 0.037854202 0.12480069 -0.028743897 0.13159986 -0.11500927 0.21909386 0.09411056 -0.046832204 0.09434828 0.0095951 0.05798675 0.16614057 -0.038515363 -0.1612705 0.0811468 -0.094080344 -0.13151641 -0.112798266 -0.17524502 -0.04443121 0.23694502 -0.014194927 0.07368639 0.18457635 0.0058461046 -0.10122151 -0.06012334 -0.22798389 -0.13568263 0.1854928 -0.07564178 0.13589627 0.17856917 -0.18357792 0.13516098 0.08743983 0.037640784 -0.15286052 0.051134605 0.16322823 0.0734514 -0.07194437 -0.05926846 -0.07781992 0.021780899
all 0.12778154 0.08038054 0.033330947 0.031418093 -0.042472363 0.069233 0.017623454 0.03414474 0.056949046 -0.12568091 0.10754735 0.016443875 -0.096853256 0.11244031 -0.014152534 -0.16919133 -0.0980527 0.11810085 -0.06555996 0.099308565 0.056643594 0.07854678 0.13379122 -0.0857821 0.12495855 -0.102565736 0.03896386 0.1262116 -0.044909857 -0.036065236 0.032178976 -0.035332635 -0.015358054 0.017787877 0.020071857 0.08890779 -0.071353935 -0.1084934 -0.12854749 0.034298617 -0.10716441 0.047153246 -0.081567004 -0.12183101 0.019935755 -0.088061325 -0.019520516 0.054988824 -0.028060041 -0.0031066558 0.097845145 0.08011301 0.16435441 0.0892527 -0.0006720123 -0.053913366 0.06821824 -0.08515338 0.10629985 -0.0035540091 0.053372055 -0.01616556 -0.06168139 0.044483725 -0.086505115 0.041466035 0.04317716 -0.11161428 -0.04590156 0.0030244924 -0.04526862 0.0052388604 0.10980581 -0.06951394 0.029894961 0.06538235 -0.01750419 -0.08188183 -0.011449007 -0.004109938 -0.16277269 -0.07374238 -0.18617648 -0.08281358 0.10663551 0.052864153 0.110364586 0.11374576 -0.007430573 0.054163013 0.00024380656 0.032121476 -0.09339379 0.1281569 0.052491635 0.096901216 -0.06877501 -0.06875391 -0.052511502 0.15802917
sfo 0.043690562 -0.07457479 -0.19768031 0.00046597343 -0.040083732 -0.04221876 -0.08125931 -0.07018373 0.1136163 0.06831173 -0.035509262 0.11089351 0.039181165 0.14242856 -0.05272256 -0.25862557 -0.08005371 0.08038959 0.10652149 0.078299634 0.012593433 0.058300745 -0.054949287 0.037181407 -0.14927036 -0.23222658 0.06659234 0.13350007 0.1033942 -0.004588085 0.12052145 0.055189546 0.052633606 0.035572704 -0.051465172 0.079345815 0.12827718 0.02688432 0.036009535 0.05505025 -0.11328584 0.17803527 -0.011681041 -0.0724972 0.01708068 0.0128555475 0.15436885 0.041559037 -0.01827002 0.071910255 0.057528406 0.02152593 -0.04136063 0.052191116 0.12388184 0.11244466 -0.018312268 -0.047893275 -0.08845846 -0.020740923 -0.038918063 0.24993837 -0.055554513 -0.057621792 0.16697834 0.08704167 -0.106031634 0.0006905699 -0.14029841 -0.06594554 0.05475905 0.0093837455 -0.008583119 -0.083358206 0.07853795 -0.14010578 -0.17488416 0.020381628 0.094374895 0.062071025 0.08038666 -0.07082949 -0.13611917 -0.047712002 0.12897493 -0.116215244 0.08522338 -0.032275435 0.06431344 0.050350253 0.14641277 0.020634146 -0.005081157 0.11255844 0.010957088 0.10263461 0.17536058 -0.016117167 0.030125206 0.037654087
virginamerica 0.0864068 -0.014468972 0.11498708 -0.13106735 -0.052815598 -0.046626348 0.14473885 0.1448312 0.1945344 -0.16520795 0.10765142 -0.04941863 -0.22328457 0.07262018 -0.16359285 -0.1257968 -0.11264497 0.09303681 -0.09940536 0.04091143 -0.032228865 0.17771251 -0.036036365 -0.116321385 -0.124179035 -0.12395748 0.1558238 0.19847418 -0.120249 0.031023528 0.20983487 -0.035233185 -0.025270244 0.03465732 -0.19231631 0.20600304 0.018746244 -0.14587812 -0.15349263 0.30103132 -0.030328203 0.09155673 -0.134402 -0.08268984 0.11979477 0.06817119 0.24013732 -0.19264604 -0.07907028 0.112903595 0.12256322 0.157751 0.21734114 0.19768132 0.11194017 0.010046133 0.15057 -0.10229186 0.06140371 -0.11854667 0.15413232 0.14677583 -0.11556457 0.17288458 0.022023885 0.013065382 0.28592795 -0.15589406 -0.036292963 0.15017356 -0.091389164 -0.20532821 0.07252847 -0.11358421 0.15991928 -0.120595895 0.016631113 -0.15811983 0.14574005 0.11303238 0.09975088 -0.1297893 -0.11342441 -0.029071953 0.14844011 0.08233509 0.11341843 0.09792699 0.018240992 0.1743259 0.09926746 0.09212575 -0.09620709 0.06928766 0.13465123 -0.14168826 -0.11354178 -0.08494874 -0.006400169 0.1463184
guys 0.091666676 0.30543804 0.041235097 -0.23123804 0.18483554 0.11356105 0.08396618 -0.17956947 -0.02301128 -0.0019140248 0.25303072 0.08039094 -0.09561897 0.29744384 0.050542608 0.16893297 -0.124945454 -0.08429435 0.020317102 -0.24099295 0.07801031 0.07991323 0.16683705 -0.2302805 -0.052442208 0.040087733 -0.0015808507 -0.06498172 0.036547977 -0.07228273 -0.085347265 -0.29755133 -0.137953 0.16509166 0.012026547 0.061546966 -0.003789708 -0.031409465 -0.3863348 -0.04062376 -0.091176085 0.057923168 -0.009687404 -0.07053961 0.1719376 -0.06921468 0.021903621 -0.21112311 0.28263307 -0.15065499 -0.033831805 -0.01634555 -0.0036837594 -0.093703195 0.03803698 0.18244466 -0.08100952 -0.10446503 0.14147606 -0.074366346 0.0501436 0.18785454 -0.017123805 -0.11696789 -0.024574868 0.040948253 -0.13876705 -0.14258878 -0.1536039 0.10578265 -0.10985966 0.15417922 0.033318277 0.12923269 0.0050407685 0.37069082 0.037233897 -0.12917499 0.23253198 0.010985567 0.022038165 -0.025089636 0.0014144499 -0.06594216 0.026738565 0.19776009 -0.038007423 0.35470626 -0.12293356 0.12550436 -0.061538324 -0.40131634 -0.14205936 0.1502603 0.23465037 0.23947042 0.19322483 -0.06912455 0.028956681 -0.13491964
website 0.08433631 -0.13752481 -0.05614847 0.038176846 -0.0738216 0.13093118 0.12444839 0.033234496 0.045214094 -0.028052703 0.08051519 0.07594198 0.01608531 0.036593862 0.073296025 -0.3500505 0.04157795 0.008104798 0.053942464 -0.18547243 0.07069408 -0.027794566 0.10515976 0.029081939 -0.118850455 -0.074985124 -0.038372032 0.01702088 0.12328862 -0.045382347 0.006136976 0.084498346 -0.031204458 -0.038919717 0.07159442 0.0773721 -0.07921709 -0.018113941 0.16563754 0.008948404 -0.023020491 0.049877677 0.016100012 -0.17609408 0.16522866 -0.22421135 -0.033747245 -0.043145444 0.37860298 -0.08308252 0.09772624 0.02807128 0.07049481 0.00785371 0.009845295 -0.24639615 0.03321723 0.051293224 0.036242504 -0.082537584 -0.09177377 -0.069627844 -0.009570885 -0.036425132 -0.10008514 0.15912753 0.07803808 0.00490054 -0.05643943 -0.08314089 0.017663356 -0.29695508 -0.19320069 -0.21114029 0.032960597 0.11048257 0.063046426 0.21020529 0.003601871 -0.064209774 -0.18168494 0.038206533 -0.04766221 -0.15495329 0.052609716 -0.119842075 0.038696233 -0.10136056 -0.040485945 0.011136658 -0.02597716 -0.04251515 0.017713262 0.1686257 0.004446237 -0.130924 -0.19393912 0.02497747 0.09404291 -0.0025246483
flying 0.018161224 0.17458223 -0.08394349 0.049117174 0.10572463 0.07451447 0.12557854 -0.012771335 0.13782091 0.0998863 0.03132031 0.087431304 0.030248754 0.09323007 -0.0721328 -0.12657188 0.026097346 -0.068039514 -0.008476573 -0.09795285 0.099616855 0.0052795913 -0.018390004 -0.026674846 -0.12165336 -0.08677079 0.0073250434 0.17733057 -0.035125043 0.10937836 0.03680546 0.15882479 0.060452543 -0.021312557 -0.033397973 0.11906544 0.013718298 -0.010278479 -0.1406384 -0.023138626 -0.05234481 0.14213225 0.0052278624 -0.07340659 0.007911747 0.10081482 0.16913499 -0.059580244 -0.16048698 -0.06308672 0.112627506 -0.0012688371 0.02870808 0.09481567 0.00456463 0.058567334 -0.042755973 -0.045642905 0.08966827 0.048819054 0.19190346 0.15242974 -0.06579678 -0.001009321 0.05970163 0.066952124 0.026853945 -0.04277522 -0.20825523 -0.002259424 0.024344511 0.042102862 0.08832701 -0.09744963 0.09164207 0.1283534 0.079845466 0.10568193 0.119162716 -0.06952534 0.22354478 -0.09409732 -0.18944466 -0.20271465 0.098866105 -0.040238276 0.25132135 0.0909691 -0.029886337 0.20075461 0.113844775 -0.15784438 -0.14561062 0.12963362 0.046078958 0.07855964 -0.043876953 -0.02800646 0.071905255 0.12053132
so 0.043612543 -0.00048752385 0.09025381 -0.15652685 -0.105029576 0.09596009 -0.07926993 0.14114697 0.008845198 -0.06380554 -0.0007529616 -0.030100076 0.040575873 0.082251824 -0.0125716105 0.07808702 -0.10085914 0.10845816 -0.19311987 0.03243757 -0.063979305 0.10879801 -0.13993011 -0.016773505 0.089488834 -0.061840728 0.06000742 0.17262425 -0.05358765 0.021605035 0.07223765 0.042804763 -0.028954184 -0.003219253 -0.12116829 0.12603065 0.13320854 -0.08396917 0.007665135 -0.0033876493 -0.07129659 0.0017631556 -0.062410366 -0.020342043 0.08000878 0.036354948 0.15649384 -0.053131554 -0.043456342 0.09823012 0.03145494 0.06828308 0.12153384 0.029334698 0.18766527 -0.114895396 0.10837449 0.013934693 0.13178895 -0.09637897 0.1652366 -0.03465122 0.054973423 0.08078782 -0.056157157 -0.023788404 0.12765549 -0.023796618 -0.09795651 0.21765508 -0.06360931 -0.15485951 -0.068763584 -0.074941054 0.10426173 0.089299776 0.023152087 -0.07343588 0.040671777 0.124232456 -0.040224157 -0.046138693 -0.105740026 0.07320979 0.095929034 0.0767921 0.12809591 0.065943725 0.030048313 0.098322615 0.093749 0.058682058 0.007833336 0.09586559 0.096689 -0.15534538 -0.20122975 -0.03947186 -0.06773941 0.08075512
at 0.17928603 0.11698819 0.06772851 -0.015123365 -0.16184816 0.13805097 0.09454916 0.14560492 0.12619667 -0.2008171 0.079970874 0.04215446 -0.12637624 0.019167023 -0.15143664 -0.08729556 -0.045913056 0.12657116 -0.03491539 -0.002057754 -0.0017865141 0.060148638 -0.046204444 -0.18961075 0.08274451 -0.19567741 0.10687617 0.17255178 -0.13973694 0.07449939 0.13768464 0.08497322 0.14917982 -0.015088267 -0.10459625 0.1481818 0.17207454 -0.1232405 -0.18064938 0.041680485 -0.0013277441 0.06629968 -0.115230784 -0.16657895 0.17272256 -0.08429951 0.058750644 -0.07152264 -0.29802415 0.15637007 0.12999924 0.10834758 0.052880093 0.15670845 0.14844103 -0.099321865 0.11867197 -0.054024164 0.14869931 -0.24767378 0.14726175 0.11718872 -0.08758042 0.19518225 0.16543226 0.079119995 0.12553881 -0.1771914 -0.0904909 0.0779591 -0.07606291 0.04040457 -0.09926347 -0.1699408 0.20531759 -0.015323628 0.010554697 -0.040586226 0.010584253 0.0045301495 -0.0826396 -0.048988707 -0.19727963 -0.1553861 0.10878074 0.08187178 0.06458495 0.1054448 0.13063222 -0.027998157 0.16269736 -0.06193635 -0.15681827 0.10146932 0.16045985 -0.14313217 -0.022614611 -0.23258778 -0.08593881 0.21094954
check -0.037778392 -0.060717195 -0.079287484 0.018646954 -0.076502666 -0.07510258 -0.07476569 -0.08884192 0.109013915 -0.009607112 -0.1393467 -0.08547791 -0.038005788 -0.06630717 0.107255995 -0.1411166 0.09747102 0.14124718 -0.0661638 -0.21482113 0.019795744 0.056471284 -0.07494467 0.11727949 -0.02883173 -0.0025590002 -0.08462494 -0.022562921 -0.10509319 0.12680577 -0.0067570657 0.2559802 -0.14866415 -0.21583757 0.040425327 -0.07051603 0.023251714 0.03821938 0.03800955 0.11862224 -0.18925749 0.17787287 0.078399375 -0.16101223 0.042297177 -0.22225471 -0.043854237 0.057660136 0.079825915 0.040460788 0.03908389 -0.039130017 -0.09297015 0.0045131436 -0.062080424 0.0037165803 0.07990453 0.043660432 -0.038718637 0.008200798 0.0016126496 0.16604963 0.096630864 0.11055108 -0.010533297 0.001402107 0.084002905 0.0077094007 0.025410319 0.011069361 0.14890845 0.025215503 -0.019678036 -0.057644274 -0.013981076 -0.07307735 -0.015686356 0.15632345 -0.0847625 -0.075093046 -0.03585233 0.08902077 0.023458403 -0.11347338 -0.0050305524 -0.0911788 -0.003821544 -0.0447179 0.006783152 -0.037681926 -0.0708873 -0.06401556 0.034339625 -0.112599365 -0.095110595 0.02100436 -0.14298823 0.15430321 0.12593436 0.10248892
airline 0.058694247 0.16069755 0.04763012 0.007110144 -0.103926115 0.079162054 0.030144833 0.05520621 0.12183577 -0.0460262 0.05292492 -0.1144446 -0.046370257 -0.06344912 -0.069703996 -0.056330245 -0.06389119 0.16969542 -0.080481835 0.051322557 -0.0083737 0.09655602 -0.049940746 -0.04891851 0.08223892 -0.1015294 0.0141865 0.09946276 -0.06588144 -0.007864029 0.12518959 -0.023154274 0.013473075 -0.035943627 -0.010803944 0.12482638 -0.02525139 0.020792669 -0.067637965 0.038022213 -0.11219399 0.09928754 0.038523756 -0.03174066 0.14661716 -0.018196447 0.06414794 -0.02282921 -0.06284765 0.008046994 0.12148023 0.05895511 0.10643937 0.05769794 -0.015452511 -0.10515798 0.05880825 0.009649042 0.12956317 -0.04577311 0.1398553 0.019524204 0.014911173 0.11040825 0.0019740185 0.14470826 0.12605745 -0.046246503 -0.08692091 0.009797248 0.044083588 -0.031579513 -0.067213535 -0.056068566 0.05258029 -0.016876034 -0.040537134 -0.011348702 0.03131791 0.07265639 0.061730485 -0.03843106 -0.044000603 -0.03455769 0.0015010303 0.053646937 0.058506455 0.025106154 0.10504112 0.1089482 -0.059405226 -0.12446305 -0.06660407 0.09948214 0.030722197 -0.011200697 -0.08363348 -0.06479492 -0.037004758 0.03827336
cancelled 0.015665177 0.12445052 0.045942675 -0.0004933268 -0.0038806342 -0.04999691 -0.1231502 -0.012541291 0.0967259 0.014392537 0.18573813 -0.114430696 0.04100974 -0.030170448 -0.1224962 -0.11398992 -0.11342979 -0.048814386 0.09688128 -0.07014311 -0.08095347 0.03794904 -0.08128546 -0.016628848 -0.21082337 -0.112769045 -0.07092841 0.13287574 -0.08598762 0.14715365 -0.043131858 -0.07896056 0.1253218 -0.050809737 -0.12367771 -0.0011694577 0.087730154 -0.085414715 0.088736646 0.05653763 -0.015481045 0.09284533 -0.056039162 -0.14860164 0.07128847 -0.26471266 0.117359586 0.014370745 -0.088032536 0.17904186 0.052054457 -0.008745753 0.07133604 0.08265792 0.08017121 -0.010632392 0.07883223 -0.0670961 0.023775553 0.009570805 0.1305413 0.13473184 -0.056374066 0.04317236 -0.025106797 0.055810977 0.07028779 0.07405557 -0.10712562 0.089224845 -0.0016377314 0.05648459 -0.23844315 0.0066761407 -0.021283664 -0.117216215 -0.19346525 -0.014283999 -0.075219154 -0.17501296 -0.28532866 -0.18928035 -0.10480047 -0.11333464 0.1620222 0.032703698 0.123559214 0.10027503 0.053562444 0.08051568 0.065024585 -0.15028393 -0.14154579 0.102672584 -0.048798334 -0.1499528 -0.14783345 -0.030290471 0.055092752 -0.030138096
need 0.05651293 -0.07368539 -0.029260296 -0.010840874 0.07386445 -0.07251034 -0.025623107 -0.09440366 -0.015055561 0.06464432 -0.010346081 0.021259848 0.1052484 0.18432699 -0.018214103 0.058712345 0.08226746 -0.044674445 0.1464924 -0.21975414 0.06631811 0.029536217 0.05394179 0.16429687 -0.063389376 -0.10096257 0.03498409 -0.006493405 0.13176668 0.008755423 0.00051791937 0.035482988 0.058486644 0.10951783 -0.0346416 -0.00598579 0.026522703 0.029975314 0.039320473 -0.11040139 0.081796214 0.08586533 -0.06812211 0.009659337 -0.106177345 0.023671864 0.10319117 -0.1109655 0.09781068 -0.17339152 -0.058871668 -0.027146827 -0.061666828 -0.04421984 0.0068680705 0.13821888 -0.10169371 0.01222925 -0.003896056 0.18624203 0.04620324 0.12433638 -0.08472073 -0.038735554 0.067110665 0.009112276 0.043605 0.10259076 -0.12570655 -0.048480086 0.08029529 -0.044172198 0.09089076 -0.14052293 0.012497367 0.08115551 0.03173648 0.017993148 0.16629317 0.051039424 0.11825994 -0.020587439 -0.0077177617 0.1131248 0.04031441 0.017025344 0.05457859 0.0091168005 0.030729178 0.0832468 -0.031982977 0.16047218 -0.045411985 0.07333148 0.061122086 0.19050793 0.17905065 0.008707078 0.051580325 -0.084677674
fly -0.0042158924 0.17693505 -0.015524859 0.011172605 0.02987604 0.03313123 0.14164756 -0.14612663 0.112665184 0.037057023 0.062255755 0.06700352 0.096103005 0.21942535 -0.018155579 -0.042943764 0.021826029 -0.08223177 0.09165666 -0.1770779 0.09453492 0.15460125 0.026765611 0.01833584 -0.04347529 -0.16095181 0.08100403 0.12267536 0.11217673 0.09915292 -0.0069298795 -0.00025374032 0.14174345 0.062478155 -0.027256686 0.14408016 0.062087774 0.08975337 -0.13947569 -0.011289237 -0.02941636 0.24552926 -0.11846103 0.03611093 -0.056906775 0.1696424 0.2607366 -0.10653174 0.13530093 -0.03013522 -0.06499982 0.026185587 0.051901117 0.0036421588 -0.006168287 0.053644273 0.030248886 -0.010819571 0.02502475 0.1091531 0.0028490042 0.29271823 -0.2066643 -0.036864713 0.12851566 0.10451507 0.056780647 0.045907002 -0.16400364 -0.015620771 -0.061486516 0.045819584 0.13318159 -0.20415668 0.071012296 0.07216561 -0.05440565 0.056021582 0.22171056 0.08313896 0.07992942 -0.03048368 -0.079594806 -0.018768255 0.16902909 0.00941255 0.14909573 0.026303325 0.15731157 0.13070384 -0.009841461 -0.09825613 -0.028996553 0.042221684 0.07183016 0.1330512 0.14471759 0.06862008 0.11093044 -0.0696871
an 0.047698785 0.19821529 0.08618217 -0.054598927 -0.07705472 0.0954559 0.05184161 0.1318836 0.06162822 -0.005058988 0.0053313994 -0.1112961 0.015221451 0.07851882 -0.1100504 -0.08262987 -0.062978804 0.1822894 -0.08174357 0.15505792 0.011780066 0.079546064 -0.18626139 -0.023883535 0.20817012 -0.08993068 0.113004506 0.09625665 -0.21206036 0.054606006 0.08095268 -0.06380698 0.12841934 -0.04621216 -0.06120799 0.15358976 0.12559947 -0.028725034 -0.0072327275 -0.00552331 -0.026922548 0.06265158 -0.029808404 -0.15259987 0.120282345 -0.023632456 0.10964575 0.088171735 -0.0704694 0.1887373 0.0021475758 0.07576847 0.025217129 0.08335302 0.029744182 -0.060397647 0.1068217 -0.0628312 0.0733756 -0.10877586 0.03392862 0.062113356 -0.009783569 0.08893199 -0.026367614 0.005505763 0.13652302 -0.0039676917 -0.03799225 0.11074653 -0.08703732 -0.12789556 -0.15710765 -0.13930307 0.036157988 0.14082006 -0.11540035 0.08081249 0.062733464 0.2141642 0.060770333 -0.08110693 -0.01278436 0.03663162 0.048245616 0.09454461 0.011955649 0.10763786 -0.032345813 0.1600235 0.035123255 -0.1032669 -0.08373989 0.092911 0.07413515 -0.06234206 -0.1522086 -0.13984652 -0.15409221 0.009452641
virgin 0.07775933 0.007223633 0.14026153 -0.01615007 -0.01050052 0.13096307 0.13458718 0.0528412 -0.029757466 -0.14006138 -0.072171204 -0.07184623 -0.0030701607 0.10899168 -0.05165593 -0.1806064 -0.1454307 0.10690305 -0.0873742 -0.09095384 -0.040927917 0.06419526 0.010001736 -0.060009267 0.15325963 -0.0789789 -0.04672438 0.16690113 -0.19260861 0.10708927 0.07437497 -0.03178448 0.052901395 -0.13588962 -0.12377308 0.09487156 0.0044559585 -0.04734428 -0.15225895 -0.07856346 -0.018270489 0.12239092 -0.06569631 -0.17702463 0.017927298 0.012457519 0.11519843 -0.07772124 -0.11162477 0.01832454 0.10135038 0.009589691 0.12905046 0.1194186 0.10067163 -0.090399735 -8.3436025e-05 -0.03427965 0.1439711 -0.1094891 0.05796067 0.11464795 -0.17736536 0.03329798 0.056928292 0.11244046 0.06433039 -0.068687886 -0.060113315 0.09531971 -0.10529805 -0.059458774 0.051026344 -0.034104913 0.007459861 0.07168974 -0.019207887 -0.01635148 0.06272638 0.060523823 -0.19715501 -0.104914755 -0.19061822 -0.07662887 0.108545564 0.011726285 0.06451081 0.090714544 0.020740042 0.050480388 0.13233712 -0.063731626 -0.042729888 -0.0055340915 0.06470733 -0.25974682 -0.05644463 -0.074659266 -0.0044703125 0.06890085
seat 0.053487364 -0.070695795 0.018438071 -0.1270538 -0.050668854 -0.007208811 0.042579804 0.07510741 0.014756479 -0.07611364 0.10510011 -0.23761909 -0.10183358 -0.09314304 -0.0811809 -0.0062725265 -0.091602646 0.023037864 0.022604432 -0.13941363 -0.14106062 -0.0060046343 -0.20040913 -0.0946863 0.07374859 -0.00025279052 0.048688043 0.076328985 -0.17103927 0.013221305 0.08808473 0.048670832 0.10987165 -0.1809919 -0.039037433 0.00811665 0.008006315 -0.035972092 -0.08971701 0.05468895 -0.117778786 0.032525666 -0.018661259 -0.15380426 -0.011414704 -0.25359866 -0.017342139 0.06677068 -0.07508183 0.2048173 0.1544783 0.1209219 0.021561163 0.11149749 -0.0046196906 -0.06663273 0.06389859 0.0027730535 -0.03010618 -0.07579284 0.12265573 -0.011525588 0.013442216 0.08329824 0.02158912 -0.05133494 0.2349112 -0.063299306 -0.028055465 0.09628064 0.074353784 -0.07775979 -0.17639856 -0.008735732 -0.01631037 0.11662079 -0.15366685 0.04022577 0.038372975 0.07232383 -0.0006702632 0.02803165 -0.118045196 -0.14560804 0.053077992 -0.033741217 0.1096586 0.16354822 -0.04629671 0.09812026 0.05987447 -0.17067753 -0.08658658 -0.064717226 -0.014622085 -0.021639409 -0.2103193 -0.11118766 -0.08197667 0.023236431
site 0.10495111 -0.051447123 0.035672974 -0.004063217 -0.16072801 0.25072283 0.12636065 0.008967261 0.09176712 -0.073701866 -0.0358083 0.001718257 -0.06606858 -0.078801826 0.08071394 -0.2257516 -0.07173481 0.024037559 0.018825008 -0.09345065 0.07039759 -0.10755498 0.03195846 -0.02069603 0.024176134 -0.042974703 -0.034553684 0.02529977 0.0827189 -0.12437849 0.06577285 0.0882713 -0.1524881 -0.06401466 0.099463776 0.07489541 -0.038341943 -0.025319608 0.08906983 0.12145758 0.008443517 -0.011274651 0.029979056 -0.15744406 0.13151324 -0.23511076 -0.028577948 0.11563515 0.21917287 -0.070116 0.1228157 -0.012670956 0.06756046 0.085006535 -0.06746035 -0.10295167 0.03756992 0.0986382 -0.010131193 -0.14195816 -0.05591945 -0.09077398 0.018842932 -0.038444813 -0.01658463 0.07382284 0.062579885 -0.0050211027 -0.033897005 -0.118247695 0.10589308 -0.2778009 -0.20209509 -0.1380569 -0.024827803 0.19124094 0.059747446 0.14294212 -0.1078348 -0.0018048902 -0.2422831 0.07605421 -0.029111225 -0.06141125 -0.018954579 0.031094484 -0.06426336 -0.031106595 0.009211901 -0.08666254 -0.11570545 -0.08458529 -0.020774076 0.1092646 -0.07768271 -0.07060551 -0.18020089 7.3694675e-05 0.032348067 0.04534347
get 0.044536885 0.13956437 0.06463119 -0.07059019 0.019604996 0.040050592 0.020768648 -0.00645458 -0.010029878 0.05741535 0.087194085 -0.1157116 -0.07647392 0.026854599 -0.08490338 -0.12156572 0.05873879 -0.008341031 -0.012960993 -0.07128625 0.017162649 -0.08133387 0.017651096 0.058234796 -0.07089959 -0.039541405 0.10891579 0.064023584 0.035700854 0.17106369 0.056537617 -0.06920974 -0.005705062 -0.033515215 -0.036255814 -0.049322218 0.08477126 -0.019892218 -0.08943556 0.030150082 0.023659851 0.07046254 -0.12025152 0.013484263 -0.008192009 0.021710616 0.104415 -0.11463593 -0.07547899 0.01372313 -0.021462694 -0.03925651 -0.0015648066 -0.003877168 -0.044198174 -0.056035716 0.04559948 0.049831957 -0.031017484 0.040922042 0.07645826 0.18118499 -0.07023616 -0.018882442 0.07369094 0.062103495 0.050967243 -0.011153465 -0.0152704455 0.08358036 0.083380334 -0.022577383 0.008858217 -0.13313495 0.0118767135 0.059196565 0.0920327 0.13857017 0.12834994 0.09723957 -0.00401322 -0.026784606 -0.023179874 -0.08588451 0.070429005 0.012810681 0.099469095 0.058082215 0.19592278 0.015078121 0.09333693 0.011963025 -0.04444606 0.06141797 0.031900845 0.05836686 0.046948742 -0.03656191 0.025435768 0.0381193
what 0.0514321 0.022855746 -0.036506724 -0.06728972 -0.013281797 0.14214128 0.015397738 -0.050026447 0.053885497 -0.0031653969 0.09456146 0.07519178 0.04716715 0.11478846 0.028368345 -0.10745151 0.040123224 0.0212253 0.025109077 -0.18550333 0.030139333 0.050071176 0.12646638 -0.0261684 -0.009234424 0.030830968 -0.021033462 -0.00074538676 0.111016415 -0.013563854 -0.025490414 -0.06881933 -0.010249301 0.041452676 -0.004500836 0.087529436 0.014310956 0.020402435 0.051057983 -0.1352005 0.021670707 -0.009698392 -0.048818417 -0.08448378 0.12046009 -0.09743301 0.04338519 -0.059415877 0.29272985 -0.056374256 0.0130838 -0.042710368 -0.041522186 -0.035641298 -0.014062711 0.048805743 0.020265978 0.09433237 0.03779502 -0.051390767 -0.13065746 0.046388324 0.042889666 -0.0037154923 0.020815957 0.10334751 0.015632687 -0.026198622 -0.06900435 -0.011392142 0.02878716 -0.089891896 -0.08815468 -0.0995102 0.042433713 0.15532336 0.02137653 0.030128758 0.046040405 0.06990147 0.041182466 0.021258371 -0.06264861 -0.05702343 0.017946236 0.0899937 -0.033845134 0.01801815 -0.027452886 -0.016691824 -0.027172713 0.04226226 -0.06236975 0.16812874 0.03755811 -0.0055439034 -0.025899138 -0.043419253 0.061178837 0.017394437
amp 0.11234027 0.08148497 0.17245997 -0.19731265 -0.19507593 0.13271245 0.259467 0.22182427 0.08568542 -0.15735984 0.029613681 -0.07252119 0.01991712 0.093742095 -0.13165657 -0.22306773 -0.15856226 0.16909021 -0.17402595 0.21301001 0.0033778972 0.19170405 -0.09007943 -0.06823081 0.1516651 -0.13503571 0.12940642 0.22435465 -0.11468312 0.15236944 0.1678951 -0.07304307 0.18798861 -0.012425607 -0.20854795 0.104345284 0.23550634 -0.17632611 -0.20802543 0.18845613 -0.064297594 0.12756056 -0.16338162 -0.102879256 0.11726032 -0.016661271 0.1433775 -0.1016224 -0.030151179 0.054879244 0.15723708 0.105024084 0.12930058 0.107665814 0.077308774 -0.069234766 0.16908762 -0.12364198 0.21310405 -0.06780795 0.121740155 0.053972036 -0.22154249 0.12737435 0.0908065 0.032603633 0.083658725 -0.21991584 -0.05517133 0.19530047 -0.10302314 0.06664909 -0.16045478 -0.10284777 0.052083217 -0.054182783 -0.20668697 0.011812453 0.10509535 0.11127606 -0.10010052 -0.14398251 -0.18165256 -0.1416288 0.113241136 0.06740828 0.20708932 0.18220189 -0.025167767 0.17074198 0.14002046 -0.05969264 -0.14801441 0.05588618 0.22587688 -0.18125874 -0.17046934 -0.1800802 -0.07061766 0.22076024
great 0.032579128 0.025805332 0.08438949 0.057061832 -0.11470633 0.06454902 -0.054404244 0.05853079 0.0035179174 -0.111310236 -0.052196596 -0.13452293 -0.1343492 -0.025761487 -0.017599477 -0.07326293 -0.18607877 0.053415567 -0.02488032 0.0081617115 0.032510884 -1.2065982e-05 -0.02595559 0.05530054 0.15380712 -0.019531688 0.008605946 0.060835708 -0.1362858 -0.0021333531 0.006610656 0.016119324 0.08765744 -0.04471127 0.10404762 -0.027249789 -0.056925133 -0.080712944 -0.19844885 0.050906423 0.053272847 0.046975173 0.10228175 -0.15236367 0.01810142 -0.15174477 -0.13462065 0.072174795 -0.0008748223 -0.03240157 0.052742194 -0.035462186 0.14828013 0.16718814 0.0017269049 0.04019511 0.061941605 -0.061428547 -0.047175 -0.08829642 0.057626307 -0.07878651 0.044858642 0.024186373 -0.08557491 0.048175495 0.14350146 0.024750087 0.0112865465 -0.0038525034 0.062109593 0.031043053 -0.08084413 0.030428076 -0.051862672 0.23271102 -0.124052 0.1266021 -0.024778346 0.030287735 -0.20358044 -0.112179 0.03512336 -0.026955986 -0.08917489 -0.0016432946 -0.089028955 0.12210162 0.07284662 0.035897944 -0.021066409 -0.11772812 0.020330666 -0.037911072 -0.04844019 -0.006293553 0.03548152 -0.06289049 0.06648517 0.066020384
lax -0.014473128 0.04867362 -0.088125035 -0.042753074 -0.04931117 0.00094876345 0.07083219 -0.05043136 0.027850885 -0.036447566 0.015082738 0.0061741155 0.041657217 0.108095944 -0.11681492 -0.16581343 -0.01091349 -0.004144388 0.053002853 -0.022918807 0.1199281 0.024299625 0.0061719636 0.03817464 -0.059074514 -0.094098486 0.050581772 0.04844063 0.0023411175 0.09084364 0.09873861 0.11608363 0.11350579 0.030524082 -0.13233857 0.063809894 0.10030317 0.013163998 -0.03972816 -0.002546529 0.020529697 0.18635182 0.0144569585 -0.03358978 0.069389224 -0.10180063 0.13224423 -0.024968967 -0.035845127 0.06386647 0.06389301 0.06393744 -0.013588757 0.047616556 0.061682492 0.026315968 0.051898967 -0.040121157 0.036408767 0.00086088444 0.009565809 0.19372027 0.024353558 0.009088629 0.15991592 0.05915013 0.0024178282 -0.0784129 -0.1113708 -0.0011669152 -0.018469237 0.05234951 -0.14638568 -0.16135468 0.059730045 -0.08870907 -0.057260066 0.08115027 0.07936701 -0.019984951 0.07745989 -0.05645931 -0.08063712 -0.14833541 0.112226054 -0.041207038 0.07490321 0.02992761 0.099590875 0.02536555 0.115947306 0.07448019 -0.015346717 0.116944134 0.045179997 -0.032301076 0.04802915 -0.04122308 -0.10157783 0.049633186
about 0.116638474 -0.039337568 0.032805935 -0.14575149 -0.0146989245 0.08629526 0.13259299 -0.028088102 0.12874927 -0.027717248 0.06818685 0.05512015 -0.07260067 0.0040552667 -0.17412871 -0.043034665 -0.068703085 0.041471448 -0.07960724 -0.042052146 -0.035921667 0.0421483 0.019021822 -0.018411566 0.070581906 -0.13825044 0.024959024 0.08874907 -0.08652414 0.053450793 0.04164107 -0.022995494 0.06149383 -0.029139308 -0.015194846 0.11732678 0.106937476 -0.0858017 -0.07092247 0.12138616 0.043255314 -0.00056370057 -0.058293127 -0.05768024 -0.012845255 -0.13650508 0.06181567 -0.022179442 -0.0771021 0.111542776 0.03698267 0.0131899975 0.11267819 0.06878397 0.08009831 -0.017970674 0.034848195 -0.0820966 5.4574455e-05 -0.022664046 0.13720368 0.0763785 -0.079993844 0.087421656 0.015123338 0.07542028 -0.022631524 -0.058871757 -0.096291535 0.076957345 -0.07889468 0.0017695779 -0.13998622 -0.07125226 0.018431135 -0.04749657 0.0046436507 -0.010371278 0.07165768 0.07179949 -0.062333837 -0.028249342 -0.099237934 0.014199068 0.039195146 0.060197406 0.062353555 0.11436348 -0.014545798 0.10144716 0.012279018 0.00498751 -0.13489404 0.054740734 0.06627461 0.13317327 -0.060172785 -0.020082973 -0.012963282 0.06940348
time 0.014059184 0.12664299 0.075464375 -0.030534435 0.024459345 -0.01531046 0.01449375 0.07698148 0.076705255 -0.07784671 -0.041140135 -0.102738455 0.015666097 0.1338236 -0.08171506 -0.039099846 -0.0011883306 0.12461498 -0.050174985 -0.16364434 0.021258187 -0.032213885 -0.075815216 -0.073322855 -0.010059925 -0.036965877 0.060525823 0.034867603 -0.119618945 -0.041942175 0.050250154 -0.053496227 0.06203804 -0.042290997 -0.09074445 0.10320367 -0.014023077 0.02618608 -0.15400451 0.07147117 -0.08725303 0.051442087 -0.06821318 -0.01998954 -0.0016404745 -0.10065309 0.0077267843 0.07895668 -0.14358117 -0.0659455 0.008564296 0.16983515 0.04819696 0.093238816 0.007118038 -0.1005532 -0.019056544 -0.027333315 0.069752246 -0.121745184 0.045849547 -0.059217136 -0.07272584 0.07008184 -0.025351103 0.06963822 0.051953804 0.015351846 -0.13316302 0.017556738 0.045267913 -0.028615106 -0.02308898 -0.08908353 -0.0070212446 0.1129091 -0.097714014 0.052989375 -0.04381429 0.043023482 -0.091361135 -0.04729525 -0.09930017 -0.10672662 0.030721545 0.038076293 0.11988624 0.07189631 0.09570447 0.048626874 0.12393036 -0.123001635 -0.050938737 0.10035858 0.079554506 -0.06939235 -0.0707976 0.038901575 0.026942438 0.052894007
first 0.05479978 -0.06477434 0.09453089 -0.11894413 -0.02166461 0.0769896 0.0010243877 0.04085646 0.11607792 -0.064677514 0.057564355 -0.029766174 0.055319503 -0.010512782 -0.015101939 -0.06176259 -0.046071086 0.10836333 -0.041497033 -0.16548738 -0.08078167 0.0534062 0.0097000515 -0.0508704 0.054786474 -0.16887687 0.0207702 0.17888835 -0.10622716 0.085941 0.056678213 0.041396376 0.1551142 -0.1705134 -0.041884206 0.025548233 0.08719994 -0.10597597 -0.08107185 0.1445248 -0.16884485 0.13281739 0.0031214464 -0.089064755 0.1063504 -0.10278809 0.05737202 -0.06357609 -0.12447998 0.079905525 0.121685684 0.10102509 0.0270905 0.07529769 0.009900897 0.052714214 0.04137683 -0.13470773 0.059030056 -0.10149708 0.14277552 0.11909199 -0.14730346 0.11927171 0.014112637 0.07445295 0.10093095 -0.026731033 -0.03171796 0.09496864 -0.06382059 -0.09095128 -0.08612381 -0.06959778 0.04823544 0.10026335 -0.11916678 0.03020705 0.08584626 0.08935816 -0.04982139 -0.043239433 -0.10590011 -0.08247609 0.06213044 0.08409679 0.11932937 0.025677608 0.014693942 0.09350932 0.040129885 -0.16606751 -0.19530343 0.22565898 0.06355355 -0.035437267 -0.063749 0.04540347 -0.102544986 0.10844541
when 0.10910371 0.31244767 0.06762391 -0.090650044 -0.07274756 0.046613596 0.11413214 0.10516041 0.14430365 -0.106215075 0.17949769 -0.15500954 -0.069072366 0.18855737 -0.11784329 -0.107637614 -0.009854687 0.017611505 -0.10618012 -0.010368857 -0.054222938 0.077263996 -0.04578872 -0.040839303 0.081168406 -0.020410016 0.08885228 0.13802 0.024260951 -0.008383061 0.004810302 -0.051024728 -0.039703008 0.0076354393 -0.068592906 0.080552585 0.11082705 -0.06065866 -0.0794131 0.053452674 0.086154394 0.07400767 -0.052059676 -0.003761747 0.07072179 0.021775585 0.061028436 -0.063267246 -0.07626017 0.005558024 0.028421348 0.012684323 0.14879969 0.076102704 0.13448454 0.04945083 0.12582314 -0.009111494 0.12224935 0.01914506 0.07097422 0.037656587 -0.15147282 0.012124642 0.12908047 0.020469343 -0.01994559 -0.11168653 -0.08677809 0.102686614 -0.07931494 -0.12407867 -0.13255665 0.0066393414 0.06568669 0.04833246 -0.010427788 -0.18571417 0.09819174 0.096073315 -0.14330257 -0.09793006 -0.049948916 -0.058730725 0.12560901 0.14736252 0.08870109 0.055336002 0.08003127 0.12156447 0.053763438 -0.04788444 -0.10845539 0.033825755 0.102388576 -0.02015636 -0.03941671 -0.12520489 -0.08491421 0.08132546
will 0.10028266 0.090176925 0.04079357 -0.15135613 0.034799512 0.04387468 -0.03784932 0.09465185 0.13071916 -0.09532261 0.1525616 -0.022744512 0.029450975 0.30162445 -0.10709119 -0.010884643 -0.08946908 0.04167677 0.021093756 -0.15468784 -0.06031878 0.052669384 -0.12608309 -0.0861257 -0.16514374 -0.10758253 0.12056207 0.08344246 -0.016523335 -0.04283682 0.015267835 0.0029952026 -0.04086928 -0.015095773 -0.007087619 -0.02314675 0.060286567 -0.07519986 -0.105671965 0.0442786 -0.038471214 0.010455085 -0.04552534 -0.0071703237 0.033605386 -0.050176486 0.08247329 -0.0687488 -0.10680777 0.006032749 0.065792724 0.043740064 0.040156253 0.13130698 0.08365479 0.120259024 0.079558335 -0.06720419 -0.0048313662 -0.06098366 0.15885355 0.02962404 -0.022022687 0.03717338 0.06572303 -0.06338257 0.0426383 0.004001608 -0.11151748 0.13995722 0.06449685 -0.114643015 -0.18973432 -0.07466446 0.015094605 -0.00021255507 0.031978186 -0.14786614 0.1064893 0.06464719 0.045267217 -0.036192235 -0.099167675 -0.11370432 0.02829121 0.03859649 0.047855653 0.054874286 0.108431764 0.016855888 0.062145855 -0.02172271 -0.11848167 0.12421155 0.06535748 -0.0754082 -0.035466377 -0.037808124 -0.03994649 0.033778775
any 0.05894503 0.283427 0.039196216 -0.051930238 0.029193835 0.07720298 0.21590406 0.021959694 0.17870994 -0.086527206 0.072443135 -0.02602265 -0.10077111 0.15630907 -0.15507443 -0.08555948 -0.0165426 0.13128403 -0.04740048 0.014907445 -0.008797566 0.12109714 -0.09289334 -0.07084974 0.10825969 -0.10344377 0.11949193 0.20115583 -0.053584427 -0.04599337 0.037648678 -0.1053301 0.04143967 0.03958573 -0.09515558 0.08983054 0.12503524 -0.058992136 -0.11475881 0.022332251 -0.07279721 0.17691563 -0.04728596 0.04101292 -0.025105419 -0.026937082 0.067921914 -0.01804569 -0.023724986 0.027343227 0.06595365 0.07703064 0.13505377 0.025677644 0.04047093 -0.119444154 0.039903853 -0.052660897 0.15518068 -0.016148366 0.0403095 0.05297931 -0.09174559 0.074064955 0.16608423 0.16309047 0.11706229 -0.08242128 -0.121187 0.025823757 -0.072393656 -0.018836688 0.019881634 -0.2563695 0.062522165 -0.043669518 0.010901534 -0.06738648 0.15193212 0.048797656 0.017401455 -0.053485986 -0.11695345 -0.016230468 0.046388123 -0.0063606906 0.07074846 0.079008535 0.036795642 0.124282554 0.025529075 -0.07901933 -0.20121264 0.13693595 0.114886664 -0.0030023197 -0.048589867 -0.044706646 -0.09926023 0.13628621
way 0.06346479 -0.08616379 -0.02656349 -0.04120729 -0.069500916 -0.044863585 0.053891737 -0.02097329 0.06394879 -0.065270096 -0.088262014 -0.101236574 -0.08641442 0.114686824 0.034861274 -0.18184014 0.0018493789 0.11638012 -0.020185033 -0.23242083 -0.0013873605 0.123566985 -0.10731445 -0.09684285 -0.010860022 -0.2199345 0.160287 0.0446612 -0.10653692 0.0887378 0.1109835 -0.00251475 0.051080257 -0.10505112 -0.10094644 0.18089949 -0.075735375 -0.035123482 0.029564714 0.049920708 -0.12365093 0.020559119 0.07142694 0.10334721 0.030606665 0.035220534 0.14063902 0.0022177561 0.10538899 0.06749285 0.038575884 0.09514256 0.0029646496 0.045883674 0.08467727 -0.085821636 0.10807826 -0.103138104 0.012093527 0.007930417 0.03606104 0.07483793 -0.123954274 0.13445364 -0.055049896 0.12264265 0.13491261 -0.0130238 -0.021644164 0.0020051028 -0.026710793 0.1009491 -0.022200411 -0.14037332 0.086273834 -0.20850685 0.047351673 0.025613343 0.14433777 0.03299169 0.018944455 -0.070124924 -0.032097682 -0.016993817 0.17299658 -0.111143045 0.051810067 -0.102745585 0.13037151 0.11341515 -0.023289045 -0.14134778 0.06214575 0.14463428 0.0009740495 -0.06346848 -0.071154244 -0.07742183 -0.028858561 0.06910702
or 0.006911191 -0.022341372 0.057002336 -0.12514299 -0.018270662 0.088381335 0.05078009 0.07549824 0.12255089 -0.1079093 0.04440373 -0.14471515 -0.014164744 0.05072414 -0.08188787 -0.079685256 -0.011869352 0.066808395 -0.012867894 -0.0054518227 -0.016382135 0.06295713 -0.08039625 -0.013253327 -0.068297975 -0.0066470494 0.06930327 0.039822213 -0.10451845 0.08713601 0.07247749 -0.026962826 0.0065544806 -0.14763525 -0.1109115 0.05654752 0.1560384 -0.024101043 0.010739466 0.05399854 -0.13453394 0.022504253 -0.090476274 -0.06755704 0.07908791 -0.087698594 0.04879628 -0.07485659 -0.09899336 0.06265142 0.010642718 0.08115963 0.035264578 0.06427635 0.07286441 -0.11973074 0.03565869 -0.094951056 0.070663646 -0.14954928 -0.05622353 0.09059675 -0.09606678 0.15534188 0.07065609 0.07545484 0.16970089 -0.0954707 -0.06192999 0.013819993 0.018199965 -0.08435538 -0.10107286 -0.10896322 0.051677722 0.03784826 -0.042089645 0.06408004 0.08354194 -0.0075022546 0.10211966 -0.043662548 -0.13344729 -0.11443277 0.062218376 0.00306511 0.08288931 0.060380556 0.084494986 0.12036879 0.050804894 -0.02613739 -0.07398846 0.14398439 0.05679305 -0.076673806 -0.062012415 -0.08912889 -0.030113192 0.022777962
back 0.07338714 -0.021930262 0.06930002 -0.016284153 -0.0321157 -0.012184699 0.06917637 0.12070006 0.035404895 0.007622784 -0.02974644 0.011211894 -0.008694828 0.13469839 -0.03760371 -0.0091334 -0.038899478 0.07812476 0.027274389 -0.18357767 0.01255677 0.108826205 -0.041253496 -0.011791883 0.011824363 -0.13568403 0.08059822 0.059901908 -0.0284709 0.058214232 0.014631344 0.040208284 0.111657016 -0.07629756 -0.061984528 0.012657055 0.014649791 -0.043910906 0.0152732115 -0.019893039 -0.013572306 0.1416395 -0.04990809 -0.06461069 0.030523604 -0.029634722 0.106964044 0.011225924 -0.12207521 0.08152227 0.007488248 -0.02658059 0.09106378 -0.025339067 0.023422359 -0.06791585 0.066496395 -0.066317946 -0.0046824627 0.034814093 -0.014010642 0.08820833 -0.021147916 0.099535055 0.0907088 -0.031846724 0.19214123 0.042384602 -0.05268256 -0.028044963 -0.016109034 -0.19608854 -0.031294398 -0.13255195 0.038767874 -0.06831084 -0.01864385 0.006527854 0.08953151 0.029944634 -0.026871735 -0.016792009 -0.118321806 -0.0051629385 0.14026925 -0.08973236 0.019801088 0.06396408 0.034410138 0.056945153 0.07087381 0.00874906 -0.10089488 0.059822023 0.050278142 0.051118225 -0.029816559 0.0348943 -0.006802907 0.063737206
there 0.023292057 0.049902756 -0.0101251155 -0.0036503822 -0.07284223 0.17759678 0.08097523 0.06602289 0.11309443 0.009507901 0.012544612 -0.04038929 -0.04869294 0.16393705 -0.04612401 -0.1162746 -0.036805935 0.13268197 0.018871957 0.03782316 -0.11321484 0.02331693 -0.022364276 0.091500565 0.07629601 -0.10625394 0.019199623 0.07198875 -0.076415874 0.15407461 0.049123496 -0.10571891 0.00052534556 -0.11809566 -0.06500164 0.052681223 -0.013730241 -0.006030696 -0.052635476 0.079213984 -0.049822167 0.13512556 -0.042066623 -0.11674536 0.11257361 -0.14345384 0.05932088 -0.02565714 -0.022168435 0.016585954 0.05792743 0.021570286 0.06119283 0.10071493 0.011058804 0.098888606 0.044466164 -0.051427133 0.09726364 -0.08674011 -0.021360578 -0.01550545 0.004707931 -0.009263107 -0.035512276 0.08564063 0.13325483 -0.13544935 -0.10015528 0.050312623 -0.0068943505 0.011475918 -0.0303963 -0.14286447 0.11370975 0.16436236 -0.012436952 0.011624836 0.09568898 -0.008166296 -0.1827139 0.038850304 -0.11469377 -0.03705163 0.016235135 0.18705755 0.038626235 0.11171221 0.0076215407 0.036582176 0.07253673 -0.0849655 -0.11611318 0.06284949 0.07758135 0.005484172 -0.15126915 -0.10166167 -0.04176795 0.047438085
why 0.04666271 0.01906284 0.04623002 -0.010586341 0.047047198 0.029979331 -0.09160389 -0.06515371 0.06731264 -0.040346302 0.107748166 -0.055627592 -0.07010128 -0.01726473 -0.055724088 -0.103727646 -0.034694046 0.028044343 -0.0061012716 -0.040786523 0.048164517 0.011141323 -0.012089742 0.015417478 -0.008077664 0.06186618 -0.015503684 0.017428981 -0.024692517 0.05599284 -0.029394042 -0.03223705 -0.07381423 0.0088944 -0.025122583 -0.0027321067 -0.016438415 -0.03853269 1.5406404e-05 -0.011787374 -0.058227584 0.04138132 -0.06920413 -0.0460428 0.12211598 -0.088799775 0.032375786 0.013684902 0.17618039 0.038282383 0.000718673 0.02740711 -0.033100963 0.015875492 0.0023075684 0.025720056 -0.02367752 -0.050287727 0.03329319 -0.013072532 -0.067587145 0.05833965 0.010183878 0.01907258 -0.03477892 0.0841235 0.05535477 -0.04574673 -0.05564769 0.015798436 0.060811825 -0.019320998 -0.046572167 -0.03267427 0.05535578 0.06487671 -0.054096393 -0.020892074 0.030528307 0.036408156 -0.06522028 -0.08807669 -0.0059136036 -0.036148496 -0.06299581 0.09339496 0.043953724 0.071415395 0.050374463 0.020831846 -0.007401643 -0.09510412 -0.016755095 0.045313053 0.030461501 0.07304762 -0.08001179 -0.023278931 0.014638744 -0.045058083
2 0.20090318 0.025084585 0.07532275 -0.11168627 -0.17561257 0.16125697 0.11724804 0.101943076 0.12299824 -0.0987182 0.108271755 -0.02100779 0.03613237 0.012395812 -0.16847622 -0.20247672 -0.15669166 0.04131954 -0.13326156 -0.05368048 -0.13566849 0.16714752 -0.20267862 -0.12084166 0.056431983 -0.07916367 0.03873008 0.14176384 -0.12705936 0.15288983 0.1657497 0.03290706 0.0003838737 -0.07538057 -0.11360234 0.13693497 0.2036306 -0.054807074 -0.00068546133 0.068275794 -0.16224897 0.12088241 -0.1703852 -0.08468817 0.16840248 -0.20287147 0.15386042 -0.07413343 -0.015102196 0.13535984 0.07028549 0.07961078 0.065720424 0.056836892 0.09198557 -0.006205528 0.17500043 -0.057041727 0.04649199 -0.045122206 0.098669395 0.0057921116 -0.21962841 0.19604129 0.097813405 0.08088658 0.20363706 -0.12918355 -0.16265363 0.13622496 -0.0096003525 -0.08685399 -0.08800946 -0.17582656 0.12542342 -0.017013595 -0.060959425 -0.10982006 0.019778542 0.010723465 0.02438005 -0.02835734 -0.06756167 -0.061145287 0.22459741 0.08917557 0.04700885 0.0914046 0.07235474 0.15488622 0.1018674 0.017666887 -0.1458482 -0.068653084 0.09986325 -0.25101122 -0.167264 -0.13142025 -0.055941172 0.08172981
we 0.03861446 -0.0066881934 0.19429775 -0.03621348 -0.040933724 0.057127513 0.06230019 -0.032197397 0.13161689 -0.143757 0.046390135 -0.08817806 -0.03580928 0.11725192 0.013191736 0.007894459 -0.18204725 0.16925211 -0.04310659 0.16002713 -0.12676746 0.037317242 -0.11626443 -0.04133732 -0.033994988 -0.08209211 0.1134478 0.065903254 -0.06464524 -0.04712441 0.08921345 -0.1399162 0.1319496 -0.15139134 -0.10801028 0.07130268 0.025825854 -0.10571053 -0.10686707 0.0043244995 -0.09967874 0.09480666 -0.08232147 -0.14538504 0.0730545 0.05250895 0.113537356 0.007715592 -0.09757928 -0.0009724951 0.15144561 0.032345936 0.20679493 0.08431258 0.070876874 -0.055302482 0.114375405 -0.17045695 0.10931411 -0.031040683 0.11874108 0.07587855 0.04699558 0.11133912 -0.055004697 0.03876637 0.10713074 -0.109402604 0.012915496 0.10564308 -0.035162475 -0.09153653 -0.12248895 -0.088111565 0.018563045 -0.015490488 -0.004114162 0.050312273 0.22556916 0.10688464 -0.04138267 -0.053790223 -0.095098525 -0.041949198 0.08039818 0.13701089 0.04377509 0.14356871 0.045055997 0.08425587 0.13047056 -0.11266445 -0.15178083 0.05890796 0.08072339 0.036219567 -0.045394666 -0.15335007 0.01292423 0.062396597
service 0.18233609 0.120300606 0.1618978 -0.0824067 -0.16392693 0.19558753 0.16757257 0.00071753655 0.12096265 -0.040840115 -0.10967537 -0.16352925 0.037238162 0.032378387 -0.07899523 -0.0531641 -0.0649104 0.17676555 -0.15751396 0.1124075 -0.054667898 0.03654361 -0.17584692 0.03539479 0.064456254 -0.044921383 0.053541478 0.12117408 -0.15346453 0.015561219 0.1766264 -0.13660318 0.04853586 -0.059290677 -0.0635035 0.051247492 0.09591309 -0.10762382 -0.123368405 0.17967124 -0.025975652 0.24166207 0.010951608 -0.009145721 0.02611035 -0.07248657 0.05816483 -0.048263516 0.024101775 -0.09293779 0.09559221 0.14530846 0.16034682 0.071871504 0.10194895 0.014273739 0.06698623 -0.034145262 0.04053756 -0.027327841 0.1459805 -0.14951527 -0.12973219 0.06082937 0.081390165 0.05346532 0.07592722 -0.015335564 -0.019352585 0.0077340836 -0.005015159 -0.05334336 -0.02690946 0.017628249 0.0042100213 0.03871522 -0.1318198 0.10393932 -0.043118052 0.16472776 -0.21301258 -0.09400163 -0.105649434 0.048675317 0.02780754 -0.0018969614 0.024784382 0.082133316 0.080960244 0.10758725 0.003416258 0.07110705 -0.13686718 0.05892586 0.16346814 0.058997516 -0.25340733 -0.03715384 -0.028054314 0.089490555
dallas 0.08021168 -0.09489438 0.078072056 -0.038204897 -0.03938834 0.05042319 -0.030346522 0.038128413 0.11152151 -0.06291809 0.057125416 0.022877 -0.041268107 0.07397706 -0.113254026 -0.09058367 0.049090665 0.044742268 -0.03669028 -0.09598342 0.008669754 0.08589461 -0.088458866 -0.028507607 -0.0431837 -0.07461455 0.087385304 0.13876508 0.004269661 0.032449435 0.06451911 -0.011607788 0.08266328 -0.053243607 -0.11901121 0.051243376 0.11000644 0.053720616 -0.013720656 -0.03352623 0.1085222 0.09833333 0.022530774 -0.0089171175 -0.027755044 0.043899022 0.18725605 -0.14126508 -0.124682054 -0.01592684 0.079548664 -0.018586377 -0.005592663 0.02515525 0.003222045 -0.01924993 0.0115229 -0.08042969 0.05353555 0.006317961 0.003306195 0.13164918 -0.13344717 0.10595626 0.18279132 0.115770005 0.04920172 -0.08964167 -0.1450148 0.03850141 -0.086395055 -0.14350905 -0.06024784 -0.09343112 0.009168152 0.06286971 -0.19844083 -0.0054926453 0.14957032 0.07503499 0.04528366 -0.12520365 -0.089748636 -0.07494901 0.048508737 -0.06544954 0.0113571575 -0.04608835 0.13820978 0.050054617 0.16806276 -0.011853498 -0.07476651 0.04074183 0.084626086 0.0788114 -0.08560646 -0.108925425 -0.022057597 0.05586192
only 0.12577014 -0.009508704 0.036051057 -0.13810909 0.0070620007 0.032083232 0.003804566 0.0525757 0.0008566857 -0.044786986 0.009835791 -0.06143631 -0.036542296 0.22453225 0.056553546 -0.07252972 -0.058728084 0.1147197 0.026346155 -0.09410007 0.02171879 0.07191588 -0.008255286 -0.036002733 0.12566252 -0.050930955 0.07689227 0.06303933 -0.06394608 0.026916644 0.03824441 -0.06585762 -0.010203651 -0.06320901 -0.1044938 0.13699576 0.043210883 -0.0047191205 -0.047985233 0.06429645 -0.0960056 0.14104761 -0.055207454 -0.04920788 0.046867944 -0.03447101 0.020062238 -0.065031394 0.15586412 -0.0032403846 -0.022487815 0.045655787 0.050066005 0.009290214 0.020286942 0.0125955995 0.08659825 -0.05807288 0.06103818 0.022848383 0.005208579 0.059960976 0.036587168 0.04942472 0.037220817 0.14831124 0.076898165 -0.07611859 -0.107865065 0.056464396 -0.0645991 -0.06852265 0.022077419 -0.1288586 0.06716887 0.06429139 -0.036768083 -0.088298395 0.098415665 0.027803276 -0.0641647 0.020942852 -0.10699351 0.044616833 0.14113472 -0.0024435292 0.03363219 0.056854904 0.083087035 0.047359824 0.040168673 -0.089894824 -0.026574377 0.008788155 0.05041951 -0.016934248 -0.008890116 -0.009997079 0.023927143 -0.07007086
now 0.07821784 -0.041324906 0.00801761 -0.05607867 -0.12830457 0.11498635 -0.017724315 0.044500135 -0.0050947433 -0.03668869 -0.02057398 -0.06305738 0.015135001 0.1933318 -0.046648473 -0.11065284 -0.060195554 0.120949775 -0.077463955 -0.03544216 -0.07343962 0.056485236 -0.05435265 -0.0737441 0.04847398 -0.13025452 0.13929965 0.07782028 -0.05707032 0.14609656 0.081166446 0.009828916 0.09929584 0.007909791 -0.13786885 0.07640996 0.14475474 -0.024585327 0.045585543 0.054445468 -0.058890544 0.08468707 -0.14748976 -0.03470718 -0.053320684 -0.021014959 0.12178037 -0.080168776 -0.058166414 0.10189074 0.01696733 0.071878746 0.08121101 0.057096463 0.0128784375 -0.018307112 0.0955789 -0.061412144 0.14863184 0.007111174 0.07402175 0.010786602 -0.10142291 0.06693646 0.042461663 0.05797984 0.07723196 -0.014133196 -0.036951035 0.0037136169 -0.061999355 -0.108716205 0.008884502 -0.15775923 0.11873609 -0.054212503 -0.08969752 -0.016173666 0.12291205 0.09684169 0.05602614 -0.051585373 -0.10346263 -0.019102447 0.06871065 0.108381584 0.012124259 0.062092077 0.08850181 0.02990686 0.06386246 0.06530286 -0.100513615 0.15258734 0.044222143 -0.05826707 -0.023250403 -0.11232673 -0.07677665 0.09020634
trying -0.062194996 -0.07305364 -0.11207822 -0.0124794375 0.011999468 0.0003019655 0.059978515 -0.12564169 -0.02465387 0.063993655 -0.0042213057 0.088756174 0.054794993 0.089917086 -0.03791357 -0.14835435 0.04794638 -0.17197697 0.063408084 -0.20084026 -0.0068053775 0.046830036 -0.048756126 0.15535131 -0.15987575 -0.12889288 0.026939042 0.0798487 0.071322 0.14807278 0.13572973 0.17093468 0.06319733 -0.049275674 -0.16496967 0.010858402 0.21066701 0.082591 -0.040730067 -0.14568126 -0.020748034 0.18611677 -0.08950342 0.1297577 -0.05481209 0.05729157 0.25941542 -0.12570113 0.0615753 -0.10369138 -0.024404543 -0.08104999 -0.08103131 -0.0516629 -0.048096206 0.07544458 0.0047766734 0.10345042 0.050277658 0.14344119 0.0818446 0.27933064 -0.17108858 0.023500865 0.21502633 0.053535458 0.07600946 0.021081867 -0.088960275 -0.053556062 0.023599485 0.018945552 0.1152517 -0.2675051 0.05451461 -0.09001377 0.07092421 0.025347957 0.21263136 -0.078812815 0.20971723 0.08289816 -0.102443114 -0.11108785 0.09809905 -0.14860179 0.095361866 -0.058271695 0.115881085 0.07860328 0.020107226 0.17064154 0.018836949 -0.065444306 0.090444885 0.11524272 0.06080968 -0.04045163 0.09083876 0.07265202
today 0.030964917 0.051141687 0.049263336 -0.03449555 -0.011805372 0.019375075 0.10285038 0.08720491 0.12925959 0.05168674 0.068771996 -0.061513927 0.004806819 0.08092144 -0.0910517 -0.14574043 0.0110201035 0.047688864 -0.07144459 -0.07536988 -0.0054467497 0.11496722 -0.016572073 -0.09088858 -0.046578538 -0.1540447 0.063073404 0.11697944 -0.061103515 0.13964796 0.030329438 -0.03499957 0.0018784894 -0.09838916 -0.12795581 0.14380732 0.13520627 0.007877546 -0.042530674 0.028700812 -0.035382826 0.090656325 -0.11357266 -0.020905696 0.013589069 -0.070107326 0.10211521 -0.048703246 -0.11496322 0.112880565 0.00014722782 0.09112439 -0.020397179 0.030159183 0.05654144 -0.042737857 0.057517983 -0.001953034 0.08999411 0.01205988 0.08958409 0.057494767 -0.092571564 0.048783977 0.11463439 0.08498482 0.15604055 -0.031027388 -0.046849437 0.07281031 -0.013428533 -0.08579334 -0.016105274 -0.08319167 0.085413665 -0.057887238 0.01843171 -0.005264577 -0.018806018 0.124966025 -0.10710762 -0.058391232 -0.037270013 0.0072701573 0.06999036 0.071416676 0.115437396 0.029731961 0.11084279 0.04555627 0.043342263 -0.075828254 -0.07575065 0.063833155 0.042384207 -0.085246675 -0.038202785 -0.050128374 -0.035271 0.10686899
please 0.03387849 0.057149656 0.118854485 -0.10559591 0.012758331 0.03627144 0.01575243 0.07717557 0.07576965 -0.10996778 0.003460903 -0.056190014 -0.16494097 0.15521924 -0.008950163 -0.10543802 -0.13234238 0.11488653 0.01993069 0.08465311 -0.041305207 0.020608842 -0.09770424 -0.027059555 0.048473664 -0.062218223 0.13401327 0.112055466 -0.03779433 0.099344715 0.07014047 -0.12626839 0.08510214 -0.05957449 -0.08407027 0.07059959 0.07653818 -0.07352765 -0.10390111 -0.006864671 0.07469483 0.0979215 -0.09336909 -0.07865164 0.082281604 -0.04322264 0.021827962 -0.09216964 -0.057393536 0.04860628 0.052520122 0.060629588 0.16830835 0.0926115 -0.007722756 0.004151116 0.13556635 -0.026602337 0.043310005 -0.04177233 -0.025109809 0.12060156 0.00070199673 0.16120712 0.0974671 0.109065466 0.09263304 -0.05673634 -0.12783743 0.119830124 -0.08171201 -0.04980363 -0.039866958 -0.0040252134 0.0154073965 0.117247954 0.006422803 0.02533909 0.06733824 0.036478523 0.08109426 -0.099502005 -0.09269639 -0.14500037 0.056839924 -0.02496097 0.105726734 0.15701741 0.035847522 0.046381872 0.08532839 -0.08413787 -0.14368919 0.0035251006 0.024682295 0.0056134104 -0.05690654 -0.11413079 -0.098153636 0.012252802
up 0.020831576 0.059683952 0.13264854 -0.016124127 -0.026684774 -0.008551104 0.13585016 0.056908637 0.03086554 -0.06712047 0.11476471 -0.056036986 -0.00925331 -0.051092483 0.0017591551 -0.101668574 -0.049119122 0.08136373 -0.082948074 -0.0957414 -0.09112299 -0.0036888446 -0.056279805 0.018535053 0.036289543 -0.06887311 0.10698029 0.072892524 -0.06350458 0.08297254 0.07516274 -0.06307948 0.12241903 -0.1059533 -0.08011982 0.015158362 0.017732693 -0.08098076 -0.04463305 0.10119171 -0.19322401 0.114762425 -0.09772125 -0.09317678 0.0039692656 -0.18640693 0.036961548 -0.023832185 -0.08776674 0.00210166 0.07768663 0.06334553 0.09799243 0.019452786 -0.0032272665 -0.07988827 0.020476228 -0.0099110985 0.09098971 -0.03230428 0.18580538 0.080374815 0.023013027 0.12793405 0.013459953 0.050858337 0.08937308 -0.044851515 -0.052982986 0.04774198 0.026760416 0.018133404 -0.0789369 -0.0891818 0.023207298 0.06100375 0.005780594 0.07458922 0.047816776 0.07303638 -0.1423121 -0.07620739 -0.12177369 -0.081034556 0.100652084 0.02391125 0.09574314 0.1893657 0.031738233 0.066381805 0.06338263 -0.022678802 -0.13433109 0.037487805 0.05914816 0.06177499 -0.0179809 -0.12583297 -0.019364152 0.096073076
next 0.048526634 0.11721515 -0.026453417 -0.14862084 -0.018549146 0.06323002 0.12434507 0.033520877 0.160498 -0.119018555 0.07064283 -0.0341313 -0.026113225 0.13170092 -0.011911339 -0.11321108 -0.06204153 0.0908154 -0.05511219 -0.11402567 -0.0479964 0.1199261 -0.105957285 -0.1455624 0.0607818 -0.07008105 0.09480608 0.129967 -0.1478601 0.12752698 0.14126185 -0.08319327 0.09274656 -0.075881034 -0.1310335 0.014757171 0.13843322 -0.017306669 -0.07001055 0.1527526 -0.026193216 0.12302414 -0.050760735 -0.06417385 0.07756029 -0.07880027 0.20732449 -0.110686384 -0.030828994 0.07219277 0.07713854 0.090029955 0.080310464 0.02034904 0.13147242 -0.06751214 0.13514133 -0.00896116 -0.0347875 -0.10447617 0.019187015 0.09004928 -0.080345206 0.07854957 0.10033695 0.121739015 0.080303766 -0.13327223 -0.122859515 0.1263118 -0.086279996 -0.05151345 -0.060269274 -0.13517359 0.09906512 -0.035460394 -0.14654732 0.06700187 0.093123145 0.079344 0.040614504 -0.067114584 -0.12680182 -0.038872287 0.16432106 0.07628335 0.037097223 0.052340887 0.06630863 0.037572317 0.04824399 -0.0081825815 -0.09540547 0.029345272 0.10925012 -0.043626126 -0.12842317 -0.083744496 -0.08514768 0.05878668
one -0.0026873054 -0.24648492 0.01902126 -0.12496847 0.023683432 0.017526578 -0.008760712 -0.046300836 0.115345776 -0.105211325 -0.011709096 0.09371967 -0.02714714 0.031060053 0.03289929 -0.20612851 -0.13753372 0.06265644 -0.06604628 -0.026023196 -0.018591637 0.0548836 -0.14068156 -0.03955226 0.041931313 -0.16142714 0.021241387 0.1341224 0.009693121 -0.06334725 -0.009873613 -0.07702949 0.05791718 -0.11507591 0.06126883 0.07554769 -0.07516743 -0.004069663 -0.009167854 -0.013290003 -0.17997773 -0.06791664 -0.0020173113 -0.18725769 0.09573232 0.07097848 0.053500477 0.066317424 0.16110805 0.15983513 0.21513696 -0.022822997 0.077644706 0.058177724 0.07543191 -0.036666274 0.033459578 -0.10261401 0.028986769 -0.0420241 0.035446644 0.096557125 -0.07098614 -0.0015724723 -0.03613772 0.14868793 0.0154281 -0.096206054 0.02076857 0.03729205 0.0018505774 -0.22855538 -0.11930563 -0.11807212 0.027625278 -0.1252926 -0.094445825 -0.09222984 0.060237564 0.06440175 0.061123364 -0.16356982 -0.030786749 -0.11221852 0.15417741 -0.07094073 -0.08270121 0.03750506 0.050170675 0.00031764427 0.010289416 -0.16017067 0.054281827 0.10429195 0.0052926983 -0.2043145 -0.0023358075 -0.052769087 0.026085395 -0.04457243
best 0.029095348 -0.060929928 0.060692746 0.034297638 -0.025680156 0.06768246 -0.014433239 -0.008976337 0.00972645 -0.0045262952 -0.05720823 -0.058344953 0.06955488 -0.054014497 0.050190426 -0.07341521 -0.08406426 0.12040909 -0.06017908 -0.09113341 0.07685265 0.019845761 0.045643516 -0.036829464 0.039369725 -0.10510031 0.099731386 0.043811128 -0.023696132 0.059726615 0.0478487 0.118917145 0.076928124 -0.015677674 -0.123983435 0.08918215 -0.047645684 -0.06616281 0.09017647 0.0019518374 0.011603708 -0.058427162 0.039343234 -0.08947608 -0.009619726 -0.010159233 0.030805951 -0.0381714 0.18614295 0.008251421 0.07943612 -0.05926269 0.057749085 -0.012087048 0.09411722 -0.21341975 0.03220647 -0.009498259 0.052133612 0.04206922 -0.027059387 -0.020768203 -0.07298726 0.029494056 0.013965385 0.11402068 0.14702694 -0.09338642 -0.019812208 -0.10278175 -0.03921194 -0.080148004 -0.05512879 -0.16438313 0.045208108 -0.105761014 0.008826236 0.064239606 -0.03404831 0.07233992 -0.15961345 -0.011514315 -0.14813653 -0.026568992 0.09688359 -0.028166031 0.064119816 -0.07557346 0.062262498 -0.06381156 0.056985438 -0.007429257 0.009618397 0.0111769065 -0.010100228 -0.17471921 -0.06360285 0.04867752 -0.038054984 -0.024548614
