649 100
virginamerica 0.22026907 -0.5357582 -0.010398072 -0.1948691 -0.10997282 -0.33884197 -0.200396 -0.2561136 0.42743334 -0.30241796 0.25176865 0.081169814 0.042417552 0.47223282 -0.48000997 -0.25191444 -0.48834065 0.037501737 0.42507464 -0.14833914 -0.15699849 -0.2342393 -0.23202385 -0.19169812 0.2927077 -0.03862429 0.6145052 -0.08202622 -0.08862809 -0.33611128 -0.26656082 -0.23983455 -0.3162631 0.17054296 -0.78425723 0.098876156 0.057745922 0.5110401 0.06110783 0.77841413 0.14285825 0.44543564 0.21180776 0.12525667 -0.034293156 0.56308293 -0.5646536 0.57039416 0.4557053 -0.15472928 0.34558436 -0.41314194 0.5012901 -0.19850896 -0.05210966 0.27405223 -0.08758805 -0.27421543 0.10000978 -0.062345944 -0.02354227 0.25836855 0.032420583 -0.7057702 -0.0679809 0.63205814 0.14339183 -0.029299725 0.33848813 -0.5081349 -0.28143832 0.45463806 -0.071323276 -0.30223945 0.48251846 -0.36819294 -0.24186432 0.41139323 0.19257446 0.49992517 0.17723115 -0.64871585 0.13410312 0.017879458 0.10439558 0.06277613 0.13054481 -0.10626647 -0.061864804 0.06628533 0.14234538 -0.36060637 0.06705051 0.025144653 -0.18848573 -0.22974347 -0.01396488 -0.18333505 -0.018438721 0.10115472
i -0.18908666 0.033283796 0.3255149 -0.13283148 0.19203135 0.1104275 0.02164493 0.029089175 0.06412513 -0.18141401 0.2958587 0.305074 -0.13233733 0.042958304 -0.18797515 0.14316662 -0.039346334 -0.11735541 -0.29744187 -0.19716673 -0.19825171 0.017020645 0.08550897 0.07507222 0.09080015 0.07269677 0.24796069 0.11901606 -0.38829055 -0.2223642 0.18240279 -0.08288768 -0.21553247 -0.23751032 0.14497493 -0.34035817 -0.1729468 0.021870289 0.2163129 0.21229851 -0.118104346 -0.28520107 -0.20160185 0.17374985 0.2130782 0.093668036 -0.034999862 0.16391985 0.20213217 -0.049525958 0.23981886 0.18692972 -0.16368806 -0.22700295 0.2141794 -0.1364985 0.24052873 -0.19287059 -0.32683358 -0.37530333 -0.07358307 0.11843498 0.18566829 -0.2228678 0.19825238 0.3115873 0.09741853 0.14832146 -0.18689685 -0.15113547 -0.06022529 0.21114717 -0.010418301 0.25464064 0.20757815 -0.07034227 0.15375099 -0.0060166996 0.39976102 0.17185214 0.097439304 -0.17334522 -0.006329219 -0.26636025 -0.097361356 0.12516767 0.09485679 -0.05531947 -0.17202748 -0.3490064 0.11902171 -0.051370695 0.11986752 -0.29564518 0.30370814 -0.08649474 0.26035112 0.0741216 0.23710601 0.25005212
to 0.025919009 -0.019654639 0.07896523 -0.007268257 0.31161737 0.15943007 0.0028351457 -0.05158839 -0.029950054 -0.5330404 0.11983133 0.6225471 -0.09310904 0.26666558 -0.38288704 0.18375549 0.005745806 -0.4351781 -0.33543062 -0.38525763 -0.08647596 -0.15452114 0.09153155 0.0014856115 -0.0058398386 0.21941093 0.24078454 0.042369265 -0.10644997 -0.23018134 0.082208276 -0.25142744 -0.36681476 -0.11762322 -0.09347932 -0.23241273 -0.14524531 -0.060126245 0.36046907 0.40218875 -0.07639748 -0.25873792 -0.21327886 0.27989194 0.21847789 0.4417774 -0.06942415 0.19653907 0.20328887 0.117432326 0.28276664 0.0016345482 -0.24158302 -0.38765115 0.089543484 0.055496756 0.10348816 -0.524572 -0.35181752 0.0029091444 -0.15603867 0.39143568 0.37426695 0.032770567 0.28558692 -0.3598959 0.175329 0.0973961 -0.14107335 -0.27694726 -0.25917926 0.50353235 -0.17636842 0.17864448 0.053990662 -0.15921628 0.21798003 -0.2451336 0.4164285 0.24254923 -0.0518587 0.09998592 -0.22457077 -0.29448822 0.026341988 -0.14145581 0.15707578 -0.29875937 -0.2389996 -0.035847053 0.49179786 -0.15521617 0.079666175 0.11859664 0.22972792 0.055670884 -0.070386924 -0.05105028 0.033407997 0.09269534
the -0.06099519 -0.16084291 -0.3039731 -0.2616842 0.29440358 0.14329475 0.34427905 0.10713197 -0.04371874 -0.34830925 0.14798063 0.32385695 -0.3251338 0.35113952 -0.4664938 0.11019345 -0.042755026 -0.27908838 -0.101112485 -0.4259333 -0.30220285 -0.4101805 0.045997746 0.12199923 -0.15360872 0.15510242 0.1684147 0.15220404 -0.20007053 -0.16971736 0.2957014 -0.22319077 -0.24813224 -0.033872414 -0.36272383 -0.13825846 -0.14900143 0.039998036 0.021697244 0.33578616 -0.3339281 -0.055126075 0.30905142 0.15753867 0.14039981 0.4207339 -0.17813368 0.2174254 -0.019950349 0.016200783 0.5105174 0.07976362 0.18033664 -0.17553335 0.12793869 0.18841837 0.17409243 -0.18283036 -0.07644905 -0.15082857 -0.005892732 0.2504935 0.0557571 -0.06087152 0.28580207 0.39403844 0.19641377 0.23669612 -0.15819795 -0.4549645 -0.27015677 0.47278836 0.031943575 0.3188653 0.38868716 -0.21924561 0.37490615 0.11696593 0.05089795 0.44732675 -0.28244755 0.14546125 -0.06588698 -0.12418558 0.056406748 0.19279842 0.072949246 -0.09753149 -0.13911107 -0.2727302 0.08488815 -0.11289046 0.122211896 -0.18174838 0.24374808 0.28106958 0.16619441 0.047915045 0.077039905 0.0466009
my 0.048309583 0.101570316 -0.020223953 -0.18449746 0.29260466 0.013509028 0.15671827 0.114515245 -0.19152486 -0.3821571 0.13669325 0.47009665 -0.119433604 0.3664155 -0.2207902 0.2475457 -0.18971026 -0.2150723 -0.024486683 -0.19121464 -0.21255712 -0.13905187 0.030121082 0.14833046 0.028439429 -0.008968943 0.1653828 0.14917217 -0.16435489 -0.3430667 0.10743838 -0.3379094 -0.4100518 -0.08846927 -0.10448435 -0.25646275 -0.16797407 0.33052844 0.35847643 0.05241052 -0.033401404 -0.2503959 0.1194902 0.117979325 0.06986177 0.33291864 0.06873066 0.18614967 0.44591334 0.040724892 0.38166165 0.06948281 -0.1197329 -0.34876943 0.21705815 0.5005201 -0.15839922 -0.23403552 -0.21152514 -0.25620314 0.11646744 -0.045476545 -0.066196606 0.01898635 -0.13963784 -0.3556377 0.51787925 0.039329626 0.061665427 -0.12602219 -0.27909952 0.3060854 -0.3056592 0.12024513 -0.051749382 -0.14350197 0.08396606 0.14929762 0.32991552 0.14323546 0.3618257 0.21802713 -0.061853264 -0.12270086 0.31999037 -0.03132626 0.05987559 -0.14832306 0.0015797699 0.0916445 0.039787095 -0.119296454 0.21590534 -0.26322523 0.22302738 -0.019371701 0.017500492 -0.14396437 0.11782536 0.124775596
you -0.31894118 -0.23564225 0.20333332 -0.14833735 0.2270831 0.11659558 0.08315818 0.33240357 0.08132099 -0.045696218 0.29489022 0.16348892 -0.016702775 -0.02210275 -0.16978048 -0.04107745 -0.2641906 -0.2836722 -0.21636306 0.01316261 0.042568553 -0.027173132 0.06738212 0.16070126 0.1949567 0.22536124 0.14469136 0.27118447 -0.2412084 -0.08436246 0.034000833 -0.07750911 -0.18358056 -0.071668066 0.034808826 -0.4691943 -0.067896105 0.18278709 0.033775743 0.31368238 -0.27767837 0.003729119 -0.42318055 0.4313927 -0.11554965 0.013964642 -0.10705008 0.15656486 -0.13472232 -0.14985189 0.1035819 0.040503934 0.0682174 -0.005593123 0.10404781 -0.06955331 0.272732 -0.12665386 -0.1822343 -0.16731961 0.03741621 0.22124527 0.20669448 -0.27744702 0.17045711 -0.016205959 -0.09641111 0.23965743 0.065835685 -0.26746425 0.10141947 0.15920967 -0.12285243 0.18650849 0.18531862 0.20084767 0.05222098 0.24342184 0.10533412 0.3754958 -0.05671916 -0.09935987 0.02279356 0.07138537 -0.11330039 0.18456942 -0.04275865 -0.13735694 -0.36346713 -0.25042102 0.19074833 -0.26697004 0.0033447426 -0.007292235 0.27646503 0.08120429 0.19169001 -0.13895744 0.23079976 0.15155151
a 0.028818812 -0.14028655 0.06620434 -0.20851745 0.196159 0.014105182 0.17855683 0.11855524 -0.0873732 -0.3622788 0.16002488 0.41047165 -0.1448381 0.23331417 -0.1876447 0.09672092 -0.23357873 -0.21539032 -0.04942598 -0.16921288 -0.08591116 -0.33763963 0.07271307 0.066399805 -0.05600389 0.1586935 0.2219344 -0.009126072 -0.2481167 -0.29231277 0.18010412 -0.34673715 -0.17279556 -0.16541569 -0.16441607 -0.1986704 -0.019848464 -0.02812479 0.32777032 0.06593152 -0.12314172 -0.16707256 -0.07671948 -0.08942925 0.12936406 0.40832603 -0.39669046 -0.0048273006 0.27832064 0.038586363 0.24718095 0.11186448 0.036488805 -0.15020788 0.09968232 0.22105144 0.18965246 -0.1599103 -0.09640636 -0.019275885 0.1304252 0.3329231 0.17646474 -0.010210828 0.041387323 -0.048183326 0.32410333 -0.017939435 -0.18187432 -0.44806337 0.050302353 0.28209698 0.046260513 0.005205125 0.26252046 -0.16962864 0.17210948 0.04853681 0.030081313 0.17042418 -0.06815351 0.25616226 -0.066724695 -0.09445633 0.12872057 0.085981146 0.17909022 -0.20175885 -0.108663246 0.03446605 0.23914345 -0.09973549 0.08535124 -0.10344214 0.054875217 0.1285435 0.10467947 -0.13321958 0.005597768 -0.030525835
flight 0.025686914 -0.254032 -0.0068360027 0.044667296 0.0061184354 0.09694818 -0.013888587 -0.03078947 -0.1020287 -0.13631585 0.12768808 0.24501118 0.03688214 0.056909166 -0.11456428 0.16250315 -0.18257833 -0.19546832 -0.17103542 -0.1369136 -0.008768375 0.04793295 0.11804323 0.02623754 -0.012627385 0.1078939 0.060193002 0.014949623 -0.2682775 -0.20693663 0.04741092 -0.122699104 0.044887003 -0.16350164 0.21714282 -0.064031884 0.054610875 -0.016204482 0.10685449 0.14941618 -0.15504761 -0.059964478 -0.25337955 0.084616534 0.015236029 0.12307296 -0.18970188 0.22768274 0.12681784 -0.012219368 0.10970387 0.013096544 -0.12338903 -0.3866818 -0.0043887584 0.12238024 0.12417425 -0.24456652 -0.21235904 -0.015499882 0.010506997 0.2091667 -0.0039110235 0.013018325 -0.09594462 -0.04854496 0.18114439 -0.045653917 -0.03739847 -0.09461372 -0.16520782 0.09910601 -0.16215369 0.026478514 0.065735556 -0.06390781 0.28079426 0.12682918 0.29734594 0.13594073 0.22113135 0.07101382 -0.11348158 -0.05606847 0.16597046 0.017008556 -0.18141048 -0.15211457 -0.06518883 0.08653038 0.11273226 -0.4205341 0.044892423 -0.12934892 0.21925098 0.06095079 0.025119262 -0.049333002 0.010951686 0.03122876
is -0.034023326 -0.14864518 -0.03822314 0.024457445 -0.04082049 0.16696692 -0.026086072 0.15175383 -0.027602646 -0.04485598 0.04659303 0.15381663 -0.17296885 -0.054950625 0.061967842 0.12630312 0.04721704 -0.0149695575 -0.051312257 0.033834644 -0.15090452 -0.09298634 0.2632558 0.13914378 -0.09943065 0.01573119 0.10002326 -0.020712834 -0.33776417 -0.01941107 0.11767019 0.009471038 -0.06871433 -0.17568554 -0.17490262 -0.032801654 -0.16003431 0.035856895 0.02869689 0.21300946 -0.17475407 -0.013322981 -0.15224713 0.03086264 0.14764926 0.114799745 -0.056313273 -0.08956222 0.016997524 -0.011821107 0.04975906 0.016490666 0.07072528 0.05018996 -0.096974075 -0.030977156 0.20680283 -0.21488081 0.023456523 -0.06599872 0.15930341 0.16056591 0.13331795 -0.11462286 0.3193829 -0.15382285 0.03290822 0.17044954 -0.025657872 -0.11767058 0.087420456 0.09109312 0.16670696 0.08537332 0.12500958 -0.0071133333 0.20251098 -0.23729984 0.14827171 0.0499125 -0.03714832 0.23743832 -0.16450863 -0.047439158 -0.014216036 0.010377488 0.12671311 -0.15252334 -0.28111032 0.058416028 0.095450826 -0.17098548 0.105772115 0.10476536 0.17065667 0.17061013 0.04839195 0.07054535 0.039119877 0.39485955
and -0.14377365 -0.11046503 -0.053049184 -0.23188667 0.18295193 0.25330925 0.23716792 -0.014370396 -0.17797324 -0.2671484 0.14679345 0.18078728 -0.12612122 0.2892001 -0.36474258 0.15966035 0.10007664 -0.06709569 -0.2614819 -0.38752213 -0.15131427 -0.16542351 0.22020996 0.20048396 0.0018447657 0.16023895 0.22877558 0.09032387 -0.22257586 -0.1530207 0.14407295 -0.3177824 -0.087146886 -0.11585095 -0.072162524 -0.14578466 -0.027900275 0.23613724 0.27255479 0.102909125 -0.19733624 -0.11487792 -0.08258683 0.06421232 0.21400553 0.2672672 -0.16228339 0.15246923 0.11762246 -0.03859217 0.29538473 0.118591145 -0.14035103 -0.24475926 0.116277896 0.19526646 0.26747906 -0.2969031 -0.14636223 -0.22226195 -0.06176156 0.2661904 0.18256061 0.08042642 0.16985905 0.048198026 0.34029552 0.23031141 -0.080491416 -0.33772662 -0.0569076 0.37541905 0.15806074 0.107341364 0.26904038 -0.22138879 0.10855716 -0.13426074 0.14704016 0.19844435 0.04484369 0.11906253 -0.083185665 -0.27784845 0.18500523 0.14935485 0.18584043 -0.29841805 -0.21952409 -0.15405697 0.2485483 -0.1642554 0.2795601 0.0036878614 0.09508804 0.31254447 0.14820744 0.078456335 0.13250306 0.0232474
on 0.057853624 -0.18238445 0.11441799 -0.13610323 0.15849134 0.1577887 0.36425957 0.20962323 -0.19632944 -0.25892115 0.14986481 0.37064976 -0.15910946 0.19586405 -0.09782995 0.27678886 -0.13578816 -0.2622954 -0.17253542 -0.14419 -0.031307224 -0.109094515 0.019003304 0.036038514 0.074005134 0.2273979 0.15656257 0.109031826 -0.14107303 -0.35561472 0.19986016 -0.19044779 -0.11318556 -0.17055334 0.017974876 -0.14940996 -0.08862321 0.1489046 0.33008078 0.05405904 -0.26936793 -0.17640069 -0.32227752 -0.1235677 0.15099342 0.30396584 0.008107487 0.26587927 0.236345 -0.005296968 0.2595521 -0.011252344 -0.097285315 -0.07554832 0.09858544 0.20335636 0.094008364 -0.16540784 -0.01737922 -0.06120174 -0.021995343 0.20441912 0.08283135 0.18876947 0.15323621 -0.029615259 0.2984563 0.020478036 -0.01584814 -0.2015288 0.034111433 0.28083575 -0.19857623 0.040345054 0.23143536 -0.24393325 0.2598485 -0.22650109 0.12211754 0.12977822 0.033817675 0.21027814 -0.052969433 -0.009516425 0.30526534 0.007824235 0.08012604 -0.18726587 -0.050551817 -0.045173485 0.42152402 -0.23693067 0.12918693 -0.23509037 0.19267096 -0.028394796 0.12089184 -0.16596283 0.17840286 0.09149077
for -0.0749587 -0.13215108 -0.132679 -0.10345519 0.26470706 0.10888168 0.16422363 0.1194218 -0.26426747 -0.2406174 0.1364595 0.41014877 -0.22037841 0.35583913 -0.11791358 0.1857392 -0.11451168 -0.19112356 -0.17244563 -0.1743605 -0.25070646 -0.2022781 0.12006765 0.19278002 -0.058894984 0.15137586 0.13826038 0.12802888 -0.34505653 -0.21141045 0.24245971 -0.46746537 -0.15173025 -0.07230193 -0.12073953 -0.28379938 -0.08957459 0.18627843 0.43340677 -0.011808755 -0.15170604 -0.19290034 -0.21938689 -0.02463392 0.20292696 0.31409383 -0.23693348 0.01770838 0.154834 -0.09341478 0.2756686 0.14900842 -0.23231013 -0.26477307 0.051111348 0.13419169 0.11993678 -0.37555894 -0.22154804 -0.10847203 0.31337637 0.1838581 0.24103722 0.0051061055 0.16634496 -0.20077793 0.26889765 -0.080178395 -0.06121476 -0.29835784 -0.19304407 0.24728304 -0.16921067 0.21430016 0.14014654 -0.21947701 0.16138612 -0.067009866 0.16178735 0.11576909 0.08399516 0.031538244 -0.21374412 -0.22799498 0.35024565 0.008927801 0.18093309 -0.11804806 -0.14790107 -0.117928095 0.32372236 -0.2001403 0.12225939 0.07043145 0.28272533 0.26806122 0.07273868 0.020859092 0.106878184 0.13283761
t -0.5942696 0.070084535 0.22760506 0.17728543 -0.13826539 0.5714752 -0.15827183 0.05781196 -0.49693692 -0.31651717 -0.12043754 0.30229107 0.26308244 0.6330891 0.12229886 -0.36438134 -0.51272255 0.28387898 -0.2863953 -0.30589882 0.12530306 -0.79275817 0.5533306 0.13363358 0.22628279 -0.24692228 -0.07124018 -0.14418633 0.2233637 -0.22633746 0.29274487 -0.20332983 0.23929709 -0.15978017 0.054151148 0.14600207 -0.08835242 0.39681345 0.10890484 -0.24397142 -0.57809955 -0.46522442 0.13561255 0.0981391 0.034232352 -0.037656635 -0.24293229 -0.15246142 0.009471432 -0.41607466 0.27761325 0.5562589 0.41810906 0.23115934 -0.17367949 0.7544862 0.25123706 -0.14547712 -0.6889957 -0.031262014 -0.111143135 0.093258776 -0.12035648 0.38237908 0.01570921 0.399018 0.689382 -0.2827246 -0.586411 -0.103366785 -0.38879427 0.22088034 -0.065875374 0.32313946 0.753712 -0.73854387 0.043357402 -0.086404115 -0.102454185 0.0030164535 0.46702263 0.33355972 0.23385029 0.045185268 0.11405975 -0.29291654 -0.0052624135 0.06206503 0.28141758 -0.09296325 -0.0023023977 -0.33287016 -0.20335864 0.26634678 -0.29183346 0.41003722 0.5539087 -0.06953416 -0.07678165 -0.21955734
co -0.45112833 -0.5200804 0.2894902 0.106191374 -0.16799405 -0.014099489 -0.14369473 -0.3406631 -0.50467116 -0.015904933 -0.2237545 -0.021602122 0.14960764 0.67995983 0.12192862 -0.16555427 -0.3009288 0.19351728 0.29316375 -0.30443913 0.124766484 -0.65558344 0.34184378 -0.25202423 0.4437847 -0.1872485 -0.13118958 -0.20613104 0.25553995 0.0653386 0.49805394 -0.5843455 0.2778079 0.28550467 -0.5545887 0.10251702 0.29014227 0.5547635 0.59574264 0.20495218 0.03627111 0.024118852 0.26799893 -0.018216219 -0.22087955 -0.17409422 -0.30703476 0.2951187 -0.20535903 0.16920532 0.558279 0.32029685 0.3497459 0.23139639 -0.03585565 0.53987294 -0.20394905 -0.12338346 -0.62502 0.24852747 -0.32885948 0.5990661 -0.24318464 -0.042755652 -0.306597 0.3068365 0.6149102 -0.10799141 0.014969069 0.22150959 -0.30386245 0.031163158 -0.39589202 0.1701079 0.54221386 -0.5859008 0.020201612 -0.46268073 -0.35554355 -0.19423854 0.34548786 -0.2127127 0.14287809 0.14654581 -0.32961783 -0.21950968 -0.05664732 -0.44763044 0.13931412 0.19468006 -0.1307392 -0.550293 -0.18045023 -0.022684272 -0.114042126 0.4297268 0.050902683 0.06419084 -0.23852868 -0.26697034
your -0.17049065 -0.13829938 -0.03319721 -0.17433809 0.24804588 0.12733017 0.17594051 -0.031151218 -0.1625124 -0.29475224 0.06297162 0.23491095 -0.22850733 0.12553112 -0.063602746 0.1378953 -0.056377444 -0.016400034 -0.14203757 -0.15478076 -0.1849466 -0.28840065 0.16106138 0.1376521 0.057619277 0.3278442 0.21900195 0.1278644 -0.29406908 -0.17232057 0.14819576 -0.2569613 -0.077951014 -0.14210118 -0.23122142 -0.15554936 -0.044625968 -0.09199639 0.24634406 0.06433444 -0.26228237 -0.09497958 -0.005690116 0.1530787 0.18499066 0.23377068 -0.2605029 0.052223217 0.0035234324 -0.041803833 0.2313507 0.19184065 0.009123026 -0.11181468 0.1439083 0.21037848 0.043149393 -0.18215801 -0.1478743 -0.1571623 0.07323814 0.1685958 0.24286798 -0.10448435 0.16939089 -0.03776797 0.07622172 0.21581051 -0.10062528 -0.18466406 0.040826578 0.17571697 0.10311968 0.114247605 0.3497723 -0.1254405 0.2350371 -0.03378087 0.17686786 0.16850655 0.11528257 0.30638444 -0.16827852 -0.12412059 0.22381131 0.13013053 0.099499755 -0.12712009 -0.33032608 -0.03782217 0.13427699 -0.14601631 0.21748327 0.047774326 0.15929578 0.235902 0.11729559 0.082753584 0.043748762 0.09511359
http -0.39221638 -0.07519613 0.37174764 0.22620577 -0.09346251 -0.07123097 -0.20344754 0.09112013 -0.36562982 0.24336657 -0.2162268 -0.26223576 0.22109042 0.39270207 0.11293423 -0.29997835 -0.27366015 0.30952647 -0.14283396 0.0018439551 0.122194305 -0.59927535 0.24316609 0.114357986 0.115619086 -0.2961691 -0.23342733 0.0022402843 0.1471505 0.30549017 0.26212505 0.08956176 0.2850094 -0.04360954 -0.032946106 0.07920928 -0.09555219 0.123796925 0.06245051 0.14509916 0.075936146 0.014335694 -0.10416405 -0.43277946 0.017461943 -0.11779902 -0.28050393 0.04156296 -0.08024907 -0.23946024 0.07570309 0.19642085 0.29178143 0.23104057 -0.16160476 0.477392 0.023363814 0.30406582 -0.4880083 0.034210168 -0.108619794 0.007992429 -0.07909612 -0.20259936 0.24982153 0.35022122 0.49856243 -0.105392896 -0.123183705 0.022447295 -0.39201605 -0.3248964 0.1446186 0.4877461 0.46920678 -0.5002046 -0.18078217 -0.25991926 -0.17977181 -0.113859385 0.24579102 -0.097012065 0.2736524 0.07275259 0.020837765 -0.23310772 0.20558783 0.02399129 0.04041574 -0.15809299 -0.09454943 -0.24881366 -0.17185967 -0.122294515 -0.10511371 0.3261973 0.08397536 -0.417324 -0.008078872 -0.081945844
carrieunderwood -0.25508958 -0.039375912 -0.31501442 -0.3681423 -0.2462416 0.21602218 0.3805921 0.10088946 -0.10722814 -0.051197913 -0.054946683 0.06984037 -0.2157851 0.043874886 -0.19886813 0.25752282 -0.017057007 -0.050276507 -0.2759245 -0.083435446 -0.20521255 -0.05393592 -0.033916574 0.3756117 -0.10034669 0.21119478 0.10451292 0.19629362 -0.18258117 -0.17336743 0.20810671 -0.088888995 -0.28864273 -0.13876475 -0.22631848 -0.19692224 -0.23947568 0.11126443 0.009918592 0.12912783 -0.16541308 -0.052383337 -0.1884453 -0.089655116 0.18720394 0.08424227 -0.015600931 0.12799425 0.05708645 -0.18774728 0.019373657 0.122961 -0.029992642 -0.23479302 0.1093407 0.06949151 0.24171706 -0.047392026 0.07655147 -0.26591286 0.2518969 0.10749519 0.106300004 0.018267335 0.31793907 0.23388451 -0.06277616 0.13271153 0.010307169 -0.14506698 0.16469009 0.0819632 0.12227737 0.054320205 -0.023283849 -0.17704888 0.051427312 -0.023010379 0.041262884 -0.009467214 -0.0027696956 -0.10807824 -0.22309463 -0.13208891 0.1768076 0.13769487 0.13759664 -0.073129974 -0.122044176 -0.023682429 0.17870195 0.044212796 0.17582184 0.08350856 0.2911118 0.14795877 0.19337316 -0.0629762 0.12241143 0.15040721
in -0.16587888 -0.27612904 0.013310321 -0.04433249 0.21754403 0.09480107 0.23859012 0.0722466 -0.014795148 -0.2755455 0.20721461 0.25681508 -0.091724895 0.12854813 -0.16439974 0.22297755 -0.057696186 -0.16937569 -0.16507295 -0.052158277 -0.14371414 -0.1649961 0.06546067 0.0741124 3.23297e-05 0.01743838 0.1224813 0.045244377 -0.2988757 -0.15903193 0.07413406 -0.21287656 -0.2225715 -0.16558199 -0.12490412 -0.057352487 -0.0723013 -0.08575573 0.19075632 0.0681961 -0.18369976 -0.091280736 -0.27143124 -0.106743716 0.19175144 0.17289564 -0.28775755 0.02100266 0.08357883 0.04835556 0.14639364 0.041252468 -0.07896083 -0.14211342 -0.0043328456 0.060802817 0.164669 -0.2649324 -0.3049848 0.004567894 0.106544636 0.2939717 0.05374666 -0.022196682 0.2251451 -0.07702895 0.16003811 -0.0044700825 -0.04323431 -0.17324442 0.048364963 0.23108014 -0.10559982 0.06519774 0.09986645 -0.14034782 0.17637883 -0.05382938 0.117107846 0.08808637 -0.017251452 0.07919449 -0.15906395 -0.09610719 0.06999787 0.021666829 0.027235987 -0.23055205 -0.14192416 0.02765766 0.1779503 -0.17924987 0.14641301 0.06523557 0.14689234 0.13141653 0.1160397 0.114882305 0.10552351 0.21057919
with -0.02383453 -0.067257024 0.07324229 -0.25005168 0.1887705 0.012863403 0.020729186 0.09267123 -0.1146906 -0.25499055 0.033908866 0.19603072 0.011319989 0.17033093 -0.2856177 0.054278664 -0.24204642 -0.24083239 -0.007651735 -0.2528007 -0.16157196 -0.14565036 0.027757961 0.004255633 -0.115413226 -0.10727475 0.27645668 0.01681811 -0.023202727 -0.06643619 -0.014407318 -0.16915391 -0.08564972 -0.08239978 -0.15357652 0.02725752 0.036861822 0.094316 0.10959428 0.119895734 0.008429569 -0.04788359 -0.15628324 0.17020628 0.06268623 0.13779122 -0.20841236 0.1615836 0.1680666 -0.097967185 0.21840242 0.069111325 0.049607914 -0.064525664 0.20026459 -0.016641768 0.08897357 -0.14225073 -0.089390226 -0.057293113 -0.08747308 0.15176725 0.075978115 0.079088755 -0.058800597 0.22074917 -0.019032165 0.081324056 0.07568122 -0.1620814 -0.05158852 0.28770375 0.011573005 0.07167578 0.05461105 -0.02172743 0.10574774 0.057078347 -0.038083605 0.22508076 0.033567306 -0.033402007 -0.11401649 -0.004732933 0.13676837 -0.026631176 0.06916619 0.05650266 -0.0075982553 -0.04344302 0.12565757 -0.0218546 0.21749638 -0.21060061 -0.0011055314 0.07005668 0.07849027 -0.049582817 0.19491598 0.17315204
ladygaga -0.108298875 0.024125678 -0.35644498 -0.26761156 -0.15502615 0.2177606 0.2817158 0.0953718 -0.05816329 -0.024621345 -0.086316064 0.014088355 -0.34729162 0.06532027 -0.074478656 0.23613437 0.19851947 0.22771116 -0.27090228 0.05699571 -0.27391046 0.033326972 0.14670676 0.2745609 -0.025819344 0.2850563 0.1461485 0.26888102 -0.23538564 -0.15098672 0.101440504 -0.065192595 0.0018162038 -0.20986642 -0.18079941 -0.21742383 -0.26334143 0.09119386 0.118118905 0.00020258903 -0.17099182 -0.116084285 -0.19443919 -0.20166098 0.24402969 0.100749515 -0.13583831 0.07526001 0.104555055 -0.29776427 0.006551683 0.14692894 -0.22297473 0.019246496 0.2652588 0.13040374 0.27164897 -0.072747104 0.08428264 -0.3204633 0.22727792 -0.023304941 0.32473823 -0.108229496 0.29233706 0.042059917 0.009249628 0.19108717 -0.1805253 -0.14551668 0.06723529 0.008578861 0.20316829 0.116409935 0.08299198 -0.11304588 0.19053859 -0.14379336 -0.008027231 0.10662674 -0.16037819 0.01826579 -0.15442961 -0.34233558 0.17954077 0.25455868 0.26729164 0.10844328 -0.2860314 -0.3102606 0.079066016 0.10927839 0.3048573 -0.131962 0.34584144 0.28186223 0.25788796 -0.023981312 0.18735653 0.17032103
me -0.060564514 -0.0731194 0.091830306 -0.10054518 0.1827814 0.052156176 0.10478323 0.094406694 -0.05525675 -0.160663 0.08021285 0.15465637 -0.112930946 0.08786985 -0.23968196 0.07113975 -0.17423569 -0.030885903 -0.008317168 -0.14515448 -0.023009136 -0.08083577 -0.003467238 0.072415695 -0.030765666 -0.014679801 0.16230519 0.09672503 -0.036755465 -0.18615425 0.053765733 -0.15290205 -0.20279631 -0.12540331 -0.06630772 -0.08010819 -0.05386536 0.13841349 0.18966796 0.113796234 -0.03227685 -0.032360073 0.062450424 0.136991 0.04958988 0.13214238 -0.27207643 0.11769101 0.0908675 -0.063449815 0.16291608 -0.016352555 0.07024007 -0.2015769 -0.050873585 0.07096232 0.021677833 -0.04088403 -0.16755314 -0.05887282 -0.042986613 0.15652496 0.045613535 0.020866038 -0.0048933886 -0.03200286 0.17554703 -0.059691798 -0.0694427 -0.13164152 0.07611955 0.22821856 -0.09938102 0.024366284 0.078794666 -0.045663763 0.13589446 -0.039903037 0.085382126 0.20255096 0.060302004 -0.05671771 -0.043900464 -0.0439476 0.07349918 -0.027048616 0.06818481 -0.0145875355 -0.028935453 0.03714491 0.15888777 -0.15051393 0.08584556 -0.11153324 0.075629115 0.058974955 0.12535267 -0.13848765 0.13625917 0.06635229
but -0.08952929 -0.16410907 0.02086182 -0.18500058 0.06890064 0.055680886 0.15635906 0.0539152 0.009075155 -0.16668308 0.12722738 0.101714395 -0.10416553 0.13358578 -0.13637602 0.047450878 -0.18175612 -0.07529677 -0.056316026 -0.14401086 -0.080513515 -0.192433 -0.024183193 0.10009568 0.16561529 0.031773638 0.13880903 0.04813862 -0.006902463 -0.0124790305 -0.010253853 -0.1277551 -0.21603283 -0.07580649 -0.24170576 -0.103031136 0.012607785 0.037021197 0.10452633 0.099510804 -0.010126178 -0.055838715 -0.012357331 0.19238783 0.025066435 0.111363836 -0.15520942 0.1521601 0.14840305 -0.018510742 0.1521807 -0.035474766 0.028462272 -0.1115874 0.079828724 0.061468642 -0.048738178 -0.047237903 -0.039438765 -0.03567516 0.056313112 0.09016363 0.069280766 0.056865457 0.020144295 0.1547859 0.028622227 0.07314851 -0.020593608 -0.10483456 -0.12793982 0.16007614 0.045875434 -0.00090935983 0.09183819 -0.0768986 -0.034116134 0.08842596 -0.05037349 0.20290753 0.14161582 0.037558034 -0.03986659 -0.04817819 -0.002965314 0.11936569 0.17381413 -0.089156434 -0.04483365 -0.086503245 0.1210432 -0.019805223 0.08569575 -0.032351635 0.030612081 0.13167767 0.052795585 0.04270771 0.069385126 0.07983296
this -0.18286042 -0.05196027 -0.012790587 -0.16686307 0.14114201 0.06831458 0.036207188 0.014858589 -0.0121730445 -0.030634658 0.12033111 0.04814663 -0.031902954 0.13838284 -0.1182365 0.030746777 -0.09125649 0.005119171 -0.07451586 -0.13790871 -0.17413345 -0.12070891 0.14859796 0.044785943 -0.06920828 0.019420931 0.04416944 0.021025937 -0.069267385 -0.086999744 0.042487323 -0.07627986 0.019822445 -0.08130139 -0.066744894 -0.08707841 -0.056770544 0.095307395 -0.010348072 0.09981735 -0.12620676 -0.05131337 0.041453205 0.020628672 0.15087992 0.1631432 -0.07791369 0.16691183 -0.0037100366 -0.08569591 0.130002 0.06787597 0.06690131 -0.054841056 0.12258744 0.03935619 0.03553121 -0.09473453 -0.017628301 -0.05816828 0.08789176 0.07782785 0.09996095 -0.016153758 0.019188587 0.1781565 0.036163557 -0.019702872 -0.037951864 -0.10532098 -0.02820951 0.034948513 0.026456289 0.021887003 0.13287774 -0.047062084 0.026280513 -0.078743085 -0.008290406 0.053209245 -0.0041342555 0.069005825 -0.1182437 -0.1025279 0.08690596 0.07459562 0.06224013 -0.060771577 -0.12381535 -0.05752023 0.016015723 0.06029497 0.15326816 0.074410245 0.087734535 0.009181317 0.053935803 0.15353224 0.06547505 -0.018008258
of -0.03995709 -0.18425336 0.030739246 -0.09089071 0.07949208 0.0924924 0.13782448 0.21144176 -0.11680813 -0.13088693 0.1657804 0.2410061 -0.12195193 0.103576384 -0.18538791 0.21614026 0.08293462 -0.226673 -0.037410166 -0.07079716 -0.07408953 -0.102346405 0.1518957 0.13623317 -0.038525492 0.058322616 0.25987706 0.09844265 -0.1940543 -0.08134227 0.19838294 -0.19004938 -0.09169015 -0.14452708 -0.13552083 -0.066032946 -0.053958613 0.19410157 0.12859643 0.07823395 -0.13164194 -0.12659296 -0.23718154 0.1101723 0.0529689 0.119269736 -0.029007865 0.0311578 0.10519438 -0.15397333 0.18684533 0.061031282 0.058212087 -0.23107839 0.12350775 0.09282364 0.19801757 -0.07729711 -0.16796274 -0.1125196 0.045198105 0.17834106 0.18136868 -0.105056144 0.03077751 0.10981316 0.09524175 0.10975199 -0.114975214 -0.15086308 -0.03900093 0.1841837 0.0009960041 0.052202426 0.09491346 -0.21149899 0.2555445 -0.16707323 0.1928595 0.12567742 -0.06304449 0.07201551 -0.081306756 -0.04365665 0.041815367 0.05979162 0.0028527172 -0.18101245 -0.16594595 -0.086746566 0.12902187 -0.31211388 0.16249229 -0.031848773 0.1319677 0.12779595 0.12133258 -0.03378209 0.011363022 0.12782817
it -0.04928403 -0.06078964 0.061918367 0.0075124553 0.03289617 0.05346819 -0.051422633 0.085167095 0.034652412 -0.05925032 0.0136491535 0.11606506 -0.024614356 0.10644151 -0.050737597 -0.08652923 -0.120322555 -0.090479955 -0.008086578 -0.032917984 0.07202256 -0.007891409 0.05255363 -0.09386759 -0.16851722 0.08057569 0.086805664 -0.03303655 -0.018548055 0.047272157 -0.018409064 0.007253057 -0.059817914 -0.02454828 -0.057674866 -0.10770479 -0.040976066 0.13994625 0.050938893 0.11931915 -0.022866517 0.024501512 -0.024389429 0.05601514 -0.057258066 0.10498876 -0.096005395 0.0051437058 0.1022299 0.07979589 0.0100541925 -0.0052256063 0.03902001 -0.06540331 -0.014722936 -0.0077715754 0.057938706 -0.046934333 0.009516368 -0.045090914 0.055344604 0.12843254 0.060714588 -0.01606424 -0.08076073 -0.10527211 0.011701719 -0.051356353 -0.032948952 -0.117795736 -0.0750273 0.083888456 -0.15099117 0.087300576 0.02947135 0.017966632 0.04793443 0.085989 0.03940583 0.07307732 0.061904993 0.002401193 -0.078279115 -0.006826966 -0.034432415 0.02448412 0.09778385 -0.07473265 -0.06591007 0.03713396 0.15228017 -0.072567336 0.00601284 -0.06474403 0.059807893 0.0058853407 0.010161518 -0.025589747 0.021760223 0.06710479
be -0.1759263 -0.18169898 0.05561265 -0.22481579 0.059838906 0.06221721 0.021664834 0.056532506 -0.044820424 -0.19079676 0.20602836 0.2557069 -0.122260556 0.17814887 -0.14222951 0.0064623384 -0.16599092 0.0016427373 -0.0829295 -0.097013734 -0.13246955 -0.16041175 0.19847739 0.15925564 -0.009439032 0.060654737 0.29773986 0.0187649 -0.062870495 -0.16866949 -0.00039075 -0.18506478 -0.12189618 -0.13564391 -0.042874157 -0.09110763 -0.11144233 0.09494788 0.19237348 0.27997053 -0.0016617692 -0.093322374 0.0048513957 -0.0051770145 0.11529032 0.19810228 -0.24377258 0.19249098 0.07066687 -0.17995162 0.17613496 0.026968017 -0.00644128 -0.2626141 0.13729373 0.24745317 0.11265757 -0.107902154 -0.12837921 -0.11784475 0.25775915 0.20569009 0.14926717 0.04006401 -0.053923625 -0.0207872 0.13502094 -0.0353799 0.051787224 -0.25733382 -0.093839265 0.21636513 -0.064152375 0.16718046 0.22016355 -0.23542337 -0.06287667 -0.08164939 0.1053894 0.27524158 -0.14830899 0.09803342 -0.16726786 -0.10177581 0.12298653 -0.028147649 0.13234647 -0.1741144 -0.19319107 -0.07657416 0.22232766 -0.11280458 0.1863885 0.018508622 0.123138994 -0.022379411 0.047975175 -0.0048743514 0.068152525 0.086989015
have -0.018117687 -0.047729436 -0.047444806 -0.07934193 0.086375065 -0.0049764146 0.067186624 0.021314336 -0.06438655 -0.05882769 0.061122224 0.004864861 -0.01143722 0.010182116 -0.053374995 0.04767315 -0.02656921 -0.041673824 -0.10048715 -0.12706879 -0.07871286 -0.15462586 0.013536938 0.19213738 -0.13363454 0.042476363 0.1627902 -0.040760186 -0.018153485 -0.102019325 0.030756604 -0.13419797 -0.09718459 -0.052107673 -0.044097185 -0.07360376 -0.07062376 0.106582545 0.003495215 0.041598096 -0.10244651 -0.08095769 0.018892497 0.118441045 0.04844755 0.12339071 -0.10012293 0.061953813 0.08282123 -0.012970621 0.0067896587 0.11349439 -0.0478925 -0.16489337 0.005546412 -0.04153363 0.0516084 -0.09846961 -0.11231954 -0.15472825 0.05420595 0.037744425 0.07175834 -0.045096323 -0.040679857 0.11560602 0.047742564 0.094368465 -0.044742987 -0.12873033 0.014390963 0.058506247 -0.044029087 0.07565447 0.043750785 -0.0035151285 0.03900573 -0.07064821 0.00867902 0.20973714 -0.02572792 0.0175551 -0.0101147285 -0.045609653 0.08100107 0.11081213 0.06085716 0.04500908 -0.078189604 -0.057010375 -0.04452825 -0.0287274 0.088199794 0.14022818 0.050102007 -0.00072559464 0.07650338 0.056038894 0.029475108 -0.033505436
all 0.04746018 -0.25212365 0.022563174 -0.07320155 -0.10798921 0.06801561 0.047164593 0.07638608 0.14619012 -0.15691432 0.063521266 0.2400265 -0.07992514 0.1883392 -0.17140329 0.069606185 -0.03245339 -0.16532251 -0.054566126 -0.1505665 -0.116189405 -0.17973301 0.080186985 0.052748177 -0.0035109066 0.054261073 0.17966269 -0.0127518345 -0.13863243 -0.07493849 0.03586875 -0.19063939 -0.12251037 -0.031493302 -0.31695658 -0.16902302 -0.002482847 0.095577456 0.13569066 0.19279449 -0.031463306 0.01936206 -0.15863329 0.124266684 -0.015683696 0.16613694 -0.22881328 0.12750752 0.13849878 -0.16158079 0.07497634 0.013429168 -0.011951138 -0.17635775 0.15541421 0.10520871 0.090245835 -0.10552646 0.10717347 -0.08050924 0.021479674 0.086700305 0.11991316 -0.17475863 0.09058121 0.25975928 0.032627407 0.1078473 -0.1282232 -0.20157406 -0.029005013 0.22964647 0.13667522 -0.07084555 0.029199991 -0.16594616 0.1718181 -0.1565146 0.12118077 0.11451484 -0.05547344 -0.13982195 -0.04886105 -0.14250205 0.034501255 0.11433234 0.23824668 0.015733767 -0.10160388 -0.117447846 0.30750644 -0.07267357 0.03350594 -0.08386531 0.052825235 0.160483 0.055432133 -0.03511576 0.07300201 0.25521636
from -0.06529012 -0.033546273 -0.062086705 -0.2397603 0.16982575 0.108212635 0.187658 0.11040413 -0.06484404 -0.17228448 0.04336496 0.18494743 -0.12987627 0.18035764 -0.0982134 0.06433071 -0.03396276 0.04286156 -0.108019 -0.17202201 0.06346122 -0.055094842 0.2048466 0.013284897 -0.027852299 0.014635901 0.2057511 0.15365684 -0.086164415 -0.14324464 0.12744793 -0.16921258 -0.16745333 -0.090782605 0.049658164 -0.017541751 -0.050611153 0.098807946 0.26386672 0.027112912 -0.06355591 -0.22014269 -0.07868931 -0.059041396 0.077600144 0.13207299 -0.089132085 0.16706608 0.119968675 -0.037824858 0.09246809 0.29743952 -0.035549402 -0.102080256 0.14757504 0.14117455 0.16390626 -0.15673071 -0.14938319 -0.20460498 0.08282917 0.09414242 0.112245865 0.07085692 0.07213557 0.018970113 0.20581616 -0.017059611 -0.106723994 -0.2062375 0.106009245 0.2035252 0.08313741 0.13306658 0.2598561 -0.14286228 0.044755563 -0.16413577 0.26062924 0.06372271 0.080018885 0.10054506 -0.074064985 -0.033145964 0.07905499 0.013019855 0.18997152 -0.17691179 -0.028369969 -0.032678325 0.025549138 -0.09837655 0.17805457 -0.01536047 -0.016165862 0.15719332 0.13037954 -0.15477867 0.04022694 0.12667291
are -0.017982744 -0.004633198 -0.05488658 -0.07019152 -0.007401607 0.087252595 0.12007647 0.060414214 -0.026656182 -0.026386485 -0.059553646 -0.0066697523 -0.09870324 -0.020736132 -0.018056687 0.0024400875 -0.07362371 -0.065190166 -0.053414803 -0.00087437994 -0.061182685 -0.09572908 0.053440124 0.10259311 0.001645746 0.05122869 0.118434995 0.06065259 -0.08751084 -0.012524389 0.06502685 0.016044082 -0.06837449 -0.1020752 -0.14224343 -0.102586046 -0.08532204 0.05056017 0.092351295 0.06815086 -0.045594666 0.042570736 0.014837066 0.082221135 0.02324906 0.025473285 -0.17276019 0.0023310324 0.029240046 -0.10517002 -0.0030018024 0.06653023 -0.05114378 -0.097909376 0.113435365 -0.013300279 0.076391235 -0.040711973 0.07627507 -0.030772697 -0.005834386 0.012510049 0.027487665 0.053925 0.118734576 0.037735663 0.067263305 0.016928524 -0.006462457 -0.12614858 0.028493617 0.024040563 0.03838069 0.06425165 -0.0415457 0.02020433 0.1387004 0.0185972 0.10219555 0.0014436054 -0.017980183 -0.011043997 -0.043093316 -0.1012388 -0.024707947 -0.01772149 0.12460432 -0.006941591 -0.06787233 -0.070951164 0.07946053 -0.037109453 0.060649488 -0.044117745 0.14064534 0.09638311 0.17247666 -0.046517737 0.031379547 0.07058658
flights -0.09100579 -0.048432317 -0.010002482 -0.18903328 0.09469455 0.1091641 0.17806888 0.09736298 -0.14195366 -0.16607128 0.14137547 0.122211576 -0.13744387 0.14763312 -0.014433681 0.19901353 -0.06344155 0.06845324 -0.17241581 -0.23313381 0.0008856064 -0.09434195 0.10336824 0.090599835 0.044470526 0.004250197 0.15084788 0.147958 -0.02629733 -0.11763557 0.07613737 -0.10149915 -0.039960664 -0.19130263 -0.046037093 -0.12637311 -0.23537628 0.0077733994 0.15089048 0.08785786 0.107864186 -0.14531493 -0.008627935 -0.11404298 0.11292113 0.18071182 -0.0289354 0.06340836 0.036282416 -0.1539127 0.10395888 0.11240735 -0.055278372 -0.08455306 0.24921338 0.15603197 0.089669414 -0.055285912 -0.06395477 -0.21169475 0.03818619 0.021945149 0.12598445 -0.037124284 0.07819781 0.003949913 0.058227617 0.10112476 -0.19070376 -0.091557756 0.087057754 0.17721085 -0.040490776 0.20240146 0.06749314 -0.10491011 0.054041147 -0.122237034 0.162804 0.03054187 0.064280465 0.057725515 -0.12662 -0.16402987 0.13178708 0.04506689 0.09448745 -0.12776358 -0.099514246 0.007993198 0.04740279 -0.029197713 0.12826581 0.060968082 0.0900501 0.058017693 0.07463253 0.0903698 0.18658395 -0.021847386
what -0.025477458 -0.038702775 0.055883538 -0.09503048 0.07457384 -0.024250587 -0.02213273 0.033264454 0.03136335 -0.0102984365 -0.013159851 -0.0013667708 -0.046523884 -0.0059285956 -0.039356805 0.00096966885 -0.031746596 -0.030187996 -0.0037921036 -0.019202828 -0.038475454 0.03428464 -0.0012046658 0.0149218645 0.041370112 0.089843884 -0.013676077 0.048376143 0.010941077 -0.03397419 -0.03297396 -0.010830005 -0.049024012 -0.003179087 -0.0022629816 0.05766613 -0.039317243 -0.064331636 -0.06861088 0.012281927 0.00819134 -0.058577973 0.0040261564 0.014442307 0.01969639 0.015083382 -0.115708694 -0.012427331 0.06776488 -0.051942766 -0.026718954 -0.019094387 0.10585154 -0.006122855 0.06665968 -0.0724687 0.031135798 -0.016795723 0.11246148 -0.0036110356 0.0053223856 0.06070506 -0.08501573 0.057529457 -0.0070980145 0.022729317 -0.057075977 -0.05419336 -0.055077706 -0.03678853 0.010434671 0.0020988428 0.026661882 0.004139005 0.06990784 0.09631575 0.04230175 0.050044764 -0.055544447 -0.0022823943 -0.0075570997 -0.045804273 0.028274462 -0.034077298 0.056961022 -0.005940929 0.008066686 -0.02669022 -0.07507268 -0.02952086 -0.011036016 0.029129393 0.0044380063 0.13755164 -0.0124601945 0.017208306 0.059755553 -0.032713108 0.07514612 0.067408845
about -0.0633193 -0.1236347 0.0077697597 -0.026455263 0.054028224 0.061436355 0.055511184 0.014906321 -0.06464249 -0.19956288 0.10544895 0.2598284 -0.056618873 0.16689086 -0.015173575 0.0016152522 -0.10268898 -0.052474447 -0.056361772 -0.072987325 -0.075099595 -0.12184383 0.06277687 0.07167401 0.03642587 0.097277485 0.12942901 0.0892624 0.026859183 -0.13616355 -0.051829036 -0.12314575 -0.11991345 -0.11652053 -0.17090166 -0.060893428 -0.034798004 0.044382107 0.16205955 0.07831924 -0.0073806792 -0.10789165 -0.17010148 0.031825226 0.014439264 0.14413817 -0.10622837 0.11617593 0.13991356 0.031115217 0.045790035 0.03318746 0.062972784 -0.09798016 0.0049923575 0.10866853 0.05057474 -0.10798825 -0.109102346 -0.035653107 0.09002582 0.03716327 0.11287777 0.009039159 0.046190057 0.0096406415 0.1441857 0.03640136 -0.123220034 -0.18253195 -0.03492047 0.20431404 -0.04663156 0.032073982 0.12756108 -0.16005386 -0.037901625 -0.116176724 0.15281661 0.08620406 0.1032047 0.049348403 -0.096705355 -0.021086706 0.06106132 -0.022140514 0.0067853685 -0.09337548 -0.014684103 -0.0071693473 0.13351841 0.023723336 0.09345864 0.052824482 0.07665647 -0.018665873 0.018582925 -0.043079294 0.10431502 0.18440418
time -0.065734886 -0.123621 -0.038662665 0.011036576 0.1156415 -0.044183683 0.10668176 0.0335149 0.029195918 -0.15755995 0.055754855 0.1444831 -0.058500066 0.05426016 -0.07737929 0.003368829 -0.12806506 -0.12620902 -0.06647738 0.018051978 -0.13705514 -0.029308284 -0.042879596 0.018060917 -0.0991862 -0.020977393 0.06252831 0.008747744 -0.056369334 -0.06837138 0.07534254 -0.12997979 -0.015585881 0.024352247 -0.0551104 -0.017668756 -0.004156269 0.097474284 0.11041946 -0.020868983 -0.0739024 -0.0013840161 -0.16911334 0.09688189 0.08424907 0.06760175 0.021618407 0.092195086 0.018699639 0.024806822 0.09872188 0.012255059 -0.05893734 -0.10699186 0.020684091 0.016933737 0.03875822 -0.087107584 -0.11662795 0.050424185 -0.021990862 0.060900487 0.02823325 0.067762405 -0.0050753937 0.0005846451 0.07461354 0.052252624 0.00058832153 -0.09805531 -0.07747458 0.14707083 -0.043518916 -0.012767615 0.045598697 -0.0811627 0.05871077 0.09646943 0.014833767 0.0066287923 -0.0116814375 0.09974095 0.049185544 -0.069472 0.10288306 0.024707474 0.043668084 0.019481404 -0.026176492 0.020087373 0.10600318 -0.078126304 -0.012037549 -0.07606378 0.13709691 0.09873303 -0.008001034 -0.050781813 0.030892404 0.016689176
do -0.022213994 -0.049802005 0.0057421746 -0.0689013 0.063573346 -0.056149427 -0.06460788 -0.04850733 0.085577 -0.0121147605 -0.0021842485 -0.08292564 0.011082462 0.20470078 -0.18580802 -0.0711403 -0.06925853 -0.19968024 -0.006922241 -0.11014117 0.018095493 -0.06545433 -0.02043564 -0.041206356 -0.0137082245 -0.10068159 0.091658756 -0.094010875 0.17889315 -0.009279161 -0.07671329 -0.08654243 0.063038215 -0.011670735 -0.15586017 0.09111334 -0.06808885 0.10019631 0.017373815 0.14606103 0.08691123 0.034164608 0.15060681 0.1467734 0.005863503 0.04420353 -0.015621963 0.08705154 0.17841944 -0.055634767 0.18757841 -0.06557925 0.11311121 -0.056572985 0.12527181 0.13474853 -0.07313508 -0.071984224 0.053744033 -0.06915379 -0.15955631 -0.0996092 -0.039273806 -0.06277037 -0.0080799665 0.1773574 0.04242837 2.6617548e-05 0.037200276 -0.05504541 -0.048996914 0.12405237 -0.025250036 -0.0083456645 0.08428638 -0.0522561 -0.03600616 0.11880058 -0.09317304 0.17721978 0.094940275 -0.055442248 0.054365747 -0.029590307 0.07624904 0.05240712 -0.040800788 0.085783094 0.02861316 -0.024305277 0.04930695 0.0015857264 -0.0071892045 0.0031004124 -0.034361303 -0.105796486 -0.006280833 0.10290394 -0.038850024 -0.13712299
know 0.08396952 -0.13327476 -0.121600665 -0.081444785 0.04489114 0.045082357 -0.061448056 0.11285556 -0.042821594 -0.032110333 -0.01823693 0.0035315084 -0.02098754 0.07665046 -0.11043112 -0.014329182 -0.06368299 -0.12750354 -0.014111174 -0.044694588 -0.091666244 -0.03967015 0.02626229 0.054715298 -0.0077282186 0.030396648 0.11718542 0.005920533 0.11787208 -0.016844379 -0.10301864 -0.071918614 -0.07889131 -0.0021420952 -0.13701127 0.014872297 -0.07397592 0.08397733 0.010964508 0.019842803 -0.009416741 0.09741459 0.0261252 0.049567297 0.07906455 0.09108492 -0.109654956 0.060718328 0.09469201 -0.1518231 0.14506726 -0.09498279 0.1271811 0.115885265 0.09986224 -0.16039908 -0.025270062 0.042041942 0.13197714 -0.08541128 -0.026685447 -0.026595041 0.0260825 0.033141177 -0.071078636 0.11711933 -0.0003327979 0.065814696 0.03478303 -0.087583624 -0.015405567 0.118933365 -0.060889587 0.042262495 -0.011709959 0.003014435 0.09151151 0.11972223 -0.10394225 0.15251514 -0.19261666 -0.014289258 -0.07707402 -0.017241031 0.08509095 0.07482129 0.111649394 0.104489855 0.022849314 0.05648029 0.05674946 -0.02516174 0.11101254 -0.096712954 -0.030351028 -0.028654968 0.08198566 -0.005099736 0.06985175 0.0075901817
great -0.061296877 -0.24257746 0.023014046 -0.10927587 0.06677293 0.023511328 0.103446215 -0.018071555 0.045753967 -0.100562885 0.0056112097 0.049494203 -0.033202153 -0.011082357 -0.12384597 0.036701333 -0.06740773 -0.03994156 -0.0067683444 0.086743034 -0.040932573 -0.10189043 -0.08559932 0.01443251 0.011850231 0.15436366 0.1093982 -0.060106978 -0.120317586 -0.034971442 0.004603898 -0.051803365 -0.15875693 -0.01722874 -0.17714724 -0.12061326 -0.019308163 0.031341027 0.08237617 0.11794742 0.00021201454 0.048386186 -0.11745899 0.10754032 -0.010295958 0.09753644 -0.0420254 0.09632114 0.053632908 0.062770344 0.052009907 -0.027817814 -0.1120986 -0.21525472 -0.00041359314 0.15271266 0.01710363 -0.10044498 -0.011190403 0.07254332 -0.058041185 0.14787978 0.032804843 -0.03876856 0.003345351 0.053335954 0.10674215 0.035059016 0.053079087 -0.19197513 0.06811486 0.08806454 -0.062006693 0.030248797 0.039591506 0.043907337 0.054365866 -0.020576233 0.12568812 0.12603955 -0.028558452 0.005538147 0.01925117 -0.05077241 -0.11958198 0.11278456 -0.004837659 -0.08590818 0.025966007 -0.017716395 0.15318446 -0.14711952 0.01590433 0.19891605 0.14114724 0.02723476 0.0037773908 -0.011931201 -0.022358157 0.0033382287
i'm -0.098195754 -0.061728213 -0.084528185 -0.04119304 0.012690253 0.13991855 0.13173285 0.06342557 -0.020868717 -0.0676839 0.020489676 0.103755996 -0.043634534 -0.08385443 0.026102468 0.065890566 -0.02068923 -0.03002472 -0.038711417 -0.025494715 -0.1926397 -0.08270846 0.03734986 0.06906265 -0.05710013 0.05537737 0.08266705 0.114793025 -0.23825975 -0.13212118 0.11176296 -0.110114865 -0.07393474 -0.08728204 -0.07894533 -0.13309383 -0.07736775 -0.0637843 -0.0032224606 0.089260936 -0.12704748 0.018844688 -0.10792549 -0.02334357 0.12638628 -0.00805054 -0.017883291 -0.005278914 0.08472853 -0.10232551 0.09356711 0.10571603 -0.025618594 -0.09043541 0.019325068 -0.046163864 0.02129247 -0.07638744 -0.05000512 -0.097507946 0.1133723 0.001656648 0.1693832 -0.009902964 0.13655193 0.01083548 0.08913409 0.15645786 -0.1490296 -0.058797367 0.0015512172 0.032647796 0.08943628 0.061080724 0.025591344 -0.08955916 0.033604212 0.06389423 0.056847654 0.030504096 0.031084592 -0.010460432 -0.12103851 -0.12748747 0.048259832 0.1551751 0.110707246 -0.07587949 -0.12342837 -0.096282616 0.06863935 -0.080152914 0.0055854255 0.14058073 0.09606854 0.10886057 0.15361804 -0.107360356 0.074653074 0.16242492
lax -0.030302498 -0.07067905 -0.100597985 -0.03927031 0.011452757 0.03847054 0.06635189 -0.011175337 -0.022346646 -0.046032414 0.13044809 0.12210715 -0.0016347914 0.096173756 -0.10528462 0.12784469 -0.008107782 -0.0065249265 0.0015656876 -0.06640404 -0.016016817 -0.1658709 0.07495166 0.06866377 -0.018400831 0.04910352 0.04748481 0.074607335 0.029044645 -0.18413927 0.0022036484 -0.018617427 -0.17959855 -0.12786724 -0.02206505 -0.008913476 -0.00075464265 -0.06541376 0.14514457 -0.03541525 -0.17400146 -0.13801415 -0.0940152 -0.012257836 0.08523571 0.10837074 -0.12670295 -0.05721272 0.18096866 0.042156365 0.12371369 0.07924785 -0.039356582 -0.026480764 0.11598585 0.05359481 0.024135463 -0.20897678 -0.042213436 -0.12534955 0.13651936 0.07562994 0.03441104 0.10589779 0.066407055 -0.06933903 0.04304686 -0.07557683 -0.08378844 -0.11038273 0.10955975 0.14331287 -0.1272094 0.13191698 0.08844695 -0.0041773147 0.09258948 0.02727707 0.12332097 -0.024858166 0.019034155 0.07392065 -0.13535859 0.02316123 0.10121729 0.0406698 0.046934783 -0.14055336 -0.06385833 0.0043690633 0.17242555 -0.0719305 0.14289832 0.009926979 0.08992888 0.17178532 0.112686336 -0.10260414 0.084527 0.0834143
help -0.017753206 -0.029605052 -0.15654564 -0.089434706 -0.03954054 0.07252791 0.0678124 0.10523289 -0.17337316 -0.016035678 -0.014224057 0.14677693 -0.12023232 0.105271794 -0.05470972 0.079805985 -0.0064218044 -0.0757539 -0.040105917 -0.12263231 -0.061165802 0.04316416 0.048462696 0.045040805 -0.016319517 -0.013018835 -0.043831833 0.056001008 -0.064010665 -0.054923173 0.07181288 -0.053832714 0.011474827 -0.02026099 -0.10613294 -0.11074288 -0.11760927 0.10318415 0.14233577 -0.0026025218 -0.00048652722 -0.12953608 0.021325838 0.025987957 0.026773058 -0.05657704 -0.025623439 0.045417123 0.07461436 -0.050949126 0.09459382 0.049596146 0.03040404 -0.06720748 0.09449321 0.040463034 0.016683659 -0.028215181 -0.024509758 -0.017377283 0.068631716 0.037893824 0.027340505 0.0034100802 0.02927848 -0.022441093 0.07374067 0.017904542 -0.014786779 0.070338376 -0.12983553 0.006582506 -0.077244155 0.07075669 0.013792321 -0.079181574 0.061828185 0.0061782994 0.021494137 -0.0036322277 0.0689137 0.05227623 -0.031688917 -0.1007798 0.15413621 0.087122485 -0.0021857608 0.05241762 -0.027217016 -0.044815317 -0.020079277 -0.070237525 0.10976039 0.05894034 0.06065649 0.11418954 0.03178955 0.059701473 0.080277875 0.07099754
no -0.008429861 -0.14620388 -0.0012592243 -0.085837424 0.036499415 0.01820699 0.080652446 0.014954377 -0.020112583 -0.040504888 0.08800776 0.15007566 -0.057451304 0.13980554 -0.12474507 0.023779213 0.015078212 -0.11241402 -0.07848558 -0.18688986 -0.07058009 -0.08612588 -0.022955319 0.057726175 0.024274036 -0.041083924 0.091738604 0.012621335 -0.040465586 -0.1243571 -0.0050485376 -0.1359661 0.045047656 -0.05705503 -0.13781418 0.03452312 0.0012439509 0.10852936 0.03741093 0.17599934 -0.10771762 -0.0057169497 0.13709815 0.048186637 0.06556361 0.12005002 -0.01763181 0.115464166 0.1353806 0.0040229177 0.14768228 -0.07454547 0.14123319 -0.10139795 0.030118251 0.16297923 0.12304188 -0.16088156 -0.06999203 -0.029570416 -0.029066393 -0.011734042 0.043487076 -0.068460986 0.020474305 0.058520705 0.12358832 0.03908767 0.05073008 -0.09632891 -0.006329557 0.13789476 -0.028935404 0.0061049573 0.049737368 -0.07852423 0.028842727 -0.008593793 0.0934875 0.20799962 0.07306892 0.057310518 0.0005036524 -0.12129336 0.15494274 0.030168716 0.026547525 -0.09993563 -0.08027999 -0.052034426 0.01606765 -0.053154368 0.1250299 -0.11376878 0.072979786 0.014984495 0.04156826 -0.06678065 0.0345946 0.056412525
2 -0.11782256 -0.11230697 -0.12144395 -0.088966176 0.084759906 -0.0062599545 0.10717242 0.07818727 -0.03814056 -0.12687922 0.10164294 0.12793909 -0.043835357 0.14672202 -0.13558008 0.10811326 0.003405685 -0.11589328 -0.10596431 -0.07766904 -0.122565985 -0.107111655 0.06644614 0.091544636 -0.041803822 0.08661696 0.13741599 0.050421216 -0.073533796 -0.023077564 0.11825543 -0.080953605 -0.078657284 -0.036168486 -0.03582201 -0.06774549 -0.1688335 -0.004189448 0.11216379 0.077117965 -0.056106027 -0.13025366 -0.17655835 0.06003179 0.021513483 0.13625652 -0.13863376 0.05024987 0.13316558 -0.10359013 0.16589838 0.068371035 -0.20723866 -0.0057597104 -0.014814935 0.13451298 0.13594487 -0.17767473 -0.1377447 -0.016681144 0.12066753 0.07135729 0.092105605 0.07293083 0.105928116 -0.04268072 0.12554936 0.13778934 -0.0015491426 -0.054645807 0.1413603 0.16112015 -0.047507435 0.15165119 0.11479701 -0.16315031 0.0834591 -0.108927324 0.1474929 0.070427336 -0.17969206 0.09512342 -0.21025412 -0.14388484 0.072707966 0.046987273 0.14852375 -0.18493997 -0.08137268 -0.020437654 0.17824459 -0.0052177757 0.12659511 0.058754895 0.06731835 0.182628 0.15354514 -0.039581485 0.053065475 0.07442726
can't -0.059452623 -0.023760322 -0.13570604 -0.06409182 0.056803837 0.075296484 0.0030140576 0.09549083 0.041535817 -0.09914734 -0.01587746 -0.027881542 -0.045936324 0.046292223 -0.09620883 0.06660024 -0.0014092412 -0.038759284 -0.050100435 -0.063110836 -0.058427814 -0.01268712 0.0973365 0.13150662 -0.13268913 0.058939278 0.047963087 0.07627674 0.017920416 0.016852412 -0.0030931006 -0.07515725 0.072643824 -0.061155453 -0.11745662 0.017396133 -0.08484286 0.0183754 -0.0022077295 0.06667726 -0.053327665 0.0013321993 -0.06327972 -0.04823499 0.101280466 -0.014656762 0.015447815 -0.034523528 -0.018851686 -0.10092572 0.026982555 -0.047279954 0.048506197 -0.095577575 0.07120049 -0.042262513 0.054045822 -0.029615289 0.029234085 -0.027294803 0.058752798 0.026335854 0.11421936 0.0059454874 0.018475415 0.023562478 0.013280163 0.04557776 0.0050324406 -0.07851082 -0.0714753 0.049900874 -0.011320158 0.060852233 -0.034072824 0.016741913 0.01955354 -0.0223239 -0.06672686 0.07789407 0.004991419 -0.019570997 -0.12070808 -0.07741243 0.08822782 0.027087763 0.039771147 -0.016985832 -0.046076644 0.0005809878 0.12166528 0.05370623 0.094107375 0.1165568 0.053070936 0.032145888 0.15224732 -0.010590122 0.01600444 0.069300525
can -0.028510395 -0.07585113 0.008771787 -0.08879077 0.11882644 -0.044973463 -0.024537995 -0.031386297 0.0017946195 -0.09380422 0.08968208 0.028622951 -0.103203654 0.14843516 -0.19923376 -0.031496074 -0.011797355 -0.11147304 -0.045111433 -0.13427192 -0.14049588 -0.10272323 0.07433917 0.021302007 0.04702468 -0.016455388 0.19235934 0.107582055 0.0029141414 -0.07193146 -0.06057791 -0.1825349 -0.06499157 -0.081937626 -0.10521919 -0.039997645 -0.17005396 0.15348431 0.07431689 0.039396785 -0.021107677 -0.10330267 -0.15200092 0.11540765 0.115101784 0.07114312 -0.009897303 0.098792575 0.147099 -0.120530084 0.21493284 0.10275774 0.02145092 -0.12766376 0.20820467 0.03321161 0.11353575 -0.0903194 -0.11131444 -0.040325146 -0.056312036 0.07011356 0.14193335 -0.121755116 -0.021804508 0.15747562 0.13819718 0.08902448 -0.0025025161 -0.135581 0.033831574 0.1569293 -0.034003537 0.117560446 0.1465475 -0.1698772 -0.010521107 -0.102064185 0.07349425 0.18362723 -0.062169228 0.040933482 -0.03734825 -0.116405144 0.056417238 0.044981435 -0.004281459 0.02419378 -0.04974938 -0.11896173 0.036951806 0.036913954 0.13179888 -0.051205523 0.12474547 -0.085688576 0.08790092 0.013976946 -0.03556704 -0.027569233
not 0.09584077 -0.18797682 0.0049589067 -0.045240138 -0.02576218 -0.03378628 0.021024646 0.031322382 -0.031262748 -0.13268708 0.10808136 0.17328337 0.026082471 0.18488789 -0.006095953 0.021254262 -0.103990056 -0.123482056 0.026394133 -0.13194223 -0.10302384 -0.06636382 -0.027835386 -0.03631909 0.014608719 0.05008538 0.026580175 -0.01216912 -0.13348189 -0.095613055 -0.036365096 -0.09531563 -0.027314773 -0.0665233 -0.08708865 -0.023343649 0.036199253 0.004259423 -0.031504557 0.09859923 -0.034228824 0.012468164 -0.011192749 -0.06106107 0.06740014 0.116214834 -0.15280622 0.17152357 -0.0037995733 -0.0007575052 0.107295245 -0.022391168 -0.025701635 -0.067896225 -0.044771306 0.036149655 0.010437544 -0.13150197 -0.052108034 0.025419941 0.06997637 0.15149482 0.009589512 -0.08969715 -0.009982562 -0.004424787 0.127414 0.031172412 0.021288767 -0.08129842 -0.13142583 0.03645732 -0.030874444 -0.037946094 0.22731991 -0.063546665 -0.017461825 0.07721057 0.03702044 0.0582994 -0.044292472 -0.008504114 -0.07721353 -0.077438 0.05291568 0.041877467 0.022245737 -0.14699715 -0.07551056 0.05596451 0.14287338 -0.024268212 0.0326062 -0.02293072 0.07158061 -0.031602684 -0.02636192 -0.013612836 -0.013203574 0.18197773
need 0.10078071 0.13333021 0.11151639 -0.0733855 0.060144983 0.014307206 -0.07291578 -0.087607905 0.030686865 0.022594243 0.07630406 0.035083976 0.08566624 0.023126595 0.042560168 0.005892714 -0.009453591 -0.031535365 0.076750025 -0.05059947 0.09421844 0.0790159 -0.012175138 -0.059354223 0.061598536 -0.059901983 0.11887765 -0.09122411 0.06060391 0.052091293 -0.07283951 0.018919531 -0.0975977 -0.056227583 0.066735275 0.045339372 0.09212184 0.023454523 -0.040634222 0.054567754 0.1278776 0.0035712563 0.055231784 0.0040801154 -0.06623728 -0.058510374 0.012898468 -0.03503771 0.018521737 0.007423274 -0.048914537 -0.031237774 -0.01430227 0.08076258 -0.017095003 0.087146595 -0.07332644 -0.02977675 -0.037423164 -0.07858576 0.016698752 0.012047489 -0.08274616 0.01412047 -0.11575432 -0.061661374 0.02464935 -0.026809312 0.06129464 -0.058188632 0.059595015 0.023322348 -0.069035254 -0.04663353 -0.032513347 0.08816544 -0.06949602 0.081890345 -0.022719568 0.07275277 0.047595914 -0.042542584 0.033065517 0.0821914 -0.025319621 -0.031623438 -0.04065206 -0.09402591 0.013824913 0.07159597 0.055833504 0.06660065 -0.041237846 -0.093821816 -0.11968608 -0.06056387 -0.069780424 -0.0663239 0.055736065 -0.041215237
it's -0.003111657 -0.041631296 0.016734939 -0.0095100915 0.09576539 0.06348935 0.009301679 -0.010244584 0.04508523 -0.016720897 0.022027202 0.05989675 0.00055506395 0.031914998 -0.042430174 0.06148274 0.04364717 -0.036031954 -0.0059244186 0.021655198 -0.00037035526 -0.06586669 0.04466263 -0.033535473 -0.13599254 0.06389483 0.03095313 -0.006220048 -0.18938273 0.029028382 0.12196665 0.016990881 -0.14194986 -0.101698555 -0.01786655 -0.09785769 -0.045456734 0.0142758 0.06564964 0.026828878 -0.07487808 0.042712424 -0.025097556 0.009330543 -0.008624535 -0.039356507 0.017997364 -0.03521416 -0.03556192 0.007437198 0.060577795 -0.06707028 -0.09151904 0.004605319 -0.016880587 0.028620496 0.050303996 -0.103454396 -0.08466126 0.021933379 0.073046945 0.111399226 0.08255064 -0.076676995 0.0243412 0.007316511 0.022377903 0.11103469 0.0012967313 -0.04996127 -0.11194752 0.017685479 0.01955761 0.08389447 -0.048884865 -0.05569813 0.14960587 -0.02711371 0.068043284 0.02118444 0.04645647 0.018101202 -0.012004059 -0.056972586 -0.057828736 0.07629681 0.036449187 -0.056404974 -0.06146157 -0.048200212 0.07095562 -0.06337347 0.0017574553 0.049979445 0.14332464 0.075861886 -0.011293534 -0.00803416 0.026908284 0.08049652
that -0.05466587 -0.042661697 0.0053408835 -0.08850243 0.054501355 0.035576567 0.13363548 0.004976499 0.04834556 -0.11562372 0.022680257 0.037074216 -0.04679962 0.017658014 -0.15666036 0.053153414 -0.111461684 -0.06724548 0.028659232 -0.08622226 -0.12776257 -0.04714208 0.07306492 0.10739075 0.020084018 -0.039772585 0.099801615 0.08311285 -0.038926255 -0.14758393 0.09508622 -0.08497033 -0.11611723 -0.07466054 -0.071062654 -0.07205237 0.012669298 0.047806587 0.018792067 0.044900756 -0.07321273 -0.03268169 0.048464034 0.049655627 -0.028345251 0.10773473 -0.1441849 0.10918551 0.04424677 -0.102057084 0.11570355 0.020603793 0.050188996 -0.026252259 -0.012346558 -0.008139553 0.049554422 -0.023107963 -0.02814367 -0.059698094 -0.04049344 0.09318624 0.055099696 -0.019030636 0.086737245 0.09439822 0.0041004196 0.115053155 -0.03713199 -0.055015154 -0.065718696 0.048564006 -0.051504344 0.06659593 0.14224388 0.018923871 0.118217155 0.06560117 0.08401967 0.081426516 -0.12779441 -0.020557217 -0.07811688 -0.0011396692 0.033364244 0.03688945 0.0014438081 0.051892813 -0.07448158 -0.06652601 0.03771588 -0.16535008 0.076887436 -0.05289296 0.09573922 0.0128434915 0.053115655 -0.03615608 0.0866239 0.017704451
flying -0.0046075964 -0.12849487 -0.0325761 0.016632931 -0.03709687 -0.015860043 0.092830144 -0.04687471 -0.019463435 0.011042202 0.045987047 0.026870253 -0.019454306 0.072889306 -0.09965201 0.011004601 -0.12122229 -0.12896767 -0.03328951 -0.08585732 -0.042679843 -0.121456586 -0.05815302 0.07233496 0.0418447 0.07238075 0.08546753 0.012762683 0.023043312 -0.041324742 -0.030104868 0.009038944 -0.137816 -0.03452385 -0.15086266 0.01891409 0.04218856 0.051536463 0.038237873 0.10056939 0.02609848 0.010249679 -0.0876056 0.1310386 0.007658272 0.03627723 -0.076743744 0.20981112 0.11266876 0.027203387 0.07101289 -0.060729723 0.14901686 -0.11832079 0.06986153 -0.058246646 -0.015287096 -0.047216043 0.01828463 -0.019944133 -0.016042734 -0.013258682 0.008492785 0.017644633 -0.012142913 0.10058261 -0.049079746 -0.0008988355 0.071559295 -0.069510415 -0.060402602 0.07732736 -0.092196696 -0.008463962 -0.043253526 0.020338539 -0.021576744 0.016749384 0.04545581 0.12681542 0.093777254 -0.059420213 0.008390215 0.01651299 0.005826137 -0.033363696 -0.011414458 -0.06587768 -0.010866035 0.05282374 0.012954977 -0.049057923 0.022977607 -0.041351087 0.025631791 -0.024802022 0.05695466 0.0035904448 0.016290575 0.052204393
first -0.12405071 -0.09884366 -0.022442607 -0.11062477 -0.03249931 0.049063604 0.09248644 0.041226193 -0.07227914 -0.084774226 0.03927347 0.058148317 -0.13423759 0.034240093 -0.010163509 0.049834438 -0.105833165 -0.100960895 -0.11942886 0.008492738 -0.06373046 -0.06876832 0.025558388 0.03796993 -0.029798103 0.11155747 -0.009532767 0.055429433 -0.030488573 -0.097320974 0.13829604 -0.08220502 -0.10727884 -0.10230504 -0.04287828 -0.05192554 0.028160442 -0.044732966 0.029973442 -0.015276406 -0.09339991 0.002479643 -0.19033444 -0.037832186 -0.025557796 0.07818011 -0.04641777 0.054799818 -0.0087253 -0.04122673 0.04084894 0.040698018 -0.007585183 -0.031665944 0.040924326 -0.048495933 0.07887624 0.0039086617 -0.0025521154 -0.031211503 -0.018509153 -0.04044157 0.095344745 0.04446946 0.07112948 -0.032103017 -0.052224796 0.029202385 -0.03458095 -0.030459248 -0.012237894 0.07527121 0.056997307 0.026338669 0.04844514 -0.018890692 0.10477619 -0.019370897 0.11410978 -0.027259223 0.100629404 0.08793017 -0.07868431 -0.046121135 0.0043727527 0.08519991 0.14177713 -0.07731062 -0.06881114 -0.0489248 0.20863971 -0.06736173 0.053943355 0.08931418 0.11621699 0.12005084 0.055724986 0.0019329633 0.040311188 0.09376409
will -0.07834298 0.04014835 0.039125737 -0.054027155 0.065093555 0.00873001 0.0056489944 0.10208642 0.036710862 -0.03407202 0.035455916 0.06759316 -0.018625451 0.12584145 -0.025189301 0.070524104 -0.10090246 0.038933672 0.008110631 0.038460426 -0.034391977 -0.020841794 0.03644813 0.010475744 0.0055327644 -0.072195254 0.017638456 0.038802557 -0.08272624 0.059308838 0.0418521 0.07288333 0.089994065 -0.055348285 -0.089403495 -0.060172018 -0.12111355 -0.019591855 0.036439337 0.15230532 0.016375689 -0.033759937 -0.16520993 0.014228721 0.033009153 0.10023203 0.031616565 -0.019395007 0.07714494 -0.11879603 0.085705325 0.059079487 0.007388393 0.029503275 0.00080112816 0.1422865 0.10168457 0.024169188 -0.088182524 -0.017611774 0.059414506 0.07531451 0.038016528 -0.06696078 -0.00026511864 0.01614604 0.05523678 0.05237517 -0.03557232 -0.09032017 0.06284647 0.051834352 -0.05337069 0.101190776 0.01748021 -0.04156819 0.068539485 0.062151358 0.07621248 0.10827818 0.043753948 0.094491094 -0.0632219 -0.14615107 -4.8695976e-05 -0.018157056 0.035528574 0.0721016 -0.0067896517 0.012025519 0.020098478 -0.06800873 0.007776525 0.10815622 0.015159972 -0.04178731 -0.0077363895 -0.11205534 0.05621109 0.029541183
just -0.012930414 -0.033295523 -0.088732846 -0.026227757 -0.023880735 -0.053244505 -0.0028188413 -0.04840928 0.0799379 -0.037053477 0.086149506 0.0038142726 -0.07601528 0.04948914 -0.10432649 0.043120638 -0.023072744 -0.007192131 0.016300965 0.0492086 -0.08826124 -0.11216745 -0.042241562 0.0024174638 0.0051676217 0.06817086 0.15531787 0.048597492 -0.10705595 -0.11930698 -0.021626463 -0.10804493 0.04621137 0.02573512 -0.014292323 -0.014956168 -0.120691486 0.04933843 0.071860746 0.03561058 -0.008056455 0.008757937 0.053702682 -0.06716907 0.0969636 0.008440294 0.027667701 -0.024901744 0.09500977 -0.036332663 0.011808539 -0.039139386 0.09808413 -0.09993589 -0.012929099 0.020930495 0.014954466 -0.13310245 -0.102177255 -0.077997684 -0.08517046 0.05756478 0.05133967 0.09917911 -0.02001415 0.15302671 0.0128171295 0.090971865 -0.009365173 -0.057238072 0.0034160942 0.06207147 -0.15794995 0.089629345 0.098981716 -0.046124637 0.022962328 -0.0012306959 0.10001428 0.11332626 0.023646513 0.08772763 0.003751755 -0.10778924 0.053088814 0.1323868 -0.035894286 0.01003204 -0.035926074 -0.028249135 0.025284586 0.02399957 0.07163305 0.09811459 0.07985384 0.037972603 0.015051447 -0.027099228 -0.050452724 0.047394473
elevate 0.12201267 -0.018710421 0.05416433 -0.026095249 -0.0844076 -0.103753366 0.04446377 -0.04364734 0.053607203 -0.060552828 0.01552865 0.2379843 0.02262615 -0.10455419 -0.07430654 -0.019524343 -0.10528392 -0.07587925 -0.028692862 -0.10803183 0.11065454 0.028197667 -0.08356127 -0.02742503 -0.02806062 0.009115521 0.047508985 -0.010513078 0.14061044 -0.044438105 -0.068434104 -0.06983446 -0.08368691 -0.009892004 0.1353182 0.02913671 0.12765339 0.1673694 0.13540283 -0.15704793 0.17552444 -0.13799366 -0.011159267 -0.04693275 0.06498963 -0.019781305 0.10861933 0.1299886 0.0754284 0.10776897 0.03862457 -0.063964784 -0.0007577323 -0.1610556 -0.10307747 0.0023707552 -0.06159015 -0.05072186 -0.12001787 -0.00857171 -0.08156539 -0.040069945 -0.047599338 0.05275289 -0.1692247 -0.15468825 0.17045492 -0.15136182 0.03569268 0.0073931036 0.046134844 0.02785035 -0.12947507 -0.08831331 -0.11624381 -0.112810925 0.104183316 -0.093258865 0.14103127 -0.0038787217 0.17643479 0.014255287 0.010162352 0.0136844525 0.08325329 -0.120832935 -0.123466685 -0.014839399 0.023583183 0.13035315 0.07099342 -0.11199116 0.0920529 -0.08365716 -0.09348673 -0.05508441 -0.101761505 -0.098263584 -0.017755466 -0.16891317
trip 0.012765376 -0.072762445 0.0029714499 -0.046722732 0.029258277 0.026505746 -9.3752926e-05 -0.036454946 -0.06716357 -0.1633377 0.067595325 0.13730274 0.030021563 0.0316332 -0.043901272 0.046393644 -0.029089032 -0.17374799 -0.09616919 -0.06656998 -0.017857302 -0.03963801 0.055217598 0.071832806 0.15966092 -0.025879884 0.06366907 0.01745672 0.022150204 -0.082814425 -0.014325865 -0.09590985 -0.051920008 -0.09217921 0.03740197 -0.099573344 0.037663754 0.06107403 0.04732055 0.026786793 -0.06780796 -0.14193125 -0.07030808 0.09916752 0.14410675 -0.005875648 0.04819372 0.13327807 0.07052747 0.009563255 0.056334462 0.0065534157 -0.10243358 -0.08133896 0.023248011 0.013050902 0.07743279 -0.08159897 -0.10510095 -0.01463696 -0.08802857 0.07149189 0.020116426 0.06424439 -0.07889541 -0.025043763 0.11962842 0.010511129 -0.0652916 0.027387265 0.0833693 0.11607429 -0.04987706 -0.044115897 -0.009337256 -0.08246249 0.07460861 -0.066912614 0.09771371 0.07407742 -0.046192832 0.019587668 0.0025085164 0.05143644 0.1134476 0.07305339 -0.025597801 -0.009391054 -0.0355039 0.030174134 0.040560268 0.022049615 0.036353927 -0.10232967 -0.01964536 -0.033489406 0.062357724 -0.11054846 0.058484085 -0.013396184
really -0.008510185 -0.1042933 -0.033056635 -0.054662835 0.022841748 0.021942116 0.097327 -0.019118527 -0.0766048 -0.030414337 0.099733606 -0.048525076 0.07237217 -0.031864174 -0.06766467 0.040348463 0.07075015 -0.035397004 -0.0018938427 0.045947775 -0.080893666 0.0070907753 0.025510618 0.015170795 -0.066194795 0.09082724 0.012721008 -0.05101808 -0.07979759 -0.07017178 0.031895474 0.059944928 -0.009057255 -0.05786583 0.017328793 -0.08419381 -0.002127774 -0.022376847 0.011835226 -0.04670417 0.019960286 0.024893466 -0.033456452 -0.061553676 0.044189632 -0.06283275 -0.047881037 0.03621778 0.035811607 0.07501991 -0.020248653 0.001345853 -0.07806932 -0.0029435195 0.082690276 -0.048092082 -0.018224807 -0.0062697195 -0.005009231 0.036012486 -0.047973506 0.0016810711 0.025370762 0.0145005295 0.041886225 0.05788617 -0.02363908 0.028651765 0.09797267 -0.07527349 0.019065505 -0.017436093 -0.044756696 -0.049198132 -0.068595216 0.05231819 0.064815015 0.03500017 0.019256018 0.007442697 -0.06797631 0.02809272 0.024772717 0.013687847 0.004133921 0.10430897 0.06506636 -0.03883584 -0.024320194 -0.071170405 0.066748485 -0.008706163 0.011895707 -0.04199415 -0.011988916 0.072587274 -0.050763644 0.02881933 0.03044252 0.07251743
fly 0.06276038 -0.06812021 0.017439006 -0.096217945 0.14059244 -0.026510991 0.07119579 0.017662644 -0.013751272 -0.11802556 0.13836908 0.06074044 0.023346564 0.11365441 -0.13164496 -0.034796458 -0.058168672 -0.07349398 -0.011615313 -0.068055056 -0.0361747 -0.02071886 -0.04399336 0.040685855 0.13870634 -0.14711604 0.12949991 -0.030655473 0.027021408 -0.07954095 -0.09145818 -0.035330813 0.012911899 -0.016482236 0.015581937 0.01790337 -0.004692609 0.03131218 0.016386045 0.10800106 -0.048316404 0.017818663 0.10347508 0.14191084 -0.06529834 0.11458409 0.02602156 0.17074078 0.08918185 -0.052384753 0.14888996 0.0029412298 0.06796338 -0.008488365 0.12430957 0.022870192 -0.07111448 0.036749 -0.05699456 -0.09830517 -0.109020576 0.02010669 -0.04634334 -0.042809293 -0.025322 0.12376089 0.051972784 0.037956208 0.018452136 -0.13334647 -0.04812032 0.1629751 -0.06983695 -0.06463545 0.030204618 -0.100403056 -0.13350862 0.020450482 0.09619336 0.12983184 0.046676986 0.023826746 0.03981669 0.0005519899 0.04916169 0.00050925056 -0.05002322 -0.040509798 0.08470292 -0.061640907 0.0039711674 0.120423384 0.10618387 -0.08526947 -0.07505127 -0.07257531 -0.007914984 -0.13665862 -0.071101286 -0.0072037494
was -0.05905392 -0.0082206195 -0.09237212 -0.090074874 0.019197628 0.111873195 0.14504126 0.1382513 -0.05671215 -0.066679314 0.062021673 0.050154474 -0.0578388 0.006455524 -0.01653281 0.17140102 0.03672291 0.04511334 -0.13681024 -0.06394029 -0.02777373 0.027814908 0.075079106 0.09000615 -0.096942805 0.099278525 0.00506056 0.045673985 -0.1009319 -0.045598257 0.049163394 -0.009563383 -0.054206654 -0.08713867 0.035009902 -0.13827744 -0.1449558 0.007190637 0.0071855653 0.07702972 -0.0671649 -0.06975335 -0.09150892 -0.08181104 0.11847134 0.094383016 0.020510785 0.020129584 0.07541196 -0.093154564 -0.015651414 0.14491525 -0.10256664 0.08247342 0.120478995 0.11115597 0.13421623 -0.0740498 -0.072786145 -0.07954189 0.052815903 0.07574759 0.10096077 0.09147567 0.072235234 0.013146149 0.079257004 0.1225699 -0.044533826 -0.09145819 0.014521361 0.017617717 0.016201416 0.054605752 0.04312624 -0.036806807 0.12362864 0.070306875 0.03491018 0.008736314 -0.06607093 0.13076027 -0.12217243 -0.08991507 0.1031154 0.035917662 0.09745234 -0.08248535 -0.124249496 -0.1609922 0.042772032 0.0068465406 0.14318134 0.062057592 0.13690248 0.034083106 0.12728143 -0.052544184 0.13671587 0.112048134
an -0.080359444 -0.013590723 -0.1665419 -0.036959536 0.07940166 0.06276172 0.08197102 0.041584063 0.054362845 -0.15086615 0.10155539 0.11938026 -0.06720437 0.07139086 -0.10541028 -0.04851995 -0.06897646 -0.067736834 -0.05237223 -0.0014120949 -0.034942865 -0.15596299 0.00070694 0.045727838 0.048897848 0.15694736 0.080839634 0.1096536 -0.065144874 -0.095487915 0.18681958 -0.1814845 -0.15337251 -0.021244932 -0.051354833 0.021964148 -0.014133337 0.0050063846 0.12364969 0.2141388 -0.058617767 -0.027165277 -0.13198513 0.101047106 0.05407899 0.14213713 -0.12520248 0.009117624 0.14510228 -0.006018846 0.12111616 0.11882221 0.04358597 -0.030318655 0.08708592 -0.054082196 0.09149885 -0.10579112 -0.04730108 -0.12178107 0.091859505 -0.049735896 0.13525338 0.008824333 0.13374616 0.071442455 -0.021246182 0.113266766 -0.03833233 -0.07808551 -0.123344965 -0.027375171 0.06543299 0.026065117 0.1674947 -0.12412657 0.1321295 0.09815963 0.21711263 0.061137844 0.018601738 -0.07771695 -0.013804212 -0.05371765 0.059231494 0.12889813 0.024480965 -0.022936158 -0.18819913 -0.1454107 0.06024303 0.0011688032 0.020197004 -0.07854166 0.09782997 0.05125241 0.024765614 -0.06938495 0.05804364 0.058578428
up -0.05761902 -0.035589725 -0.10484379 -0.093568854 0.08731171 0.0066260025 0.07701319 0.0028119832 -0.14604323 -0.19186272 0.08730773 0.21472166 -0.05226095 0.048252366 -0.11483637 0.07546587 -0.07089757 -0.0035039475 -0.05597446 -0.1336067 0.034608614 -0.077002406 0.026328078 0.025277998 -0.051105402 0.051009234 0.046422012 0.059337858 -0.064643316 -0.1581996 -0.03231679 -0.04100918 -0.044646874 -0.097078934 0.02342143 -0.05580014 -0.0831609 0.17764413 0.17090954 0.024020342 -0.012986435 -0.12316762 -0.033832725 0.03151844 0.08587984 0.1289448 -0.0125928875 0.14605668 0.11294847 -0.03347162 0.074645445 0.091725685 -0.031653695 -0.071766935 0.0913472 0.07426753 0.15612227 -0.11154772 -0.084827945 -0.074115805 0.03301188 0.05380427 -0.008613067 0.050539568 -0.015814265 -0.06351668 0.12497757 -0.038759224 -0.06325168 -0.034150656 0.038933475 0.16497101 -0.09799613 0.05049724 0.079987094 -0.114717916 0.113672584 -0.011236042 0.123188786 0.010114065 0.103622876 0.026270349 -0.03666009 -0.10591611 0.14153552 0.051484436 0.01654124 -0.07825163 -0.0010856197 0.013692631 0.047000285 -0.13719623 0.07496512 0.043284617 0.079976015 -0.04034689 0.038389925 -0.007747751 0.044444684 -0.026494678
been -0.050916392 -0.14431301 -0.02775139 0.063672766 0.04658928 -0.017039664 0.078628436 -0.01616684 -0.024897398 -0.070187636 0.045306753 0.09121216 0.058204312 -0.037157666 0.00058263796 0.033785123 0.016957052 -0.039643575 -0.025956133 -0.07422993 -0.0013270897 -0.08491861 0.07673132 0.030080171 -0.029778248 0.09690937 0.014498065 -0.016266132 -0.061962407 -0.038812675 0.122191474 0.014378598 -0.15104994 -0.020654533 -0.13526279 0.006224797 0.038660586 0.018769458 0.13021572 0.078552544 0.016414251 0.0051236195 -0.07400281 0.044042077 0.023017483 0.09096061 -0.093748726 0.04546643 0.14598605 0.070675515 0.123203345 0.016544271 -0.06005969 -0.030942371 0.086635955 0.08450348 0.040152058 -0.1064457 -0.09012465 -0.06367357 0.0023608662 0.12143937 -0.021004241 -0.1127994 0.03974302 0.06563002 -0.009228283 -0.00045612012 0.008323373 -0.1246015 -0.022413578 0.02345009 -0.079204634 0.035314232 0.084071465 -0.07036288 0.016625447 -0.010154717 0.009521046 0.040516622 0.019345788 -0.049929053 -0.0057864906 -0.06106209 -0.010483112 0.093038194 0.062418204 -0.06751689 0.042246837 0.029279375 0.08330871 -0.008967174 -0.026337221 -0.05213465 -0.052370727 0.06121472 0.037570477 -0.062999085 0.051862624 0.04852784
hi -0.111922 0.053329214 -0.104183845 -0.1443855 0.022372171 -0.024526918 0.006842604 -0.011130944 0.016459322 -0.0027876932 -0.023807833 -0.078083225 -0.07790517 0.030841243 -0.0014089735 0.0717681 -0.021453742 -0.014096519 -0.0050080977 0.015107215 -0.13763055 0.049650345 0.09577403 0.13316503 -0.10520207 0.09197078 -0.044452284 0.14046913 -0.02475503 0.07689772 0.04441586 0.024212934 0.053234886 -0.054376237 0.04094405 -0.08898133 -0.09412998 -0.002975327 -0.06111529 -0.076329164 -0.09512503 -0.09122471 -0.0830294 -0.106763236 0.12435317 -0.041833937 0.08848522 -0.016889326 -0.040856555 -0.09121571 -0.054852407 0.08873451 0.015008308 0.073996074 -0.03646413 0.013153389 0.0048732804 0.13507184 0.09776573 -0.090789035 -0.035666116 -0.05819615 0.11558947 0.039515227 0.089187846 0.054992806 -0.072761655 0.11821466 -0.014742199 0.009624174 0.07613315 -0.089404866 0.016620765 0.026565632 0.0056982683 0.043696012 -0.016793601 -0.0076983003 -0.08996273 -0.098390296 -0.046653338 0.06796615 -0.06734883 -0.09276624 0.08741878 0.17838164 0.029631315 0.05810289 -0.13728335 -0.09208085 -0.053236157 0.024598448 0.06823913 0.07777333 0.0413617 0.047731508 0.045076128 0.07527769 0.021132426 -0.011520484
best 0.04233719 0.0048751985 -0.13688605 0.002996569 0.057859093 -0.03360394 0.02173703 -0.049533542 0.018714424 -0.081781395 0.0074094543 0.07840446 -0.11670346 -0.0060521383 -0.09407371 -0.018411895 0.04634933 -0.08289704 -0.045441154 -0.08310489 0.014076443 -0.07213369 0.034493066 -0.009794005 -0.052578054 -0.09288077 0.12470122 0.06304041 -0.080772035 -0.015674291 0.039084487 -0.024226809 -0.109162614 -0.12376948 0.046431705 0.058738664 -0.045768622 0.10932148 0.08774144 0.098127306 -0.057106674 -0.02133032 -0.06934047 -0.023404092 0.07499747 0.09217552 -0.023666931 -0.04688916 0.057374794 0.009281086 0.047340866 0.03553386 0.06729531 -0.046902023 0.11647173 -0.0072742077 0.086155504 -0.1158885 -0.08995512 -0.04320572 0.025860194 0.024167199 0.052551523 -0.0584583 0.068005085 0.061960127 0.04787929 -0.026132908 -0.051548734 -0.002796596 -0.01297435 0.15448394 0.011178833 0.08647018 0.056843746 -0.16837367 0.13182393 0.014041426 0.1611244 0.07917028 0.0281815 -0.013404462 -0.049335923 -0.043548327 0.082758665 -0.03472939 0.06277888 0.0014431621 -0.03589952 -0.054136593 -0.056340683 -0.098909125 0.08143177 -0.12792453 -0.046963986 0.020088702 -0.016203584 -0.013969738 0.009499009 -0.07515147
down 0.030408012 -0.033409867 0.05178958 -0.07304467 -0.009542084 0.06779124 -0.006838245 0.025188765 -0.04560649 -0.031486183 0.079551116 -0.010805737 -0.03070276 0.02613547 -0.1167657 0.0025212518 0.00865106 -0.06328829 -0.09288402 -0.038779363 -0.13118465 -0.11301122 0.0724491 0.10734385 0.05956311 0.014841217 0.122381285 -0.022258656 -0.14894755 -0.06399201 0.042149898 -0.0772328 -0.0051871673 0.009718355 -0.043572605 0.013591187 -0.080844015 -0.036235046 0.03206912 0.09264525 0.03593294 -0.035709485 -0.032527868 0.097450346 0.009160599 0.03324524 -0.0942914 0.029383428 -0.01245999 -0.04747361 0.00030385272 -0.0011103567 0.07315294 0.025764417 0.042053297 -0.03795646 0.06477409 -0.022534376 0.007942384 -0.059087023 -0.005536236 0.028964099 0.05045442 -0.024499383 0.10537155 0.04614547 0.0573271 0.039563205 -0.06750429 -0.09654436 -0.046807595 0.12655202 0.042553708 0.037562367 -0.03537911 -0.043278843 0.0055451384 -0.11004305 0.09444554 -0.0050542234 -0.036877103 0.023183966 0.0138894515 0.06857884 0.023510132 0.03301571 0.00026923 -0.009629448 0.009714568 -0.0034340937 0.109954245 -0.038074743 0.064392015 -0.060353994 0.037794076 -0.0015304799 -0.003663332 0.08139963 -0.018651556 0.15160699
website 0.0015697785 -0.20622255 0.035425015 0.032759827 0.08665476 0.021020232 0.09081412 0.037929527 -0.044410817 0.017706987 -0.044863667 0.11565383 -0.07550912 0.07844495 -0.04970366 -0.041818716 -0.04954095 -0.016303936 -0.003305721 -0.08695037 -0.083857134 -0.13203771 0.010823537 0.0504243 -0.080774896 0.04271598 0.13515499 0.081529774 -0.15409622 -0.13753894 -0.025504781 -0.084529296 -0.08888098 -0.07140947 -0.12422529 -0.004291697 -0.076005384 -0.07597967 0.061518945 0.07876058 -0.09989769 -0.047400728 -0.0075319232 0.02364847 0.10257542 0.1529931 -0.11313442 -0.051071238 0.0314335 0.049292088 0.009547382 0.086890034 0.06272554 -0.023553101 0.008762928 0.008511849 0.028903065 -0.089080304 0.03766895 0.018394707 0.08591229 0.10862444 0.054544102 0.003916646 0.06719603 -0.030487698 0.04216559 -0.0103824735 -0.012700722 -0.2057894 -0.033556536 0.022290345 0.019690836 0.025393467 0.1322217 -0.03794195 0.041621543 -0.0549452 0.12923901 -0.038222518 0.10602769 0.03532747 -0.009943239 0.020804698 0.033465914 -0.0012460558 0.03247538 -0.10194659 -0.06824193 -0.056939803 0.10823728 0.0071635656 0.02068896 0.1127354 0.1055102 0.017052516 0.022926815 -0.070834294 -0.028980752 0.13477433
experience -0.03164798 -0.03758821 0.046935186 -0.06081898 -0.028142143 -0.054601952 0.07717196 0.04678807 -0.024440605 -0.050722275 0.14988555 0.080823086 -0.011904566 0.035087004 -0.03600504 0.045949016 -0.025296485 -0.09771375 0.006591794 -0.030738883 0.03780807 -0.09693481 -0.00445299 0.047117624 0.04634663 -0.027307505 0.059142966 -0.020016512 -0.11315234 -0.09995078 0.00072929787 -0.07455811 -0.14471228 0.00014015194 -0.018540524 -0.04882628 0.01894364 0.08424503 0.06741704 0.09524676 -0.07834469 -0.06416297 -0.18248758 -0.042308863 0.015922211 0.04439817 -0.14501493 -0.023573017 0.038129795 0.04368296 0.034205873 0.027876489 0.009524929 -0.11589971 -0.031518836 -0.010318692 -0.019240592 -0.026578037 -0.056975286 0.037593897 -0.031347647 0.12136097 0.0677545 -0.060978465 0.024718583 0.054723628 0.027090786 -0.076014414 -0.07689153 -0.061778706 0.032021407 0.08600408 0.04478619 0.07151388 0.043223113 -0.08154902 0.036749367 -0.03859917 0.021914996 0.004756515 0.0067984173 0.064734064 -0.005711171 -0.016977683 0.012072505 -0.016210355 -0.029301126 -0.09246974 -0.062053934 -0.05840027 0.027391905 -0.10517416 0.032337744 -0.08027541 0.102350496 0.073876806 -0.020139273 -0.099783644 -0.03691972 0.068723924
amp -0.04103849 0.054364346 -0.08094231 -0.118487366 0.0644232 -0.015924847 0.11356629 0.06456 -0.030198188 -0.1868444 0.024798105 -0.0009975435 -0.06846424 0.08335759 -0.107249 0.1309303 -0.011836059 -0.13754597 -0.10725205 -0.092091486 -0.11924648 -0.05005864 0.093006134 0.07414928 -0.09296619 0.04239786 0.09991767 0.08764116 -0.056304354 -0.09123629 0.013533213 -0.13943896 -0.15194458 -0.1340668 -0.045027666 -0.052933227 -0.022234695 0.083118685 0.10633341 0.14068297 -0.09269777 -0.05426146 0.05367004 0.13830993 0.107871 0.05519826 -0.12225689 0.15057488 0.13111159 -0.10796288 0.09331073 0.100121744 -0.14894685 -0.11570152 0.050888017 0.070652924 0.09489863 -0.03072786 -0.0441126 -0.09122824 0.06757511 0.06526683 0.06794426 0.002417962 0.08552278 0.11033842 0.0787967 0.028895818 -0.15907927 -0.09834797 -0.07764963 0.14166373 -0.019113991 0.04891903 0.13211876 -0.04213497 0.06292822 -0.09478966 0.10502815 0.08001585 0.07198146 0.07896413 0.006535608 -0.14182627 0.11621162 0.051466763 0.11458902 -0.059925776 -0.055537563 -0.11722681 0.010699798 -0.05459699 0.13359064 -0.04764482 0.031839553 0.10536533 0.08531809 -0.022575278 0.083957456 0.028807592
there -0.10327465 -0.0301055 -0.08980898 -0.09104652 0.11698357 0.07061307 0.07856194 0.04996873 -0.09517208 -0.12913121 0.083425075 -0.01579465 -0.13132808 0.10208341 -0.104289316 0.026605044 -0.10177203 -0.00022112287 -0.058877066 -0.16266966 -0.050826933 -0.08490752 0.03869444 0.024439555 0.07022706 0.08881404 0.08738637 0.13175976 -0.14934203 -0.11649147 0.06864197 -0.10470969 -0.070157096 -0.12765478 -0.11958141 -0.10783558 -0.025905207 0.06901185 0.09003307 0.16569905 -0.041183464 -0.10172521 0.028781708 -0.020913338 0.05269966 0.14456326 -0.1315471 0.052423086 0.08619939 -0.09907756 0.118099645 0.08991851 -0.024267923 -0.0384729 0.035545055 0.08621224 0.046900395 -0.10915513 -0.08800072 -0.09520611 0.013791115 0.12116353 0.12040555 -0.029719273 0.0871043 0.037505064 0.08826476 0.087222815 -0.07990127 -0.10550112 0.051595617 0.07553339 0.02346692 0.042337384 0.10071523 -0.07473373 0.090154685 -0.16788179 0.06289169 0.020380015 -0.101184875 0.068311654 -0.10427417 -0.033075992 0.10232988 0.07506204 0.06575737 -0.048120543 -0.03746815 -0.04023336 0.041389126 -0.043866366 0.1269886 -0.008779731 0.085765906 0.13337627 0.093954846 -0.103118494 0.09774521 0.055898394
3 -0.054026064 0.017433094 -0.124146536 -0.109450795 0.07883263 0.025480937 0.074638285 0.03551734 -0.0044253394 -0.11206308 0.10645185 0.0029166192 -0.020718921 0.1143155 -0.08435774 0.033884827 -0.02648639 -0.11051753 0.004162714 -0.120379716 -0.0597746 -0.03593192 0.08514576 0.03640326 -0.06701725 -0.026531203 0.098956645 0.041714128 -0.01455126 -0.06392415 0.04681072 -0.08641865 -0.0296763 -0.018037554 -0.06517158 -0.07312641 -0.11772459 0.11190875 0.08690204 0.14403605 0.0048431032 0.0004048671 -0.0641358 0.035457596 0.09686512 0.07696383 0.051956195 0.12436085 0.05907855 0.031079609 0.031253032 0.030065032 0.018742217 -0.19829166 0.118172556 -0.022459762 0.014905821 -0.1252701 -0.04781266 -0.0621952 -0.06364154 0.10334448 0.07859111 -0.042029835 0.095933296 -0.051861364 0.07312685 0.13650832 0.0068760253 -0.16082099 -0.022562789 0.12903236 -0.020354742 0.03955023 0.053378887 -0.10784165 -0.049629238 0.009991852 0.044786744 0.10974102 0.022236591 -0.0150187835 -0.026871085 -0.10618369 0.045217786 0.056459982 0.029616544 -0.06308213 -0.05084193 -0.1387892 -0.017644593 0.04768216 0.07441123 0.17252393 0.057331976 0.012282604 0.022406511 0.10874313 0.021607094 -0.05292893
so -0.10162813 0.02081668 -0.016700054 -0.0634451 0.041720018 0.06653926 0.059458055 0.07363664 -0.035983246 -0.023607407 0.031823196 0.091624394 -0.06755463 0.06309398 0.04039109 0.0643817 -0.13230383 -0.023809774 -0.03662611 -0.07737432 -0.09503403 -0.08093648 0.017537259 0.09716028 0.03876802 0.03036405 0.04307321 0.050396223 -0.027037377 -0.02973363 -0.0011978284 -0.0994298 0.006836743 -0.086381495 -0.037983518 -0.075002976 -0.00015060592 0.08753001 0.120487444 0.015721735 -0.024662377 -0.016631497 -0.008503601 -0.024136644 0.03902622 0.003941047 -0.103935495 0.066169746 0.10575065 -0.035098758 0.06611321 0.029325582 -0.028056368 -0.08563603 0.061191067 -0.012304579 -0.07136046 0.0058575408 0.055173054 -0.07118127 0.00087809714 0.004383678 0.021103222 -0.0017128686 0.050246187 0.041769914 0.07646089 0.14714022 0.012984583 -0.017078167 0.10798366 0.026827404 -0.013222025 0.07745179 0.15132335 -0.059959643 0.01842143 0.048703033 0.08262838 0.030407261 0.042401128 0.055694085 -0.030913556 -0.082190834 0.106757596 0.08526615 0.027502265 -0.07070898 -0.104289964 -0.04522151 0.0063649807 -0.021334939 0.02517794 0.029533556 0.008257084 0.029682053 0.067420006 -0.043683566 -0.001632758 0.003714192
than -0.0741 -0.107758425 -0.06778322 -0.1096676 0.049715504 0.14153555 0.06755936 0.052657254 -0.13395758 -0.14924069 0.13974315 0.119481854 -0.1328516 0.13239707 -0.15767898 0.08903854 -0.011842455 -0.13254786 -0.11684586 -0.17797357 -0.05693913 -0.111605495 0.12047624 0.08929773 0.07382979 0.028331473 0.19490686 0.10782076 -0.050675992 -0.072622925 0.12307609 -0.095658705 -0.07861407 -0.1456424 -0.12712723 -0.11472602 -0.10085693 0.11309084 0.15029152 0.110976554 -0.03160198 -0.06858257 -0.118106894 0.030990925 0.092388555 0.12455572 -0.22045787 -0.0031275193 0.024878662 -0.13680382 0.11868481 0.050840702 0.014137914 -0.072619125 0.114557676 0.11572763 0.09658972 -0.16854918 -0.0650007 -0.10714008 0.12861799 0.078138135 0.07527179 -0.048122216 0.095632784 0.08090284 0.19733775 0.16335268 -0.088182196 -0.08408819 -0.0652032 0.23028293 0.009823833 0.05358789 0.12212931 -0.07857554 0.1005854 -0.14118738 0.14574198 0.08321679 -0.087248035 0.08093972 -0.08096781 -0.115528606 0.09071605 0.17220086 0.07521947 -0.049039952 -0.15835406 -0.1071895 0.039242215 -0.10710436 0.11088487 0.08846551 0.057827193 0.09577286 0.09023215 -0.11219925 0.07799182 0.11788955
i've -0.031881504 -0.040930122 -0.0800802 -0.17865068 0.11862231 0.12908494 0.08554085 0.09251974 -0.06885808 -0.10702955 0.015511139 0.15699565 -0.16584612 0.017893257 -0.074545465 0.12047135 -0.0034575409 -0.050408594 -0.058811013 -0.040822398 -0.047445927 -0.06855287 0.055818614 0.1192822 -0.0834832 0.18424048 0.15310404 0.07602719 -0.1076548 -0.058086 0.07062269 -0.043713048 -0.11273321 -0.17203079 -0.09784866 -0.12923233 -0.07462039 0.02660878 0.1530216 0.0042655203 -0.023727035 -0.09857267 -0.10398814 0.024260923 0.08371697 0.067344286 -0.011708172 0.10632944 0.11761924 -0.08711194 0.107180275 0.15630512 -0.13822198 -0.10617778 0.14081572 0.033525098 0.04626054 -0.16017158 -0.011443925 -0.16165096 0.123824574 0.071133144 0.092190176 0.06616185 0.014219461 -0.007649469 0.04742532 0.02770967 -0.14107165 -0.13376778 -0.07503179 0.16034307 0.073881604 0.10210997 0.08322886 -0.10191037 0.075421534 -0.057375096 0.0753031 0.04033145 0.008862293 0.07841501 -0.11818293 -0.11174188 0.066704445 0.15124571 0.15382089 -0.008379756 -0.095796235 -0.037201315 0.104763344 -0.031249793 0.13652244 -0.050227538 0.0654649 0.16776618 0.11836957 -0.049847517 0.17017838 0.051111642
last -0.058272045 0.014898275 -0.07148313 -0.10287062 0.14703901 0.057570055 0.058954008 0.007655464 0.0415175 -0.14688683 0.11418868 0.09901809 -0.06963295 0.028167086 -0.0967928 0.021211307 -0.047254942 0.024284607 -0.08195445 -0.04466676 -0.05446663 -0.027502697 0.008004676 0.11737684 -0.00017563766 0.009891927 0.110186644 0.10876295 -0.048130304 -0.12343072 0.059655648 -0.09182249 -0.058265533 -0.096332 -0.10709663 0.023426263 -0.0661841 0.11335415 0.1039017 0.059046406 -0.03762759 -0.060577992 -0.06246267 0.037010636 0.016529404 0.14182542 -0.14030223 0.08244698 0.1644194 -0.06590934 0.039148092 0.12566006 -0.09564673 -0.040202036 0.14569288 0.17582527 0.09836047 -0.05170084 -0.15087053 -0.050867405 0.08380429 0.08788983 0.09461814 0.0838072 0.067809075 0.08819833 0.05470729 0.03197783 -0.034516092 -0.07449038 -0.044222664 0.062262654 0.022238951 0.010528031 0.07929636 -0.0634606 0.07816307 0.016185869 0.052419446 0.040029038 0.03717921 0.05312607 -0.060828585 -0.07995395 0.061333556 0.13087045 0.07987121 -0.15218383 -0.116440915 -0.07337847 -0.018292554 0.040955402 0.10523438 -0.13619265 0.1006746 0.072991274 0.07927976 -0.053424355 0.02431723 0.08151119
seat 0.05951524 -0.08026509 0.0016866308 0.017475558 -0.0106340265 -0.0114738885 0.009186322 -0.032906353 -0.0012511262 -0.09797634 0.06409818 0.10184046 0.10157464 -0.053201154 -0.08432175 0.020989668 0.010251759 -0.08352494 -0.015589656 -0.050111543 -0.034242425 -0.045853924 0.02659325 0.0026403195 -0.03728917 -0.0037919737 0.004363831 -0.009977823 0.018548394 -0.102936774 0.015991086 -0.106464915 0.033721227 -0.0074468884 0.020888189 -0.021894522 0.05121597 0.05634651 0.0038403256 -0.0011274772 0.016701065 -0.06413013 -0.07087442 -0.038844686 0.052118838 -0.03357231 0.023758657 0.022386994 0.10045468 0.04054983 -0.024124553 0.004447095 -0.12273122 -0.056091633 -0.019833112 0.0028089387 -0.0052283304 -0.13514894 -0.1547621 -0.02460223 -0.011298193 0.11106596 -0.01592984 0.037938006 0.026905382 -0.013752888 0.108545676 0.025548063 0.05423296 -0.0050215777 0.03008505 0.009167999 -0.026419574 -0.02457448 -0.11033786 0.025662249 0.07950314 -0.06598292 0.13546996 -0.021246616 0.08764703 -0.02403064 -0.06487112 0.03449141 0.005691066 -0.05351239 -0.007593015 -0.033680692 0.03592539 0.038677026 0.08695691 -0.12862954 -0.013699406 -0.10826873 0.06272588 0.017912509 -0.0048037823 -0.007877024 0.02382337 0.003377405
why 0.035880607 -0.061334807 0.04150541 0.020522768 -0.09140115 -0.05375948 -0.048732013 0.0039874 0.027175277 0.112918966 -0.05328707 -0.058291994 0.0150898285 -0.028622355 0.10883491 0.0134295765 0.004237622 0.056857444 -0.0023940175 0.11267989 0.0009785361 0.012692268 -0.023613183 -0.019975284 0.01575331 0.0015440092 -0.09816836 0.0035052886 -0.085361235 0.13013022 -0.005871345 0.04265064 0.10900382 -0.015455197 -0.06860787 -0.017334545 0.0363437 -0.06466238 -0.15231085 -0.037047535 -0.053776916 0.026948256 -0.0011260093 -0.07286718 0.017711112 -0.008301125 0.046285577 -0.05745106 -0.048920307 -0.036202595 -0.092653394 -0.04134846 -0.008652256 0.08187616 -0.014084411 -0.06271471 -0.046202477 0.10745846 0.16583546 -0.04569725 0.023552915 -0.08602959 -0.032765288 -0.020442016 0.016640253 -0.05532077 -0.14081268 0.0024989354 -0.019808302 0.06805663 -0.043757092 -0.06982076 0.07795357 -0.0161296 -0.031604923 0.17409112 -0.006153089 0.038314734 -0.033004344 -0.08093513 -0.04266818 -0.042707704 0.05451354 0.033410113 -0.09606667 0.023605729 -0.050841786 0.048174426 -0.058440384 0.033508852 -0.074632265 0.1167707 0.0018169077 0.009925982 -0.0038978294 0.01557862 0.014969406 0.0639599 0.015176611 0.085063264
when -0.029689662 -0.02445142 -0.11374925 -0.15051265 0.018498162 0.12834921 0.011052521 0.03287827 -0.042188976 -0.09887091 0.026542122 0.08751446 -0.07152687 0.10615952 -0.116071485 0.02002783 -0.05052746 -0.06785149 0.0068577346 -0.068191245 -0.048139628 -0.014480049 0.0330092 0.059667185 0.09104899 0.03209289 0.010601054 -0.011018855 -0.0398517 -0.06331358 0.08761407 -0.026699314 -0.06224711 -0.042997982 -0.10199543 -0.09472154 -0.16106503 -0.013550407 0.021953786 0.09238093 -0.05191776 -0.066206634 -4.291511e-05 0.002861427 0.101450525 0.13407786 -0.13178758 0.0038889754 0.073134586 -0.075630814 0.114276804 0.026082207 0.044468775 0.003274608 0.069100335 0.116882354 0.091396585 -0.09132595 -0.028773252 -0.011197968 0.06320025 0.007872855 0.10271946 0.0061683906 -0.018351663 -0.019937234 0.09169659 0.043214478 -0.069451876 -0.08348535 -0.027689403 0.09093236 0.023986006 0.07781381 0.033786654 -0.072682716 0.05067246 -0.06193572 0.0085353255 0.06278059 0.030000284 0.10444215 -0.05639757 -0.03188258 -0.0041793166 0.02740775 0.049214117 0.0046472996 -0.11121119 -0.13558887 0.02847 -0.09919601 0.08216733 0.030175898 0.06890899 0.019699384 0.022597102 -0.053060822 0.077568084 0.0075182226
at -0.039143957 -0.01690201 -0.10787037 -0.0225096 0.09783814 0.102054104 0.068168126 0.11396249 -0.07136763 -0.09426378 0.12556747 0.089632586 -0.03100245 0.019464007 -0.044803374 -3.6821002e-05 0.09687101 -0.08245019 -0.11230955 -0.0910592 0.0020273048 -0.12652606 0.064140625 0.05525298 -0.044072334 0.021774998 0.04980154 -0.005926845 -0.11435725 -0.053586073 0.109224156 -0.100443825 -0.07955419 -0.105521925 -0.024798004 -0.0055049965 -0.021201137 0.08585038 0.10042008 0.100297935 -0.13553762 -0.038194858 -0.06347409 -0.030623287 0.005455226 0.09393834 -0.16809075 0.038484447 0.049348466 -0.012122771 0.022924043 0.07782672 -0.013549094 -0.09437312 0.09962735 -0.0020456808 0.09956665 -0.07136452 -0.07860338 -0.04339176 0.049322527 0.051826917 0.05376658 -0.08212597 0.032278474 0.13436042 0.013928209 0.020005727 -0.009624734 -0.062439863 -0.076766714 0.12556356 -0.0061455243 -0.027523784 -0.004970867 -0.027170232 0.07291979 -0.13446498 0.07061088 0.06724715 -0.035558615 -0.012881458 -0.04563106 -0.006815377 0.041337747 -0.0515453 0.03589902 -0.09248005 -0.13710116 -0.008124968 0.06348584 -0.07646987 0.12173253 0.013125521 0.023729434 0.056696065 0.04509266 -0.014998622 0.04025095 0.14361148
any -0.08780496 -0.05177908 -0.021140175 -0.13400662 0.12719838 0.1849465 0.103394575 0.14287022 -0.0311634 -0.22070192 0.08321532 0.11586283 -0.1790565 0.1615407 -0.16869794 0.021683304 -0.050834592 -0.1034997 -0.08123686 -0.15865353 -0.041444372 -0.10135762 0.14759323 0.08757429 -0.016694158 0.13131122 0.103737004 0.11006834 -0.14383177 -0.12828137 0.07560901 -0.1006761 -0.08486789 -0.06074269 -0.031085784 -0.06292361 -0.1484214 0.18729377 0.05377047 0.09731937 -0.06738928 -0.101829715 -0.08312762 -0.008547947 0.071470916 0.19110711 -0.13312471 0.05542482 0.13845713 -0.11911661 0.10746107 0.04801062 -0.038034875 -0.04110577 0.009971955 0.03265936 0.08819624 -0.10720037 -0.1317689 -0.16011965 -0.017019214 0.07894981 0.19628651 0.023878502 0.15310676 0.0062709 0.10349257 0.11856648 -0.09770009 -0.090196565 -0.069525 0.16838236 0.0006609371 0.13952383 0.123013675 -0.12819262 0.10560319 -0.16686065 0.13744234 0.037733577 0.06453723 0.092993274 -0.17540549 -0.17268907 0.13185945 0.09187726 0.11276082 -0.09264276 -0.22024205 -0.09854771 0.053667024 -0.15201855 0.12276213 0.114922374 0.088434726 0.10566669 0.15028146 -0.03490893 0.12771043 0.14201193
add 0.03312055 -0.053002786 0.052323766 0.059626143 0.042034704 -0.05685602 -0.06906102 -0.041120365 0.019898966 -0.07667853 0.029909508 0.0029258602 0.073313996 -0.026433632 -0.07140102 0.033715416 0.024889713 -0.045765206 0.0120788645 -0.023031885 -0.022751227 0.043663453 -0.0010625354 -0.12721841 0.0243912 -0.06856234 -0.030158322 -0.004246494 -0.024614573 -0.04857129 -0.061584316 -0.03357568 -0.0026309541 0.053746022 0.04856235 0.016363077 0.027767159 0.05494043 -0.009580789 0.049471818 -0.0067808013 -0.0057616076 0.0027413114 0.007954769 0.009360119 -0.0095123835 0.061973408 0.07896535 0.019274065 0.05617499 0.020974908 -0.09002825 0.030315593 -0.05345155 -0.0060557565 0.013628768 -0.10954515 -0.04610731 -0.02607554 0.0018142171 -0.059110135 0.0508357 -0.13285448 -0.043255225 -0.047467917 0.03536194 0.034929827 -0.073609844 0.0956548 0.027796535 0.04802875 0.07687774 -0.030992536 0.003396855 -0.02869836 0.030179096 -0.039170966 -0.03202275 0.052715477 0.0045517967 -0.009902922 -0.06544398 0.06656716 0.066488445 -0.051649567 -0.029193535 -0.09671899 -0.022837194 0.124046944 0.009788405 -0.06635888 -0.03290291 0.013499369 -0.009615067 -0.053681545 -0.0894579 0.01227823 0.027731638 -0.027319575 -0.059000958
online 0.027159885 -0.076610036 -0.030890724 -0.020366095 0.061042376 0.006545515 0.032562442 -0.0032310314 -0.06556025 -0.042453844 0.095816724 0.12316128 -0.03067891 0.045832947 -0.098278284 0.05416855 -0.039257612 -0.11569522 0.031248702 -0.05588577 -0.08236648 -0.00021202175 -0.021058068 0.003575287 0.10441888 0.0064146444 0.002040885 -0.0043647233 -0.039773732 -0.029132873 -0.07289998 -0.0955172 -0.039941963 -0.03282472 -0.06693919 -0.07326578 0.022872591 0.01314833 0.07164922 0.10210972 0.010521438 -0.08811656 -0.013531898 0.042686135 0.031126127 0.06487845 -0.004394717 0.14271733 0.07813854 -0.036718898 0.03506904 -0.05999652 0.030484103 -0.113598675 0.021284865 -0.0069609275 0.06662161 -0.053727612 -0.051127695 -0.009213192 0.017483328 0.04644099 0.03919375 -0.046038486 0.10631303 -0.0028983355 0.07460896 -0.012793872 0.020093547 -0.06422618 -0.00699644 0.07875366 -0.02329032 0.044040147 0.12984155 -0.065202646 0.017189188 -0.042108275 0.023443501 0.08343536 0.0007624221 -0.055135094 -0.06724728 -0.026814636 0.040870503 0.026283763 -0.0032795176 -0.080174 -0.045484807 0.01702131 0.10210786 -0.02563603 -0.000441739 0.014519958 -0.023090579 0.027665073 -0.0043325895 0.01806337 -0.039113607 0.0083391
phone 0.031763174 -0.063001186 0.10934129 0.0482089 0.05373966 -0.07857105 -0.036035605 -0.050047535 -0.007739092 -0.027138073 -0.032044 0.016648013 0.011673791 0.00946283 -0.032525014 0.03882472 -0.08596976 -0.009096518 0.049899112 -0.101486914 -0.05365778 -0.013594836 0.02433085 -0.010732388 0.028070908 0.03806241 0.03195741 -0.04235142 0.0048573636 -0.0016096632 -0.0042483266 -0.0064168554 -0.024847122 -0.07394446 0.015257381 0.049417507 0.0600376 0.04500697 0.042972058 0.023730403 0.02494531 -0.01334595 0.08692235 0.013989785 0.075897954 0.062082753 -0.05413631 -0.006018802 0.08116552 0.03423135 0.034382008 0.0105189355 -0.009262952 -0.04926367 0.014960066 0.02107009 -0.0062512327 -0.057563335 -0.056307282 -0.014581185 0.011594645 -0.0055708215 -0.050125908 -0.08668249 -0.027850341 0.0042985138 0.013842124 -0.05678193 0.024489678 -0.0481961 0.05757949 0.043492556 0.02364977 -0.03245227 0.011933361 -0.040736128 0.044941984 0.038698647 0.065106675 -0.051874552 0.0952933 0.000713767 -0.033923313 0.011623399 0.054799482 0.008008474 -0.021296848 -0.07192186 0.020446135 0.026134849 0.04242702 -0.04181676 -0.03374217 0.03484502 0.0063229026 -0.02521455 0.017574785 0.047459565 -0.0161872 -0.04849176
service -0.02213736 -0.10501005 0.0046213972 -0.06832147 0.0316146 0.027174095 0.027996402 0.018112559 -0.11669672 -0.032355763 0.06831416 0.030288158 -0.03060885 0.1369298 -0.12006492 -0.053371716 -0.0810847 -0.09825903 -0.033454366 -0.10705289 -0.0093500735 -0.12343126 0.07496115 0.076380156 0.013336311 0.038180724 0.13395365 0.03694314 -0.049722046 -0.075890824 0.03464976 0.016914316 -0.015349528 -0.03116014 -0.041821256 -0.042192623 -0.037145194 0.03261727 0.10211259 0.03352997 -0.08641173 -0.019579101 -0.045314755 0.062924765 0.03191567 0.09368933 -0.12004484 0.021818338 0.06471671 -0.06590217 0.08836262 -0.050505888 0.041943904 -0.12243088 0.029543635 0.037280418 0.020100161 -0.060097322 -0.071581185 -0.046318203 0.034074005 0.09878927 0.0070593776 -0.057775225 0.092200935 -0.0051342715 0.11865047 0.09163334 -0.009020589 -0.16583604 -0.03231817 0.17150572 0.046616327 -0.0039488394 0.061237585 -0.03731849 0.04640233 -0.068663836 0.03705747 0.11551717 0.01819272 0.036790323 0.058251858 -0.04429712 0.012697242 0.037689537 0.07989596 -0.06892307 -0.07231299 -0.05227351 0.08364581 -0.05359069 0.04348631 -0.027805533 0.07545817 0.08474077 0.03661859 0.045523323 0.07886392 0.16926154
way -0.008236812 -0.05026425 -0.08949983 -0.06632244 0.05040161 -0.0068088965 0.034521926 -0.044432055 -0.06826853 -0.10525584 0.1118528 -0.02761618 0.0010382847 0.028552895 -0.02901445 0.084357455 -0.009505135 -0.030945346 0.0037464476 -0.12558563 0.025066873 -0.012936049 0.00022331264 -0.044559404 0.05781126 -0.048320636 0.045548633 0.020617101 -0.04202096 -0.012538325 0.027898755 -0.051122766 -0.052337248 -0.035521206 -0.05317482 0.036351427 0.022064883 0.055555757 0.089524254 0.029123873 -0.044495013 -0.065026924 -0.039898895 0.050603677 -0.017388392 -0.008547803 -0.011929305 -0.0035208808 0.043096736 0.007003798 0.05311925 0.0016526418 -0.059238996 -0.025359266 0.13523856 0.01653098 0.029077657 -0.01134822 -0.07620087 -0.039865155 -0.04350107 0.10550976 -0.029038608 -0.14147927 0.043407038 0.022211066 0.00035893836 -0.03724081 0.039399568 -0.09219044 0.016678384 0.03187588 -0.03088784 0.045049693 0.085982665 -0.034097493 0.15829542 -0.005654911 0.024237145 -0.06202098 -0.0021097097 -0.051481765 -0.013603193 -0.009708573 0.010692225 -0.037071865 0.015415654 -0.16539666 0.03352415 0.0035885174 0.06868495 -0.06538296 0.09429777 0.017496968 0.062262774 0.016939541 0.023709256 -0.06616479 -0.059541546 0.011742121
airline -0.051218014 -0.034297805 -0.070335895 -0.06953054 0.03495045 0.04795023 0.09453966 -0.026987338 -0.070569366 -0.08255076 -0.0011574675 0.10584759 -0.05247238 0.037117656 -0.014208323 -0.0006897169 -0.058031436 -0.12266502 -0.027082322 -0.06033998 -0.009371805 -0.035427906 0.06853026 0.09262291 0.07888632 0.11512448 -0.00037054042 -0.019265635 -0.0905783 -0.061823513 0.09581643 -0.051302817 -0.009209688 -0.08506289 -0.057763837 -0.01840713 -0.061655637 0.047193542 0.012330543 0.018397639 -0.06309825 -0.069733545 0.008134835 0.0108997505 0.023298312 0.11571285 -0.08258314 0.0504535 0.046432532 -0.03791715 0.043754887 0.00427791 0.039453033 -0.035499003 0.029257733 -0.010079529 -0.0050437236 -0.10318811 0.036594994 -0.052436378 -0.024320584 0.08863023 0.0731781 -0.04797721 0.16847104 0.06373937 0.06873419 0.07360678 -0.023145756 -0.110110626 -0.09924213 0.11049442 0.066246174 0.050166786 0.11157374 -0.037364606 0.006077676 0.0039961445 0.08566467 0.0072012157 0.053045165 0.013742913 -0.071652286 -0.017292455 0.09143686 0.09464838 0.050236285 -0.10830431 -0.07354752 -0.09300733 0.0018321795 -0.016355254 0.08124244 0.10270585 0.024874795 0.09076188 0.0462662 0.011258241 0.024698846 0.015229746
